################################################################################
# Neural network connection values (weights and biases).
################################################################################
# Col  Name       Description
################################################################################
# 1    connection Neural network connection value.
# 2    t          Connection type (a = weight, b = bias).
# 3    index      Index enumerating weights.
# 4    l_s        Starting point layer (end point layer for biases).
# 5    n_s        Starting point neuron in starting layer (end point neuron for biases).
# 6    l_e        End point layer.
# 7    n_e        End point neuron in end layer.
################################################################################
#                      1 2         3     4     5     6     7
#             connection t     index   l_s   n_s   l_e   n_e
############################################################
  3.4803434283422019E-01 a         1     0     1     1     1
  1.6579762071134088E+00 a         2     0     1     1     2
 -4.1558323553266069E-01 a         3     0     1     1     3
  2.6901999852110475E-01 a         4     0     1     1     4
  5.3911106331798386E-01 a         5     0     1     1     5
 -4.9430702465514326E-01 a         6     0     1     1     6
 -4.4833086828064284E-01 a         7     0     1     1     7
  1.8223414015288303E-01 a         8     0     1     1     8
  5.8063649894423142E-01 a         9     0     1     1     9
  3.4817145665044041E-01 a        10     0     1     1    10
 -1.3893774494110400E-01 a        11     0     1     1    11
 -6.7712378531422834E-01 a        12     0     1     1    12
  2.6769947877276962E-01 a        13     0     1     1    13
 -8.4603131951322064E-01 a        14     0     1     1    14
 -1.1954989999610154E-01 a        15     0     1     1    15
 -5.8407202577708495E-01 a        16     0     2     1     1
  1.4024519063818939E+00 a        17     0     2     1     2
  1.4906145235242307E+00 a        18     0     2     1     3
 -8.1275575432564273E-01 a        19     0     2     1     4
  4.7474485171580999E-01 a        20     0     2     1     5
 -1.9547229235971902E-01 a        21     0     2     1     6
  3.5141610461503181E-01 a        22     0     2     1     7
 -1.8100775122964901E+00 a        23     0     2     1     8
 -2.3623938996259497E+00 a        24     0     2     1     9
 -1.2806247325850051E+00 a        25     0     2     1    10
  1.2418337794720460E+00 a        26     0     2     1    11
 -1.3012907113331122E+00 a        27     0     2     1    12
 -5.3621021783819178E-01 a        28     0     2     1    13
 -4.1050466762287058E-01 a        29     0     2     1    14
 -5.0453613720300905E-01 a        30     0     2     1    15
 -3.6311481010925253E-02 a        31     0     3     1     1
 -5.1564435324930313E-01 a        32     0     3     1     2
 -1.0349160773664892E+00 a        33     0     3     1     3
  3.1175471660732781E-02 a        34     0     3     1     4
 -8.5233009741549381E-01 a        35     0     3     1     5
  2.5004444346595950E-01 a        36     0     3     1     6
 -1.3616447960478717E-01 a        37     0     3     1     7
  3.1470496787036945E-01 a        38     0     3     1     8
  6.8477226853537099E-01 a        39     0     3     1     9
  3.1649788538663687E-01 a        40     0     3     1    10
 -9.1119473672788198E-01 a        41     0     3     1    11
  6.0455994566563787E-01 a        42     0     3     1    12
  2.0530983982963175E-01 a        43     0     3     1    13
 -3.7759787205514794E-01 a        44     0     3     1    14
 -3.5614003014595685E-01 a        45     0     3     1    15
  8.2480176982889286E-01 a        46     0     4     1     1
 -5.0265358201034482E-01 a        47     0     4     1     2
 -1.4217174223538813E+00 a        48     0     4     1     3
  6.5942470326652725E-01 a        49     0     4     1     4
 -3.5618427659412188E-01 a        50     0     4     1     5
  2.0433278144525460E-02 a        51     0     4     1     6
  1.2791237954510690E+00 a        52     0     4     1     7
  1.5594144613250736E+00 a        53     0     4     1     8
  1.0043470407946862E+00 a        54     0     4     1     9
  1.3666792891453496E+00 a        55     0     4     1    10
 -5.1059094573608943E-01 a        56     0     4     1    11
 -4.7598657401315236E-01 a        57     0     4     1    12
 -4.9812541437519831E-01 a        58     0     4     1    13
  1.5502915618908002E+00 a        59     0     4     1    14
 -1.3306471340961110E-01 a        60     0     4     1    15
 -3.5805074421479693E-01 a        61     0     5     1     1
 -1.7477719420295923E+00 a        62     0     5     1     2
  9.2152022579983062E-01 a        63     0     5     1     3
 -5.7593095480183543E-01 a        64     0     5     1     4
 -1.2326473214992331E+00 a        65     0     5     1     5
  1.4199818129617583E-01 a        66     0     5     1     6
 -4.9454371115220497E-01 a        67     0     5     1     7
 -7.7658517201052979E-01 a        68     0     5     1     8
 -5.5459765858493792E-01 a        69     0     5     1     9
 -1.3557016172559613E+00 a        70     0     5     1    10
  9.6216779452899581E-02 a        71     0     5     1    11
  1.4651014201094801E+00 a        72     0     5     1    12
  7.7499307643398441E-01 a        73     0     5     1    13
 -6.7856924455304291E-01 a        74     0     5     1    14
 -3.2794202064421035E-01 a        75     0     5     1    15
  3.4237362966685214E-01 a        76     0     6     1     1
 -1.6092612204048349E+00 a        77     0     6     1     2
 -3.1427476450134301E-01 a        78     0     6     1     3
  6.5940776642569721E-01 a        79     0     6     1     4
  4.4341040686259943E-02 a        80     0     6     1     5
 -4.3461468503037413E-02 a        81     0     6     1     6
 -1.3452980542852826E+00 a        82     0     6     1     7
  9.2470847270009948E-01 a        83     0     6     1     8
  1.6699812447107851E+00 a        84     0     6     1     9
  9.0990416608766211E-01 a        85     0     6     1    10
 -2.9290847098131950E-01 a        86     0     6     1    11
  1.3087719446917543E+00 a        87     0     6     1    12
 -4.1628474952967792E-01 a        88     0     6     1    13
  7.2290038396327161E-01 a        89     0     6     1    14
  9.7853692897115663E-01 a        90     0     6     1    15
  3.2856954998771443E-01 a        91     0     7     1     1
 -8.7592697744407766E-01 a        92     0     7     1     2
 -1.3185051266087748E+00 a        93     0     7     1     3
  4.6225374863035747E-02 a        94     0     7     1     4
  1.8848757103537880E-01 a        95     0     7     1     5
 -1.4142847538140729E-01 a        96     0     7     1     6
  8.7794290340603931E-01 a        97     0     7     1     7
  4.6771250056155805E-01 a        98     0     7     1     8
 -6.8897508591283885E-01 a        99     0     7     1     9
  2.0623904411374394E-01 a       100     0     7     1    10
  2.8247536629280728E-01 a       101     0     7     1    11
 -1.2429739049731525E+00 a       102     0     7     1    12
  2.1006854375334688E-01 a       103     0     7     1    13
  6.8841107403104418E-01 a       104     0     7     1    14
  3.5558277391277693E-01 a       105     0     7     1    15
 -1.0740159586022786E+00 a       106     0     8     1     1
 -5.4232965091430907E-01 a       107     0     8     1     2
  3.5975591849507489E+00 a       108     0     8     1     3
 -1.4971369871094291E+00 a       109     0     8     1     4
 -1.8956945915973467E-01 a       110     0     8     1     5
  4.0871419995532010E-01 a       111     0     8     1     6
 -2.5198394373123754E+00 a       112     0     8     1     7
 -2.9164274013447571E+00 a       113     0     8     1     8
 -1.9110903272242172E+00 a       114     0     8     1     9
 -2.8071431852304078E+00 a       115     0     8     1    10
  4.7897881087561955E-01 a       116     0     8     1    11
  2.7844499728201786E+00 a       117     0     8     1    12
 -2.5266703392910650E-01 a       118     0     8     1    13
 -2.3992706594866866E+00 a       119     0     8     1    14
 -1.5177837596920549E-01 a       120     0     8     1    15
 -1.4295041737228362E+00 a       121     0     9     1     1
  1.9344722516742383E+00 a       122     0     9     1     2
  2.4927925547825311E+00 a       123     0     9     1     3
 -1.0073172953930107E+00 a       124     0     9     1     4
 -3.7624316419503623E-01 a       125     0     9     1     5
 -4.4267395846671526E-01 a       126     0     9     1     6
 -3.5784146461569211E-01 a       127     0     9     1     7
 -1.9353260569902309E+00 a       128     0     9     1     8
 -5.3647525325306793E+00 a       129     0     9     1     9
 -1.5754908298171835E+00 a       130     0     9     1    10
 -2.1050773122856628E-01 a       131     0     9     1    11
 -7.4383890124044852E-02 a       132     0     9     1    12
 -3.9454497633395241E-01 a       133     0     9     1    13
 -1.4869768670098660E+00 a       134     0     9     1    14
 -3.4010695387980364E-02 a       135     0     9     1    15
  1.2448694718066913E+00 a       136     0    10     1     1
  8.8664836556374205E-01 a       137     0    10     1     2
 -1.4122252758848015E+00 a       138     0    10     1     3
  4.6154524192307428E-01 a       139     0    10     1     4
  6.9394595130347547E-01 a       140     0    10     1     5
  1.2892584434613132E+00 a       141     0    10     1     6
  1.1504467900109470E-01 a       142     0    10     1     7
  2.0396781549686347E+00 a       143     0    10     1     8
  1.3688306031920150E-01 a       144     0    10     1     9
  9.4885175450170300E-01 a       145     0    10     1    10
  8.4716609030317880E-01 a       146     0    10     1    11
 -2.2463049919346840E+00 a       147     0    10     1    12
 -9.6063843655878375E-02 a       148     0    10     1    13
  2.9916151429333282E-01 a       149     0    10     1    14
  5.7006953606188004E-01 a       150     0    10     1    15
 -3.5861631265913096E-01 a       151     0    11     1     1
 -6.3205359620751334E-01 a       152     0    11     1     2
  1.1185738214579832E+00 a       153     0    11     1     3
  1.1336521548238734E+00 a       154     0    11     1     4
 -9.1883910406821631E-02 a       155     0    11     1     5
  2.2132833972360741E-01 a       156     0    11     1     6
 -1.6193037101002929E+00 a       157     0    11     1     7
  4.3481850375351278E-01 a       158     0    11     1     8
 -8.1261560987207460E-01 a       159     0    11     1     9
 -5.7387162462724761E-01 a       160     0    11     1    10
 -3.3587631455626848E-01 a       161     0    11     1    11
 -8.6113523799925207E-01 a       162     0    11     1    12
 -4.4320645824321175E-01 a       163     0    11     1    13
  1.2255029329720263E-01 a       164     0    11     1    14
 -1.2306597210058157E+00 a       165     0    11     1    15
  6.0964191337786811E-01 a       166     0    12     1     1
  3.9060531904872692E-01 a       167     0    12     1     2
 -9.5905337586211858E-01 a       168     0    12     1     3
 -2.0705982582235671E-01 a       169     0    12     1     4
 -1.0725058460564675E-01 a       170     0    12     1     5
  2.7492045427694176E+00 a       171     0    12     1     6
  2.2066128245497265E+00 a       172     0    12     1     7
  5.2871703889721144E-01 a       173     0    12     1     8
  3.4730874452315947E+00 a       174     0    12     1     9
 -2.1646902818697641E-01 a       175     0    12     1    10
 -6.4910029594426610E-01 a       176     0    12     1    11
 -2.4163863012381714E-01 a       177     0    12     1    12
 -6.3928034486155949E-01 a       178     0    12     1    13
  3.0467879681913146E-01 a       179     0    12     1    14
  2.6901419557837619E-01 a       180     0    12     1    15
 -4.0250757482322314E-01 a       181     0    13     1     1
 -7.7552477504553163E-01 a       182     0    13     1     2
 -1.1771421687545154E+00 a       183     0    13     1     3
  2.9150212286815136E-01 a       184     0    13     1     4
  2.6315839213825465E-01 a       185     0    13     1     5
  1.1294066996687138E+00 a       186     0    13     1     6
  1.4687526013345125E+00 a       187     0    13     1     7
  6.1095416727322949E-01 a       188     0    13     1     8
  2.5412617404071449E+00 a       189     0    13     1     9
  8.6509883657914932E-01 a       190     0    13     1    10
 -1.8989145517335217E+00 a       191     0    13     1    11
  2.5078396081569954E-01 a       192     0    13     1    12
 -1.2020810832179043E+00 a       193     0    13     1    13
  1.5010122033011268E+00 a       194     0    13     1    14
  3.2142886598993636E-01 a       195     0    13     1    15
  1.9142968180004252E+00 a       196     0    14     1     1
 -4.3249163530366169E-01 a       197     0    14     1     2
 -2.1199753359224007E+00 a       198     0    14     1     3
  1.4378221963810820E+00 a       199     0    14     1     4
  1.3007879848255486E+00 a       200     0    14     1     5
 -1.3105572085736346E+00 a       201     0    14     1     6
  5.0175841104614283E-01 a       202     0    14     1     7
 -2.3916935340811687E+00 a       203     0    14     1     8
 -8.8004417416639968E-01 a       204     0    14     1     9
  5.1070827938288887E-01 a       205     0    14     1    10
  1.2963446938689900E+00 a       206     0    14     1    11
 -1.7226980927479356E+00 a       207     0    14     1    12
 -6.7404565459609944E-01 a       208     0    14     1    13
  9.9899338800045046E-01 a       209     0    14     1    14
 -8.9237336709305271E-01 a       210     0    14     1    15
  5.6139374476276949E-01 a       211     0    15     1     1
  1.1985670168890223E+00 a       212     0    15     1     2
 -9.7814511028906592E-01 a       213     0    15     1     3
 -4.1994183869205265E-01 a       214     0    15     1     4
 -3.9261614449105242E-01 a       215     0    15     1     5
 -1.3721202367661698E+00 a       216     0    15     1     6
  3.6014335522451285E-01 a       217     0    15     1     7
 -6.5922646605811708E-01 a       218     0    15     1     8
  1.6133188255447153E+00 a       219     0    15     1     9
  1.3279298129437465E+00 a       220     0    15     1    10
 -1.1093225657628945E+00 a       221     0    15     1    11
 -4.3259406472700923E-01 a       222     0    15     1    12
 -2.6348271103815207E-01 a       223     0    15     1    13
  4.7022522251652088E-01 a       224     0    15     1    14
  8.1757188080774423E-01 a       225     0    15     1    15
  6.1140326024394831E-01 a       226     0    16     1     1
 -1.6293577814710605E+00 a       227     0    16     1     2
  3.2188325826933267E-01 a       228     0    16     1     3
  7.5331309574739480E-01 a       229     0    16     1     4
 -1.3132649158933007E-01 a       230     0    16     1     5
 -1.6302778679021426E-01 a       231     0    16     1     6
 -3.8380686134396558E+00 a       232     0    16     1     7
  2.4398033527827184E-01 a       233     0    16     1     8
  3.7627776840439203E-01 a       234     0    16     1     9
  1.1770897479186861E+00 a       235     0    16     1    10
 -1.1061594665392855E+00 a       236     0    16     1    11
  1.4652430503559171E+00 a       237     0    16     1    12
  2.1397975673372771E-01 a       238     0    16     1    13
  9.7877182846290012E-01 a       239     0    16     1    14
  1.1276808221574081E-01 a       240     0    16     1    15
 -2.8971209739384818E-01 a       241     0    17     1     1
 -1.1236847199918281E+00 a       242     0    17     1     2
  2.5507978034459605E-01 a       243     0    17     1     3
  9.5115747680668083E-01 a       244     0    17     1     4
 -7.4580418442662177E-01 a       245     0    17     1     5
  4.5698341168979295E-01 a       246     0    17     1     6
 -1.0043825890765490E-01 a       247     0    17     1     7
  1.8389541481462095E+00 a       248     0    17     1     8
  1.3877895329727041E+00 a       249     0    17     1     9
 -6.7265480226913033E-01 a       250     0    17     1    10
 -1.3219889044360777E+00 a       251     0    17     1    11
  2.7089613603453899E-01 a       252     0    17     1    12
 -2.5874165750774397E-01 a       253     0    17     1    13
  9.6510934858491859E-01 a       254     0    17     1    14
  5.8771867486204532E-01 a       255     0    17     1    15
 -1.3469770321700436E+00 a       256     0    18     1     1
  4.0904313830474553E-01 a       257     0    18     1     2
 -5.0086220181854679E-01 a       258     0    18     1     3
 -1.4173430360923273E-01 a       259     0    18     1     4
 -2.0123099253455043E-01 a       260     0    18     1     5
  6.1696080476195414E-01 a       261     0    18     1     6
 -6.6176137424063974E-01 a       262     0    18     1     7
  2.4956354066943823E-01 a       263     0    18     1     8
  5.7795545432154605E-01 a       264     0    18     1     9
 -2.8476879055013560E-01 a       265     0    18     1    10
 -1.4809065127690196E-01 a       266     0    18     1    11
  5.0343709143400017E-01 a       267     0    18     1    12
  1.0689098667338428E+00 a       268     0    18     1    13
 -4.5969022314926805E-01 a       269     0    18     1    14
  1.0256222761309597E+00 a       270     0    18     1    15
  1.5977729906152022E-01 a       271     0    19     1     1
  6.7780030650461920E-01 a       272     0    19     1     2
  4.7166906118863755E-01 a       273     0    19     1     3
 -3.6995968925571537E-01 a       274     0    19     1     4
  2.9127141738348039E-01 a       275     0    19     1     5
  9.9055014561302479E-01 a       276     0    19     1     6
  8.8738967691977089E-01 a       277     0    19     1     7
 -3.6353148697548909E+00 a       278     0    19     1     8
  4.4397928458362390E-01 a       279     0    19     1     9
 -2.0160194185451627E-01 a       280     0    19     1    10
  7.7980192486930766E-01 a       281     0    19     1    11
  4.6348809611250186E-01 a       282     0    19     1    12
 -1.6912480418742459E-01 a       283     0    19     1    13
 -9.9374295862828377E-01 a       284     0    19     1    14
 -9.3469912386251519E-01 a       285     0    19     1    15
  1.3298071326553171E+00 a       286     0    20     1     1
  2.9086013669046973E-01 a       287     0    20     1     2
  1.5991004392237451E+00 a       288     0    20     1     3
 -5.6256592713488840E-01 a       289     0    20     1     4
  2.1183481817928018E+00 a       290     0    20     1     5
 -1.2924138802726637E+00 a       291     0    20     1     6
  1.3013169134285847E+00 a       292     0    20     1     7
  9.2149646764654669E-01 a       293     0    20     1     8
 -8.3440400561940420E-01 a       294     0    20     1     9
  4.1251509883547938E-01 a       295     0    20     1    10
  1.9331767530551827E-01 a       296     0    20     1    11
 -1.1325275729139970E+00 a       297     0    20     1    12
 -7.6546342210978036E-01 a       298     0    20     1    13
  1.4904128715990077E+00 a       299     0    20     1    14
  1.3644867312111089E+00 a       300     0    20     1    15
  1.5196080651453081E-01 a       301     0    21     1     1
  1.6880828335640363E+00 a       302     0    21     1     2
  4.5883443783266920E+00 a       303     0    21     1     3
 -2.7635614390429315E+00 a       304     0    21     1     4
  1.9209132432361764E-01 a       305     0    21     1     5
 -8.2077639807340963E-01 a       306     0    21     1     6
 -4.4109690717849309E-01 a       307     0    21     1     7
 -1.7665397554400597E+00 a       308     0    21     1     8
  1.3378704476795933E+00 a       309     0    21     1     9
 -3.3904305653958584E+00 a       310     0    21     1    10
  2.0978132365214055E+00 a       311     0    21     1    11
  3.5126090817551376E+00 a       312     0    21     1    12
  1.1376191849595449E+00 a       313     0    21     1    13
 -4.7131162449692859E-01 a       314     0    21     1    14
  9.8197817641113749E-01 a       315     0    21     1    15
  1.8522908890033007E+00 a       316     0    22     1     1
  8.3564975436516076E-01 a       317     0    22     1     2
 -7.2156223690229231E+00 a       318     0    22     1     3
  2.0961579434973632E+00 a       319     0    22     1     4
 -1.1605654744396821E+00 a       320     0    22     1     5
 -5.3592171879678530E-01 a       321     0    22     1     6
  2.7132898602575524E+00 a       322     0    22     1     7
  3.5772889829971732E+00 a       323     0    22     1     8
  1.5501657405477438E+00 a       324     0    22     1     9
  5.9349969230242525E+00 a       325     0    22     1    10
 -4.1430009797128813E+00 a       326     0    22     1    11
 -1.6057805059518329E+00 a       327     0    22     1    12
 -8.5222524841925573E-01 a       328     0    22     1    13
  3.3509561874867981E+00 a       329     0    22     1    14
  8.0338464095829787E-01 a       330     0    22     1    15
 -1.7510480432507078E+00 a       331     0    23     1     1
 -1.1546018587840341E+00 a       332     0    23     1     2
 -3.5971324955511204E+00 a       333     0    23     1     3
  7.6288338398991051E-01 a       334     0    23     1     4
 -7.7629557736490107E-01 a       335     0    23     1     5
 -1.1975264420519290E-01 a       336     0    23     1     6
 -5.7031207392839944E-01 a       337     0    23     1     7
 -1.3703330923023480E+00 a       338     0    23     1     8
 -1.3956586459114304E+00 a       339     0    23     1     9
  2.5421148311697768E+00 a       340     0    23     1    10
 -1.7811900538833085E+00 a       341     0    23     1    11
 -9.9303420993739400E-01 a       342     0    23     1    12
 -1.7446735343073716E-01 a       343     0    23     1    13
  8.1513893708608398E-01 a       344     0    23     1    14
  1.4808190364837853E-01 a       345     0    23     1    15
 -3.6657442838815746E-01 a       346     0    24     1     1
  5.6631329612865378E-01 a       347     0    24     1     2
  1.2599539399567425E+00 a       348     0    24     1     3
  8.8545802415752894E-01 a       349     0    24     1     4
  1.6491807914798687E-01 a       350     0    24     1     5
  1.1540322639323575E+00 a       351     0    24     1     6
  3.3621765965742212E-01 a       352     0    24     1     7
 -1.4146228494085061E-01 a       353     0    24     1     8
  1.0697351259484442E+00 a       354     0    24     1     9
 -1.7220174211513726E+00 a       355     0    24     1    10
  1.1974079249516343E+00 a       356     0    24     1    11
 -1.7711641375957883E+00 a       357     0    24     1    12
  2.6150238341628607E-01 a       358     0    24     1    13
 -1.3846053144245354E-01 a       359     0    24     1    14
 -7.5319272156206396E-01 a       360     0    24     1    15
 -9.9276879010937868E-01 a       361     0    25     1     1
  1.1279515684733883E+00 a       362     0    25     1     2
 -3.2248630783460996E-01 a       363     0    25     1     3
 -3.4051404712532785E-01 a       364     0    25     1     4
  4.2499536640692781E-01 a       365     0    25     1     5
 -1.6642974170771574E+00 a       366     0    25     1     6
 -2.3641592566519258E+00 a       367     0    25     1     7
 -6.3109056521826701E-01 a       368     0    25     1     8
 -1.9500366394470501E+00 a       369     0    25     1     9
 -6.5984872111791093E-01 a       370     0    25     1    10
 -3.4091991435976347E-02 a       371     0    25     1    11
 -9.6928692273884376E-01 a       372     0    25     1    12
  3.5215485231582005E-01 a       373     0    25     1    13
 -1.4403516580338003E+00 a       374     0    25     1    14
 -9.4759797119639244E-01 a       375     0    25     1    15
 -9.4547864594014852E-01 a       376     0    26     1     1
 -5.0894577384146689E-01 a       377     0    26     1     2
  3.1365599439531602E+00 a       378     0    26     1     3
 -2.4974865093881549E-01 a       379     0    26     1     4
 -2.8061012502177990E-01 a       380     0    26     1     5
 -1.4726916786698026E+00 a       381     0    26     1     6
 -1.2161932893720424E+00 a       382     0    26     1     7
  1.1426543876514548E+00 a       383     0    26     1     8
 -9.0477462102112916E-01 a       384     0    26     1     9
 -4.2064450773418477E-01 a       385     0    26     1    10
 -5.7739396923781626E-02 a       386     0    26     1    11
  1.1486032889217470E+00 a       387     0    26     1    12
  5.6782709332205794E-01 a       388     0    26     1    13
 -1.5497194399785552E+00 a       389     0    26     1    14
  7.7015542727863562E-01 a       390     0    26     1    15
 -2.7115896056556155E-01 a       391     0    27     1     1
  7.8496761963109418E-01 a       392     0    27     1     2
 -7.8514385401341458E-01 a       393     0    27     1     3
  9.2767413629689127E-02 a       394     0    27     1     4
  3.8772344012921406E-01 a       395     0    27     1     5
 -3.9055016277552500E-02 a       396     0    27     1     6
  5.1195046112769360E-01 a       397     0    27     1     7
  2.0800583572845047E-02 a       398     0    27     1     8
  2.3624765429532701E-01 a       399     0    27     1     9
 -1.2424857416027770E+00 a       400     0    27     1    10
  1.2097548708758663E+00 a       401     0    27     1    11
 -1.6235771643558772E+00 a       402     0    27     1    12
 -1.6786982863908204E-01 a       403     0    27     1    13
 -4.2293801514706325E-01 a       404     0    27     1    14
 -2.6263708200683000E-01 a       405     0    27     1    15
  1.7389785245691727E-01 b       406     1     1
  2.5464045832485932E-01 b       407     1     2
 -4.0719523496319722E-02 b       408     1     3
  1.5512327375680796E-01 b       409     1     4
  1.9991976941182693E-01 b       410     1     5
  4.8418406369169037E-01 b       411     1     6
 -9.1909424741507695E-01 b       412     1     7
 -9.2348208321550762E-01 b       413     1     8
 -1.0838159644255196E+00 b       414     1     9
  3.2981014086215572E-02 b       415     1    10
 -1.7477525884663838E+00 b       416     1    11
  5.4964772788555272E-01 b       417     1    12
 -1.4497453891727918E+00 b       418     1    13
  1.2930697676613283E+00 b       419     1    14
 -1.2580605917187979E+00 b       420     1    15
  6.2245847311482350E-01 a       421     1     1     2     1
  9.2175344248104918E-01 a       422     1     1     2     2
 -6.3041685699841621E-01 a       423     1     1     2     3
 -7.7219610793388749E-01 a       424     1     1     2     4
 -5.2820656803859678E-01 a       425     1     1     2     5
  1.9309813923385472E-01 a       426     1     1     2     6
  3.2034402332154649E-01 a       427     1     1     2     7
 -7.2215908177255539E-02 a       428     1     1     2     8
 -3.0120566489463713E-01 a       429     1     1     2     9
 -4.3100711310197920E-01 a       430     1     1     2    10
  6.8764454935544472E-01 a       431     1     1     2    11
  6.0711369018353178E-01 a       432     1     1     2    12
  1.4337927400562178E-01 a       433     1     1     2    13
  1.6234061816771743E+00 a       434     1     1     2    14
  1.3002871438583927E-01 a       435     1     1     2    15
  8.3252350201245259E-02 a       436     1     2     2     1
  1.0401602925296105E+00 a       437     1     2     2     2
  2.4910502236587195E+00 a       438     1     2     2     3
 -1.2838988113465521E+00 a       439     1     2     2     4
 -3.0307373858524111E-01 a       440     1     2     2     5
  1.1582154149973267E-01 a       441     1     2     2     6
 -1.1860224338109451E+00 a       442     1     2     2     7
  1.1180233307384739E+00 a       443     1     2     2     8
 -3.0122345154864233E-01 a       444     1     2     2     9
 -4.3532446025364424E-01 a       445     1     2     2    10
  1.5375766478955682E-01 a       446     1     2     2    11
 -4.5496423254621321E-01 a       447     1     2     2    12
  4.5955349806704077E-01 a       448     1     2     2    13
 -5.7279733620903972E-01 a       449     1     2     2    14
 -9.1660723488752205E-01 a       450     1     2     2    15
  1.5374169310365773E-01 a       451     1     3     2     1
 -5.8346111927804603E-02 a       452     1     3     2     2
  1.0088873834812486E+00 a       453     1     3     2     3
 -3.2350258087543687E-01 a       454     1     3     2     4
 -1.1010473627395818E+00 a       455     1     3     2     5
  4.0547226355620536E-01 a       456     1     3     2     6
 -1.7711552799739814E+00 a       457     1     3     2     7
 -3.0038421250617453E-01 a       458     1     3     2     8
 -9.8661307944190235E-01 a       459     1     3     2     9
 -3.3345972854021250E-01 a       460     1     3     2    10
  1.4368516135567928E+00 a       461     1     3     2    11
 -1.1871387011400859E-01 a       462     1     3     2    12
 -1.6345577299665925E-01 a       463     1     3     2    13
 -2.8188854104154809E-01 a       464     1     3     2    14
  1.7703862924061444E+00 a       465     1     3     2    15
  8.4711954394374300E-01 a       466     1     4     2     1
 -5.3225896663287842E-01 a       467     1     4     2     2
 -1.3519400035935993E+00 a       468     1     4     2     3
 -9.5416363962182638E-01 a       469     1     4     2     4
 -1.2829233237476481E-01 a       470     1     4     2     5
 -1.0275451997234211E+00 a       471     1     4     2     6
 -2.4801966005696570E+00 a       472     1     4     2     7
  1.0085329839892743E+00 a       473     1     4     2     8
  3.2239871670690490E-01 a       474     1     4     2     9
  3.9885891109603433E-01 a       475     1     4     2    10
  1.9127107156732323E-01 a       476     1     4     2    11
 -3.3625484495518754E-01 a       477     1     4     2    12
 -2.2092533771238954E-01 a       478     1     4     2    13
  6.6692376732127823E-01 a       479     1     4     2    14
 -5.9280929629796508E-01 a       480     1     4     2    15
  4.0661331981047899E-01 a       481     1     5     2     1
  1.5934106116617961E+00 a       482     1     5     2     2
  9.5017377455299301E-01 a       483     1     5     2     3
  3.2545640263251345E-02 a       484     1     5     2     4
  9.9175710451657240E-01 a       485     1     5     2     5
  4.8309872385706304E-01 a       486     1     5     2     6
 -8.0060891048209837E-01 a       487     1     5     2     7
 -7.2629062506224018E-01 a       488     1     5     2     8
  5.3618275827998219E-02 a       489     1     5     2     9
 -3.3920564781704410E-01 a       490     1     5     2    10
  1.7662661789850804E+00 a       491     1     5     2    11
 -7.3737146932106049E-02 a       492     1     5     2    12
 -1.0775940361522387E+00 a       493     1     5     2    13
 -3.8940742412322382E-01 a       494     1     5     2    14
 -1.5017771175459199E-01 a       495     1     5     2    15
 -1.7329698286608225E-01 a       496     1     6     2     1
  6.1953565661529639E-02 a       497     1     6     2     2
 -1.9431035280206408E+00 a       498     1     6     2     3
 -4.7677993170173866E-01 a       499     1     6     2     4
 -4.6762058616449365E-01 a       500     1     6     2     5
 -7.7654753333289117E-01 a       501     1     6     2     6
 -6.5160554588739883E-01 a       502     1     6     2     7
  6.4128075622764610E-03 a       503     1     6     2     8
  1.6432972237836407E+00 a       504     1     6     2     9
 -1.2015938886772928E+00 a       505     1     6     2    10
  6.4320450040992272E-01 a       506     1     6     2    11
 -4.4111451374792510E-01 a       507     1     6     2    12
 -1.0825877857776937E-01 a       508     1     6     2    13
  5.9398032996231165E-01 a       509     1     6     2    14
 -1.9065119843808268E-01 a       510     1     6     2    15
 -1.6407909607362461E+00 a       511     1     7     2     1
 -1.6536784378681249E-01 a       512     1     7     2     2
 -1.7375546432095106E+00 a       513     1     7     2     3
 -1.7368911160431308E-01 a       514     1     7     2     4
  1.8009701855143778E+00 a       515     1     7     2     5
  9.6376490546512961E-01 a       516     1     7     2     6
 -1.7302917638417237E+00 a       517     1     7     2     7
  3.7087883347997153E-01 a       518     1     7     2     8
 -2.1770369560766074E+00 a       519     1     7     2     9
 -1.2927587016407949E+00 a       520     1     7     2    10
  1.0207709513281495E-01 a       521     1     7     2    11
  4.3328305494777880E-01 a       522     1     7     2    12
 -2.2787196335532348E-01 a       523     1     7     2    13
  1.2986659352512835E+00 a       524     1     7     2    14
 -4.4773689181276055E-01 a       525     1     7     2    15
 -2.1745636512640637E-01 a       526     1     8     2     1
  5.8679547760237938E-01 a       527     1     8     2     2
  5.2931748400479561E-01 a       528     1     8     2     3
 -1.7997839988675413E-01 a       529     1     8     2     4
  1.3222410405995626E+00 a       530     1     8     2     5
  9.1547640592841706E-02 a       531     1     8     2     6
  5.4322356780214764E-01 a       532     1     8     2     7
 -2.0452983437502156E-01 a       533     1     8     2     8
 -1.4217609878211135E+00 a       534     1     8     2     9
 -2.3688663867634614E+00 a       535     1     8     2    10
 -1.0236459167904584E+00 a       536     1     8     2    11
  3.6484501194649926E-01 a       537     1     8     2    12
 -5.2790357876941185E-01 a       538     1     8     2    13
  1.5553909404080851E-01 a       539     1     8     2    14
 -9.9967985024672268E-01 a       540     1     8     2    15
  6.2796708642566368E-01 a       541     1     9     2     1
 -1.8509858456337408E-01 a       542     1     9     2     2
 -1.0045187236279556E+00 a       543     1     9     2     3
 -1.5021938754402422E-01 a       544     1     9     2     4
  1.7382900942534729E-01 a       545     1     9     2     5
  2.0902963415826481E-01 a       546     1     9     2     6
  1.3745862175126111E+00 a       547     1     9     2     7
  1.0238339895104733E+00 a       548     1     9     2     8
 -8.3285933861642500E-02 a       549     1     9     2     9
 -6.7185945325586693E-01 a       550     1     9     2    10
  2.7480985666935198E-01 a       551     1     9     2    11
  3.7272003003931881E-01 a       552     1     9     2    12
  5.9963231725707680E-02 a       553     1     9     2    13
  1.4838765076830296E+00 a       554     1     9     2    14
 -4.9684917021653452E-01 a       555     1     9     2    15
 -2.0659607251628595E-01 a       556     1    10     2     1
 -4.5506709653577015E-01 a       557     1    10     2     2
  1.2992830910110734E-01 a       558     1    10     2     3
  6.1657835475732570E-01 a       559     1    10     2     4
  8.8388689853907898E-01 a       560     1    10     2     5
  1.0700118870266384E+00 a       561     1    10     2     6
  1.6842163075320054E+00 a       562     1    10     2     7
  1.0454621759578759E+00 a       563     1    10     2     8
 -4.7886684923409045E-01 a       564     1    10     2     9
 -1.5645075084711391E+00 a       565     1    10     2    10
 -6.6264240943344754E-01 a       566     1    10     2    11
 -6.2690199755349696E-01 a       567     1    10     2    12
 -2.8617780878885490E-01 a       568     1    10     2    13
  2.4197392844240267E-01 a       569     1    10     2    14
  5.5776286029688538E-01 a       570     1    10     2    15
  9.2186793709385706E-01 a       571     1    11     2     1
 -1.4700220887106458E-01 a       572     1    11     2     2
  2.2478588318200856E+00 a       573     1    11     2     3
 -6.5828029406847299E-01 a       574     1    11     2     4
 -2.1256171994358062E+00 a       575     1    11     2     5
 -6.3758473187028181E-03 a       576     1    11     2     6
 -1.2360182425318880E+00 a       577     1    11     2     7
  4.6590642323489995E-01 a       578     1    11     2     8
  1.2179861099220475E+00 a       579     1    11     2     9
  5.1523800660036079E-01 a       580     1    11     2    10
  1.0677461252956495E+00 a       581     1    11     2    11
  1.0791928627063638E+00 a       582     1    11     2    12
 -6.0872109186921680E-02 a       583     1    11     2    13
 -1.0055237557417838E+00 a       584     1    11     2    14
  1.4404424411791290E+00 a       585     1    11     2    15
  3.3008646824903121E-01 a       586     1    12     2     1
 -7.6346416266928208E-01 a       587     1    12     2     2
  3.7953852979506342E-01 a       588     1    12     2     3
 -6.7444483369632713E-01 a       589     1    12     2     4
 -3.2978268080908524E-01 a       590     1    12     2     5
 -4.5645068612204465E-01 a       591     1    12     2     6
  1.3007875046437043E+00 a       592     1    12     2     7
 -1.0302686352546012E-01 a       593     1    12     2     8
  7.9425995169991426E-01 a       594     1    12     2     9
  5.6958360957427134E-01 a       595     1    12     2    10
  1.0333660564021760E+00 a       596     1    12     2    11
  6.4257110790757899E-01 a       597     1    12     2    12
 -3.8653244711554258E-01 a       598     1    12     2    13
  3.9762996878381535E-01 a       599     1    12     2    14
  8.0607349408288032E-01 a       600     1    12     2    15
  9.2988510870163132E-01 a       601     1    13     2     1
  1.1954596376103964E-01 a       602     1    13     2     2
 -5.0502297512468530E-01 a       603     1    13     2     3
  6.5042775188229063E-01 a       604     1    13     2     4
 -5.3896974074748971E-01 a       605     1    13     2     5
  3.5207281368838411E-02 a       606     1    13     2     6
 -3.2287022973432966E-03 a       607     1    13     2     7
 -9.5609338678253986E-01 a       608     1    13     2     8
  3.4510299103340702E-01 a       609     1    13     2     9
  2.3735531405486532E-01 a       610     1    13     2    10
  8.6057227886117282E-01 a       611     1    13     2    11
  9.1472964790100442E-01 a       612     1    13     2    12
  6.9339692633648609E-01 a       613     1    13     2    13
 -1.6152475725779702E+00 a       614     1    13     2    14
  1.6104900787443030E-01 a       615     1    13     2    15
  5.9141210846951553E-01 a       616     1    14     2     1
  1.0950880862503707E+00 a       617     1    14     2     2
 -5.8703826835786299E-01 a       618     1    14     2     3
  1.0631974852147779E+00 a       619     1    14     2     4
  9.4991422565894046E-01 a       620     1    14     2     5
 -6.2853231030081924E-01 a       621     1    14     2     6
 -9.0749539873813601E-01 a       622     1    14     2     7
  2.1606298297708633E+00 a       623     1    14     2     8
 -8.0429490023254990E-01 a       624     1    14     2     9
 -1.4005511849383501E+00 a       625     1    14     2    10
 -2.5680190428741040E-01 a       626     1    14     2    11
  1.2769039779405877E-01 a       627     1    14     2    12
 -1.1530101909876285E+00 a       628     1    14     2    13
  1.4484520037661250E+00 a       629     1    14     2    14
 -1.4383999956518116E+00 a       630     1    14     2    15
  5.5505995722188006E-01 a       631     1    15     2     1
 -4.6157827488993514E-01 a       632     1    15     2     2
  4.8821378645245284E-01 a       633     1    15     2     3
  3.0971954616650815E-01 a       634     1    15     2     4
 -1.5119266146401630E-01 a       635     1    15     2     5
 -7.9051054410167895E-02 a       636     1    15     2     6
  4.8026841239134482E-01 a       637     1    15     2     7
  1.1235875573358212E+00 a       638     1    15     2     8
  8.7206846060033608E-02 a       639     1    15     2     9
  1.2832149078029875E-01 a       640     1    15     2    10
  1.4678733009876734E+00 a       641     1    15     2    11
 -2.8925702813767590E-01 a       642     1    15     2    12
  1.4859361524639254E+00 a       643     1    15     2    13
  2.2407326574125350E+00 a       644     1    15     2    14
  1.2875872495076659E+00 a       645     1    15     2    15
  6.7749184040154720E-01 b       646     2     1
  7.9499759406304937E-01 b       647     2     2
  2.4006064527199547E+00 b       648     2     3
  1.0331665042543638E+00 b       649     2     4
 -7.4281414067616680E-01 b       650     2     5
 -1.9551023294549477E-01 b       651     2     6
 -1.0941578252815636E+00 b       652     2     7
  4.0857509312757062E-01 b       653     2     8
 -5.3493806479737331E-02 b       654     2     9
 -1.6095596580448874E+00 b       655     2    10
  9.7897254459756430E-02 b       656     2    11
 -8.3461779505051514E-01 b       657     2    12
 -7.1285616727135670E-01 b       658     2    13
 -6.6680514161422427E-02 b       659     2    14
  1.2834333376626692E+00 b       660     2    15
 -2.7114728251408360E-01 a       661     2     1     3     1
 -7.2257199321242904E-01 a       662     2     2     3     1
  4.1390872476211649E-01 a       663     2     3     3     1
 -3.8947129502701333E-01 a       664     2     4     3     1
 -3.0787506137912651E-01 a       665     2     5     3     1
  5.2551369174923777E-03 a       666     2     6     3     1
 -2.5786449354206903E-01 a       667     2     7     3     1
 -5.3800456007792385E-01 a       668     2     8     3     1
  8.1467352013333982E-01 a       669     2     9     3     1
  3.5196803618759626E-01 a       670     2    10     3     1
  4.1110750349857483E-01 a       671     2    11     3     1
  7.6835739892209920E-01 a       672     2    12     3     1
  1.7057716970812395E+00 a       673     2    13     3     1
 -2.4153412622374243E-01 a       674     2    14     3     1
  8.7670345988798570E-01 a       675     2    15     3     1
 -1.0029321834900351E+00 b       676     3     1
