################################################################################
# Neural network connection values (weights and biases).
################################################################################
# Col  Name       Description
################################################################################
# 1    connection Neural network connection value.
# 2    t          Connection type (a = weight, b = bias).
# 3    index      Index enumerating weights.
# 4    l_s        Starting point layer (end point layer for biases).
# 5    n_s        Starting point neuron in starting layer (end point neuron for biases).
# 6    l_e        End point layer.
# 7    n_e        End point neuron in end layer.
################################################################################
#                      1 2         3     4     5     6     7
#             connection t     index   l_s   n_s   l_e   n_e
############################################################
 -1.0822798042631132E-01 a         1     0     1     1     1
 -9.1822461099549682E-02 a         2     0     1     1     2
  4.9268516489200227E-02 a         3     0     1     1     3
  1.7524748435341178E-01 a         4     0     1     1     4
 -4.2837992423894639E-01 a         5     0     1     1     5
 -2.3435321309560064E-01 a         6     0     1     1     6
 -3.8275590719606609E-02 a         7     0     1     1     7
  2.5594304983582428E-01 a         8     0     1     1     8
 -3.9650922539225958E-01 a         9     0     1     1     9
 -1.3995937312663217E-01 a        10     0     1     1    10
 -7.3053175033063203E-02 a        11     0     1     1    11
 -3.8214878638005162E-01 a        12     0     1     1    12
 -3.3454397909592304E-01 a        13     0     1     1    13
  1.0628717227714281E-01 a        14     0     1     1    14
 -8.3830670804500029E-01 a        15     0     1     1    15
 -3.4189480156308899E-01 a        16     0     2     1     1
 -4.1034742531988710E-01 a        17     0     2     1     2
 -1.1001379971831697E+00 a        18     0     2     1     3
  3.3729458878308749E-01 a        19     0     2     1     4
  5.4439937642980440E-01 a        20     0     2     1     5
  4.2421790703140427E-01 a        21     0     2     1     6
  6.7663605714443031E-01 a        22     0     2     1     7
  1.9746533729092683E-01 a        23     0     2     1     8
  5.9921708785025829E-01 a        24     0     2     1     9
  1.9771516812351247E-01 a        25     0     2     1    10
 -3.6703852646632096E-01 a        26     0     2     1    11
 -7.2084480789900859E-02 a        27     0     2     1    12
 -2.7353144921646916E-01 a        28     0     2     1    13
 -4.5630656422778942E-01 a        29     0     2     1    14
  1.0245692717229113E+00 a        30     0     2     1    15
  5.4489697644113477E-01 a        31     0     3     1     1
  2.0401375038894556E-01 a        32     0     3     1     2
  1.0197147881594344E+00 a        33     0     3     1     3
 -3.9164710999712299E-01 a        34     0     3     1     4
 -1.9173386719210989E-01 a        35     0     3     1     5
 -1.8931619944376943E-01 a        36     0     3     1     6
  7.8241062292681934E-02 a        37     0     3     1     7
 -8.8985120864267087E-01 a        38     0     3     1     8
 -1.9121603457877365E-01 a        39     0     3     1     9
 -2.4820106001273440E-01 a        40     0     3     1    10
  2.0316914909810418E-01 a        41     0     3     1    11
  5.0899288109574503E-01 a        42     0     3     1    12
  8.7435825277412993E-01 a        43     0     3     1    13
  5.6038273232250024E-01 a        44     0     3     1    14
  2.2639174796791467E-01 a        45     0     3     1    15
  3.3245827527068539E-01 a        46     0     4     1     1
  2.5687075250869079E-01 a        47     0     4     1     2
  4.1243797454640668E-01 a        48     0     4     1     3
 -5.0590364216934669E-01 a        49     0     4     1     4
 -3.4087970878591389E-01 a        50     0     4     1     5
  2.0616409904601654E-01 a        51     0     4     1     6
 -2.2281030664377671E-01 a        52     0     4     1     7
 -4.1632328685949171E-01 a        53     0     4     1     8
  3.5936594470423894E-01 a        54     0     4     1     9
 -9.0703405110275793E-03 a        55     0     4     1    10
 -3.1289007332226382E-01 a        56     0     4     1    11
  6.1144560864428876E-01 a        57     0     4     1    12
  5.5996754660199743E-01 a        58     0     4     1    13
  5.8417126718938193E-02 a        59     0     4     1    14
 -2.7195576813620453E-01 a        60     0     4     1    15
 -8.2871832848775007E-01 a        61     0     5     1     1
  6.0315833469632096E-01 a        62     0     5     1     2
 -1.1920243080429580E+00 a        63     0     5     1     3
 -1.5281245875187877E-01 a        64     0     5     1     4
  2.6681425191516678E-01 a        65     0     5     1     5
  1.4587595887246574E-01 a        66     0     5     1     6
 -2.3490812074459258E-01 a        67     0     5     1     7
  1.1252118452058377E+00 a        68     0     5     1     8
 -7.8743774362189212E-01 a        69     0     5     1     9
 -1.7869711021461598E-01 a        70     0     5     1    10
  2.8475241323412875E-01 a        71     0     5     1    11
 -6.4662304223048694E-01 a        72     0     5     1    12
 -1.0359518274786068E+00 a        73     0     5     1    13
 -6.5930619098829829E-02 a        74     0     5     1    14
 -2.5649404830526291E-03 a        75     0     5     1    15
  1.5077353603142277E-01 a        76     0     6     1     1
  2.8403359760965783E-02 a        77     0     6     1     2
  1.1837364225334335E-01 a        78     0     6     1     3
  5.3800998294704550E-01 a        79     0     6     1     4
  2.9080766270483549E-01 a        80     0     6     1     5
 -3.7553955448883780E-01 a        81     0     6     1     6
  1.0994045461307932E-01 a        82     0     6     1     7
  7.9330343064553110E-02 a        83     0     6     1     8
 -4.4241385122882648E-01 a        84     0     6     1     9
 -1.6968224773610308E-01 a        85     0     6     1    10
  4.8047468214299238E-01 a        86     0     6     1    11
 -4.2093696755325483E-01 a        87     0     6     1    12
 -4.3910049750413210E-02 a        88     0     6     1    13
 -1.2090880229281543E-01 a        89     0     6     1    14
 -6.3363269454186733E-01 a        90     0     6     1    15
  1.1602669588205468E+00 a        91     0     7     1     1
 -6.4883405101228064E-01 a        92     0     7     1     2
  3.7265091115207538E-01 a        93     0     7     1     3
  2.2142679782237704E-01 a        94     0     7     1     4
 -7.4611780666674465E-01 a        95     0     7     1     5
 -1.9047098207010199E-01 a        96     0     7     1     6
 -5.7297776384210231E-01 a        97     0     7     1     7
 -2.3191104518495478E-01 a        98     0     7     1     8
  1.5190931458095549E+00 a        99     0     7     1     9
  1.2226349972194013E+00 a       100     0     7     1    10
 -2.1154784598457310E-01 a       101     0     7     1    11
  3.0373830487527970E-01 a       102     0     7     1    12
  1.1028396515048124E+00 a       103     0     7     1    13
  6.5746529327799924E-02 a       104     0     7     1    14
 -1.8953099147879596E-01 a       105     0     7     1    15
 -7.5401547422927140E-01 a       106     0     8     1     1
  1.1614623425825915E-01 a       107     0     8     1     2
  6.3752127443068740E-01 a       108     0     8     1     3
  1.2414384460814736E+00 a       109     0     8     1     4
 -3.2722866474999973E-01 a       110     0     8     1     5
 -1.3957534923668258E-01 a       111     0     8     1     6
 -2.7415481645919942E-01 a       112     0     8     1     7
 -6.6688301399982230E-01 a       113     0     8     1     8
 -3.8321977000903618E-01 a       114     0     8     1     9
 -1.6308131521042651E-01 a       115     0     8     1    10
  9.8193202591574547E-02 a       116     0     8     1    11
  4.9539104331475764E-02 a       117     0     8     1    12
  7.6265481411512659E-01 a       118     0     8     1    13
  2.5278763078654704E-01 a       119     0     8     1    14
  2.8606119920655043E-01 a       120     0     8     1    15
 -5.8111258008122590E-01 a       121     0     9     1     1
  4.7066677433515808E-01 a       122     0     9     1     2
 -3.8390551036583781E-01 a       123     0     9     1     3
 -7.1124517058114012E-01 a       124     0     9     1     4
  2.8162046839705718E-01 a       125     0     9     1     5
 -1.0096677965757613E-01 a       126     0     9     1     6
  2.4217552710024595E-02 a       127     0     9     1     7
  3.7677948053925636E-01 a       128     0     9     1     8
 -5.8692356154509584E-01 a       129     0     9     1     9
 -8.1602619041132296E-01 a       130     0     9     1    10
 -1.7810152813112523E-01 a       131     0     9     1    11
 -4.2501716919434729E-01 a       132     0     9     1    12
 -5.9180258601233882E-01 a       133     0     9     1    13
  7.6522694275617142E-02 a       134     0     9     1    14
 -3.8564838116097738E-01 a       135     0     9     1    15
  2.1388499034844047E-01 a       136     0    10     1     1
 -1.7093957240464494E-01 a       137     0    10     1     2
 -4.5987396430262895E-01 a       138     0    10     1     3
 -5.6761687522918980E-01 a       139     0    10     1     4
  1.2954145127682762E-01 a       140     0    10     1     5
  2.7795268083004671E-01 a       141     0    10     1     6
  5.9596486217827427E-01 a       142     0    10     1     7
  1.7995263766565728E-01 a       143     0    10     1     8
 -1.6391789758697543E-02 a       144     0    10     1     9
 -1.2519783222110092E-01 a       145     0    10     1    10
 -2.9285750926398912E-01 a       146     0    10     1    11
  4.1606210556115304E-02 a       147     0    10     1    12
 -5.4791926078638109E-01 a       148     0    10     1    13
  8.4011524851524411E-03 a       149     0    10     1    14
  3.4602166706677956E-01 a       150     0    10     1    15
 -3.2780421912168489E-01 a       151     0    11     1     1
 -5.6581241444766350E-01 a       152     0    11     1     2
  5.1131888909768530E-01 a       153     0    11     1     3
  3.7825105258426528E-01 a       154     0    11     1     4
 -5.3066469254908577E-01 a       155     0    11     1     5
 -2.8672486554266385E-01 a       156     0    11     1     6
  7.7580370386993580E-01 a       157     0    11     1     7
 -6.3640662210873600E-01 a       158     0    11     1     8
  3.5437715376780343E-01 a       159     0    11     1     9
  7.0497033532488196E-01 a       160     0    11     1    10
 -4.4135265241004684E-01 a       161     0    11     1    11
  2.0435774797404038E-01 a       162     0    11     1    12
  2.2821950990305415E-01 a       163     0    11     1    13
 -4.0095124623287876E-01 a       164     0    11     1    14
  2.0709986788378543E-01 a       165     0    11     1    15
  2.5362495509061245E-01 a       166     0    12     1     1
  1.0760177728607695E-01 a       167     0    12     1     2
  3.1788720093365426E-02 a       168     0    12     1     3
  4.7846469760567042E-02 a       169     0    12     1     4
 -1.3811834295756972E-01 a       170     0    12     1     5
 -1.9959894830240965E-02 a       171     0    12     1     6
 -7.0471121308988166E-02 a       172     0    12     1     7
 -1.3990058253362565E-02 a       173     0    12     1     8
  2.5236473149556415E-01 a       174     0    12     1     9
  9.8907417929973124E-02 a       175     0    12     1    10
  5.1964880631917856E-02 a       176     0    12     1    11
  2.0136599833407925E-01 a       177     0    12     1    12
  2.0765627295231009E-01 a       178     0    12     1    13
  7.9241068342877904E-02 a       179     0    12     1    14
 -2.1833561727556666E-01 a       180     0    12     1    15
  4.4856940168831894E-01 a       181     0    13     1     1
 -3.8271328231763206E-02 a       182     0    13     1     2
 -3.7443455936075493E-01 a       183     0    13     1     3
 -3.4753926120172635E-01 a       184     0    13     1     4
 -3.4815458798670074E-01 a       185     0    13     1     5
  6.6131672008183207E-02 a       186     0    13     1     6
  1.6885108512459521E-01 a       187     0    13     1     7
  3.5193119857675997E-01 a       188     0    13     1     8
 -2.2734932278518480E-01 a       189     0    13     1     9
 -6.3802014653351047E-01 a       190     0    13     1    10
  5.5955057080472415E-01 a       191     0    13     1    11
 -1.3544812345013897E-02 a       192     0    13     1    12
 -4.3573648301005846E-01 a       193     0    13     1    13
  4.2380121437477852E-01 a       194     0    13     1    14
 -2.3422739373872181E-01 a       195     0    13     1    15
  4.1849125640766482E-02 a       196     0    14     1     1
  8.6043796537648459E-02 a       197     0    14     1     2
  2.4592432720962894E-02 a       198     0    14     1     3
 -1.4716941381504642E-01 a       199     0    14     1     4
  4.6200699414435309E-01 a       200     0    14     1     5
 -5.6489067234436814E-02 a       201     0    14     1     6
  5.6708477599066748E-02 a       202     0    14     1     7
  6.7396961885192799E-02 a       203     0    14     1     8
 -1.2812234574189075E-02 a       204     0    14     1     9
 -1.0526621234928655E-02 a       205     0    14     1    10
  9.3166196614849803E-02 a       206     0    14     1    11
  6.0140654748323287E-02 a       207     0    14     1    12
 -2.6398848874678691E-03 a       208     0    14     1    13
 -9.4850336230664509E-02 a       209     0    14     1    14
  9.6942021873959259E-03 a       210     0    14     1    15
 -3.1491283551417443E-01 a       211     0    15     1     1
  1.7629042520860626E-02 a       212     0    15     1     2
 -1.0119842722583447E-02 a       213     0    15     1     3
  2.3089496274629404E-01 a       214     0    15     1     4
  7.9705959907098143E-04 a       215     0    15     1     5
  2.7545124313533026E-01 a       216     0    15     1     6
 -1.0625111664287640E-01 a       217     0    15     1     7
  1.3174092879137225E-01 a       218     0    15     1     8
 -2.6382862994664263E-01 a       219     0    15     1     9
 -2.6959333614277124E-02 a       220     0    15     1    10
 -4.3893490641928917E-01 a       221     0    15     1    11
  2.8107029326719579E-01 a       222     0    15     1    12
  7.8629192909618173E-02 a       223     0    15     1    13
 -4.5167930317504190E-01 a       224     0    15     1    14
  1.2501012721531796E-01 a       225     0    15     1    15
  6.5739451386571821E-02 a       226     0    16     1     1
  3.7629009221057108E-02 a       227     0    16     1     2
  6.0888670613587575E-02 a       228     0    16     1     3
  3.2548167538688708E-02 a       229     0    16     1     4
 -8.6641536430467313E-03 a       230     0    16     1     5
  7.3444296396564628E-03 a       231     0    16     1     6
  3.9100171896139756E-02 a       232     0    16     1     7
  6.7439586044594872E-03 a       233     0    16     1     8
  4.7696499782706441E-03 a       234     0    16     1     9
  3.7179816063353056E-02 a       235     0    16     1    10
  6.2423812627933319E-02 a       236     0    16     1    11
 -1.2162651524033632E-02 a       237     0    16     1    12
 -1.1943947870520985E-02 a       238     0    16     1    13
  4.7779711218466615E-02 a       239     0    16     1    14
 -2.1057341967821851E-02 a       240     0    16     1    15
  1.4676863053432909E-01 a       241     0    17     1     1
 -3.5441088888035105E-01 a       242     0    17     1     2
 -5.4577806396926409E-01 a       243     0    17     1     3
 -1.3723649057051276E-01 a       244     0    17     1     4
 -1.6100255720353351E-01 a       245     0    17     1     5
  3.8478688439203469E-02 a       246     0    17     1     6
 -6.8717584615216529E-02 a       247     0    17     1     7
  1.4544408521907901E-01 a       248     0    17     1     8
  1.9214862872264293E-01 a       249     0    17     1     9
  1.2265565609169481E-01 a       250     0    17     1    10
 -5.3249685387789725E-01 a       251     0    17     1    11
 -5.4002797033848422E-02 a       252     0    17     1    12
 -1.7977400093064985E-01 a       253     0    17     1    13
 -5.4200257636661787E-02 a       254     0    17     1    14
 -1.7169814602859854E-01 a       255     0    17     1    15
  2.7683706709972777E-02 a       256     0    18     1     1
  4.9876971797881017E-02 a       257     0    18     1     2
  2.3402138822594107E-02 a       258     0    18     1     3
  5.8094736318080348E-02 a       259     0    18     1     4
  1.6561722834402565E-01 a       260     0    18     1     5
  1.5337631777177209E-02 a       261     0    18     1     6
 -5.7581065421517301E-02 a       262     0    18     1     7
  1.5707385104184089E-02 a       263     0    18     1     8
 -6.7766059925342898E-03 a       264     0    18     1     9
 -4.3615209821912942E-02 a       265     0    18     1    10
  1.5703276303778746E-01 a       266     0    18     1    11
  3.6229853358300590E-02 a       267     0    18     1    12
  1.0150432321212294E-01 a       268     0    18     1    13
  7.4518047200359807E-03 a       269     0    18     1    14
  6.2920744856686098E-02 a       270     0    18     1    15
 -2.0739641340138146E-01 a       271     0    19     1     1
  4.5933868752327683E-01 a       272     0    19     1     2
  3.5278061132583022E-01 a       273     0    19     1     3
 -3.5320386887127536E-01 a       274     0    19     1     4
  7.9261616420830378E-02 a       275     0    19     1     5
 -2.3060523353393114E-01 a       276     0    19     1     6
  3.0253514362678519E-01 a       277     0    19     1     7
  6.9149380053761506E-02 a       278     0    19     1     8
  1.7449880488734940E-01 a       279     0    19     1     9
  4.7841790876277457E-01 a       280     0    19     1    10
  2.2799395804876960E-02 a       281     0    19     1    11
 -9.9135445108181897E-02 a       282     0    19     1    12
 -1.0958605652630478E-01 a       283     0    19     1    13
  1.2984539053998123E-01 a       284     0    19     1    14
 -2.5586457511070887E-01 a       285     0    19     1    15
  1.1155343294260278E-01 a       286     0    20     1     1
 -9.9716708354459366E-02 a       287     0    20     1     2
 -6.2840704542350148E-02 a       288     0    20     1     3
  1.5287825918952364E-01 a       289     0    20     1     4
  2.5635251488043970E-01 a       290     0    20     1     5
 -1.1392095154143390E-02 a       291     0    20     1     6
 -2.6215349196977450E-01 a       292     0    20     1     7
 -1.3146887716141429E-02 a       293     0    20     1     8
 -1.8347597919741795E-01 a       294     0    20     1     9
 -3.7162710669501890E-03 a       295     0    20     1    10
  2.2897140194814394E-01 a       296     0    20     1    11
 -1.4566376519165722E-02 a       297     0    20     1    12
  1.2971487378637311E-01 a       298     0    20     1    13
 -1.4066633275589790E-01 a       299     0    20     1    14
  1.4800508364178544E-01 a       300     0    20     1    15
 -2.5775954069327200E-01 a       301     0    21     1     1
  4.4970467860071295E-01 a       302     0    21     1     2
  3.8280774895869396E-01 a       303     0    21     1     3
  8.9854994920298137E-02 a       304     0    21     1     4
 -2.5752666827804700E-02 a       305     0    21     1     5
 -2.1603014435310150E-01 a       306     0    21     1     6
  3.1514892793994431E-01 a       307     0    21     1     7
 -1.3235938898040106E-01 a       308     0    21     1     8
 -3.1682682079751373E-01 a       309     0    21     1     9
 -1.7560802761799549E-01 a       310     0    21     1    10
  6.7115697633493299E-01 a       311     0    21     1    11
  7.8563431526377944E-02 a       312     0    21     1    12
  3.9202125649066111E-01 a       313     0    21     1    13
 -1.5854320836699584E-01 a       314     0    21     1    14
  8.7577937244819090E-02 a       315     0    21     1    15
 -5.6687140323193018E-02 a       316     0    22     1     1
 -2.1766433497736953E-01 a       317     0    22     1     2
 -3.0035780350235297E-01 a       318     0    22     1     3
  2.2176391592592035E-02 a       319     0    22     1     4
 -6.5403778769358822E-01 a       320     0    22     1     5
  2.9383365150324237E-01 a       321     0    22     1     6
 -8.8822481184368932E-02 a       322     0    22     1     7
  1.9695008578819595E-01 a       323     0    22     1     8
  4.3663580443364064E-01 a       324     0    22     1     9
 -3.8416110479664750E-01 a       325     0    22     1    10
 -2.5169076817072983E-01 a       326     0    22     1    11
  1.4926856492548049E-01 a       327     0    22     1    12
 -1.5755470584308054E-01 a       328     0    22     1    13
  4.9014476001007723E-02 a       329     0    22     1    14
  8.6942779063172312E-02 a       330     0    22     1    15
 -3.6073457348736004E-01 a       331     0    23     1     1
  8.7949892627172035E-03 a       332     0    23     1     2
 -1.5238402182726246E-01 a       333     0    23     1     3
  5.8910689971530061E-01 a       334     0    23     1     4
 -2.1159362522968797E-01 a       335     0    23     1     5
  1.1563952054609716E-01 a       336     0    23     1     6
  4.5439265229143166E-01 a       337     0    23     1     7
 -3.2197511807437135E-01 a       338     0    23     1     8
 -5.8746909257119444E-02 a       339     0    23     1     9
 -4.1369805831083079E-01 a       340     0    23     1    10
 -1.6601976742323088E-01 a       341     0    23     1    11
  3.5607263111780202E-01 a       342     0    23     1    12
  1.6292534371886658E-01 a       343     0    23     1    13
  1.4661549295137546E-01 a       344     0    23     1    14
  2.4209999374824548E-01 a       345     0    23     1    15
 -2.1049017947951176E-02 a       346     0    24     1     1
  2.5716561299203061E-02 a       347     0    24     1     2
  1.1070094853872649E-01 a       348     0    24     1     3
 -3.4532486512882093E-01 a       349     0    24     1     4
 -3.7327227064053001E-03 a       350     0    24     1     5
  5.0037082403272526E-01 a       351     0    24     1     6
  1.9066769897585417E-01 a       352     0    24     1     7
  7.4080878917501924E-01 a       353     0    24     1     8
  5.5527936316730064E-01 a       354     0    24     1     9
 -2.2415085616900124E-01 a       355     0    24     1    10
  2.8925652687770094E-02 a       356     0    24     1    11
 -2.4731654908671746E-01 a       357     0    24     1    12
  1.3744378145220235E-01 a       358     0    24     1    13
 -2.0222495871318519E-01 a       359     0    24     1    14
  1.4126523298243387E-01 a       360     0    24     1    15
 -9.2188730141260396E-03 a       361     0    25     1     1
  1.5779643952428705E-02 a       362     0    25     1     2
 -2.3623241013968507E-01 a       363     0    25     1     3
  6.5974529762942283E-02 a       364     0    25     1     4
 -7.9607648677736648E-02 a       365     0    25     1     5
 -3.6061981950525546E-01 a       366     0    25     1     6
  1.7778069666912125E-01 a       367     0    25     1     7
 -2.0820382241827379E-01 a       368     0    25     1     8
 -1.9685507474309044E-01 a       369     0    25     1     9
  1.0067964176710402E-02 a       370     0    25     1    10
  2.7345819015123668E-01 a       371     0    25     1    11
  1.3618047523057489E-01 a       372     0    25     1    12
  1.9050063460624889E-01 a       373     0    25     1    13
 -2.2133846389175102E-01 a       374     0    25     1    14
 -1.0122721419287836E-01 a       375     0    25     1    15
  2.3664977878518731E-01 a       376     0    26     1     1
 -3.2169964227783558E-02 a       377     0    26     1     2
  6.8565088200884972E-01 a       378     0    26     1     3
  1.0781088236065892E-01 a       379     0    26     1     4
  1.6185284555079513E+00 a       380     0    26     1     5
 -1.6846391184923246E-01 a       381     0    26     1     6
  6.2897326076250959E-01 a       382     0    26     1     7
 -4.2113336764323189E-01 a       383     0    26     1     8
 -5.6009490722075461E-01 a       384     0    26     1     9
 -2.2115104512402381E-02 a       385     0    26     1    10
 -1.4434539659447271E-01 a       386     0    26     1    11
 -1.5516738563790433E-01 a       387     0    26     1    12
  1.0422392659671972E-01 a       388     0    26     1    13
 -1.4019770502193885E-01 a       389     0    26     1    14
 -5.1354810635458673E-02 a       390     0    26     1    15
 -2.9623221871730210E-01 a       391     0    27     1     1
 -7.7175953666924324E-01 a       392     0    27     1     2
 -6.7402971250756694E-01 a       393     0    27     1     3
 -2.1897525373805221E-01 a       394     0    27     1     4
 -1.2215566206214261E+00 a       395     0    27     1     5
 -2.0658902742910722E-02 a       396     0    27     1     6
 -1.1291754544398627E+00 a       397     0    27     1     7
 -4.2465614580712752E-01 a       398     0    27     1     8
 -5.3356696174032192E-01 a       399     0    27     1     9
  2.0559116825507681E-01 a       400     0    27     1    10
 -2.8079102939834805E-01 a       401     0    27     1    11
 -2.5694810834293097E-01 a       402     0    27     1    12
 -8.5910041654332581E-01 a       403     0    27     1    13
 -7.8338257904245714E-02 a       404     0    27     1    14
  2.3081035158756663E-01 a       405     0    27     1    15
 -1.2735761963117348E-02 a       406     0    28     1     1
  5.6493362304351778E-02 a       407     0    28     1     2
  1.8147503376844229E-01 a       408     0    28     1     3
 -4.0308982045602793E-02 a       409     0    28     1     4
 -8.2181259435013893E-02 a       410     0    28     1     5
  1.4433534921913868E-01 a       411     0    28     1     6
  1.0646016973969927E-01 a       412     0    28     1     7
  1.2980938528144592E-01 a       413     0    28     1     8
  2.6764249580415755E-01 a       414     0    28     1     9
 -1.2912837665358995E-01 a       415     0    28     1    10
 -1.7518823919995752E-01 a       416     0    28     1    11
  1.0517563767231537E-01 a       417     0    28     1    12
 -1.2612279121671419E-01 a       418     0    28     1    13
  1.4322237737747603E-01 a       419     0    28     1    14
 -5.8304134665025077E-02 a       420     0    28     1    15
  5.6251762728141663E-01 a       421     0    29     1     1
  1.6106167445515349E-01 a       422     0    29     1     2
 -2.0294383466003760E-01 a       423     0    29     1     3
 -1.7822529381891364E-01 a       424     0    29     1     4
  7.2451862366523345E-01 a       425     0    29     1     5
 -4.0449128038271796E-02 a       426     0    29     1     6
 -2.0069805976515248E-01 a       427     0    29     1     7
  1.2147147881966516E-01 a       428     0    29     1     8
  1.4497080757366349E-02 a       429     0    29     1     9
  4.9527442388324011E-01 a       430     0    29     1    10
 -8.1658553855022756E-02 a       431     0    29     1    11
 -2.5050042416148922E-02 a       432     0    29     1    12
 -8.9512547994273203E-02 a       433     0    29     1    13
  8.6422884392218305E-02 a       434     0    29     1    14
 -1.1961763369706874E-01 a       435     0    29     1    15
 -1.1623097603398450E-01 a       436     0    30     1     1
  3.7833925993815465E-01 a       437     0    30     1     2
  8.0729004024587020E-02 a       438     0    30     1     3
  1.4494445618568491E-01 a       439     0    30     1     4
 -5.4010974935800715E-01 a       440     0    30     1     5
  2.0522562205033731E-02 a       441     0    30     1     6
 -3.8972798320129848E-01 a       442     0    30     1     7
  2.1243531160731757E-01 a       443     0    30     1     8
  1.0585022546759039E-01 a       444     0    30     1     9
  3.0337586875598199E-01 a       445     0    30     1    10
  2.8212247785125549E-01 a       446     0    30     1    11
  1.5066016257264749E-02 a       447     0    30     1    12
  1.2453715752502860E-01 a       448     0    30     1    13
  3.2903626303470968E-01 a       449     0    30     1    14
 -2.8141046038756223E-02 a       450     0    30     1    15
 -3.3445352407012297E-01 a       451     0    31     1     1
 -3.5168363710333161E-01 a       452     0    31     1     2
 -4.7100957340391048E-01 a       453     0    31     1     3
 -7.2851687244156027E-01 a       454     0    31     1     4
 -1.6189747494260071E-01 a       455     0    31     1     5
 -2.2445751286025528E-01 a       456     0    31     1     6
 -3.1366313828633441E-01 a       457     0    31     1     7
 -3.3423887559955617E-01 a       458     0    31     1     8
 -2.1970997647335300E-01 a       459     0    31     1     9
 -2.9543272822244204E-01 a       460     0    31     1    10
  1.7746689823517800E-01 a       461     0    31     1    11
  4.5915463685813909E-02 a       462     0    31     1    12
  5.8070303566081727E-01 a       463     0    31     1    13
 -7.3638390034129808E-01 a       464     0    31     1    14
 -5.6703658987000005E-01 a       465     0    31     1    15
 -4.7888264152429971E-01 b       466     1     1
 -2.3452288044110650E-01 b       467     1     2
 -3.1924322961310952E-01 b       468     1     3
 -7.3295248891966436E-01 b       469     1     4
  1.8677277644629534E-01 b       470     1     5
 -7.7131691697422455E-02 b       471     1     6
 -3.3983362419977031E-01 b       472     1     7
 -2.7751763122083162E-01 b       473     1     8
 -3.7620849770828713E-01 b       474     1     9
 -6.2834052736768509E-02 b       475     1    10
  4.1895516426395513E-01 b       476     1    11
 -2.0765157547574971E-02 b       477     1    12
  1.2029215133728838E-01 b       478     1    13
 -1.5149936222307328E-01 b       479     1    14
 -4.7502217324893858E-01 b       480     1    15
 -7.9297115906661308E-01 a       481     1     1     2     1
 -7.1450599277544247E-01 a       482     1     1     2     2
 -9.5792093011362445E-01 a       483     1     1     2     3
 -4.7699702512154413E-01 a       484     1     1     2     4
  2.6232125587729732E-01 a       485     1     1     2     5
 -1.5518346611187808E-01 a       486     1     1     2     6
  2.6087538035559177E-01 a       487     1     1     2     7
 -3.5299439917508268E-01 a       488     1     1     2     8
  6.1862965166214368E-01 a       489     1     1     2     9
 -2.5678573489736939E-01 a       490     1     1     2    10
 -3.0292798227795742E-01 a       491     1     1     2    11
  3.7335123786688063E-01 a       492     1     1     2    12
 -2.4784182019040149E-01 a       493     1     1     2    13
  2.1147226189404134E-01 a       494     1     1     2    14
  1.2116811916895392E-01 a       495     1     1     2    15
 -3.6060996565149062E-01 a       496     1     2     2     1
  9.1370387820770493E-01 a       497     1     2     2     2
  5.7687242037133291E-01 a       498     1     2     2     3
 -5.4021757061323572E-01 a       499     1     2     2     4
 -3.4544115545701676E-01 a       500     1     2     2     5
  2.9485194313392832E-01 a       501     1     2     2     6
  1.8523236595028325E-01 a       502     1     2     2     7
 -1.2156705286585915E-02 a       503     1     2     2     8
 -2.5283202204830146E-01 a       504     1     2     2     9
 -2.5579249331139287E-01 a       505     1     2     2    10
  4.4693250934157402E-01 a       506     1     2     2    11
  4.3783086940414701E-01 a       507     1     2     2    12
 -3.5106374836846543E-01 a       508     1     2     2    13
  2.4297811157410734E-01 a       509     1     2     2    14
 -1.5046869841946509E-01 a       510     1     2     2    15
 -3.2064222066334591E-01 a       511     1     3     2     1
  3.5172354577290943E-01 a       512     1     3     2     2
 -1.8884049495849314E-01 a       513     1     3     2     3
  1.5128065112547329E-01 a       514     1     3     2     4
  1.3748586589974318E-01 a       515     1     3     2     5
  6.0606155593407096E-01 a       516     1     3     2     6
 -1.1333228485927960E-01 a       517     1     3     2     7
 -1.6810968479928402E-02 a       518     1     3     2     8
  6.8782209258010929E-01 a       519     1     3     2     9
 -2.3719533956335614E-01 a       520     1     3     2    10
 -3.8437873324777977E-01 a       521     1     3     2    11
  8.1677239471345725E-02 a       522     1     3     2    12
 -3.3422407086672434E-01 a       523     1     3     2    13
 -4.0968188315964543E-01 a       524     1     3     2    14
  1.7076745558401973E-01 a       525     1     3     2    15
  3.3054801507154874E-01 a       526     1     4     2     1
  6.1982226000426821E-01 a       527     1     4     2     2
  3.5741200811864764E-02 a       528     1     4     2     3
 -3.7332926626538010E-01 a       529     1     4     2     4
  1.5486173757697058E-01 a       530     1     4     2     5
  4.4964924509108445E-01 a       531     1     4     2     6
 -6.1960144768511227E-01 a       532     1     4     2     7
 -8.4181659073731052E-01 a       533     1     4     2     8
  1.0299640040969908E-01 a       534     1     4     2     9
  2.6522547988164419E-01 a       535     1     4     2    10
  3.6431747006392852E-02 a       536     1     4     2    11
  2.1999694324444649E-01 a       537     1     4     2    12
  5.3883731638217425E-01 a       538     1     4     2    13
  3.4159952517144820E-01 a       539     1     4     2    14
  5.5893675626849648E-01 a       540     1     4     2    15
  1.1760486211817466E-01 a       541     1     5     2     1
 -4.8515675643680961E-01 a       542     1     5     2     2
  2.4590889892077594E-01 a       543     1     5     2     3
 -4.5155019664917338E-03 a       544     1     5     2     4
  1.7711761176103724E-01 a       545     1     5     2     5
  2.6740384792383630E-02 a       546     1     5     2     6
 -2.1771967935818762E-01 a       547     1     5     2     7
  9.3252945560614753E-02 a       548     1     5     2     8
 -3.1685624345792218E-01 a       549     1     5     2     9
  2.6215219517565608E-01 a       550     1     5     2    10
  1.9780921359840106E-01 a       551     1     5     2    11
 -1.0717398924402441E-01 a       552     1     5     2    12
 -2.1106265319526238E-01 a       553     1     5     2    13
 -9.0417304732679546E-02 a       554     1     5     2    14
 -3.3246202878900172E-01 a       555     1     5     2    15
  7.6446076163665311E-01 a       556     1     6     2     1
  2.1309918355613752E-01 a       557     1     6     2     2
  4.2374665700106473E-01 a       558     1     6     2     3
  2.9119676835520314E-01 a       559     1     6     2     4
 -5.1209908245515801E-01 a       560     1     6     2     5
 -3.3160689318064307E-01 a       561     1     6     2     6
 -1.3066388084143980E-02 a       562     1     6     2     7
  5.5300313232025933E-01 a       563     1     6     2     8
  2.1951767094482039E-01 a       564     1     6     2     9
  5.2591460011571045E-01 a       565     1     6     2    10
 -2.0109241453333829E-01 a       566     1     6     2    11
  3.3904082594907542E-01 a       567     1     6     2    12
  7.8123377283438891E-02 a       568     1     6     2    13
 -4.8527525308226332E-01 a       569     1     6     2    14
  4.8052170467977162E-01 a       570     1     6     2    15
  7.8380244864640208E-02 a       571     1     7     2     1
 -5.9231349316391424E-01 a       572     1     7     2     2
 -4.4825531651476203E-01 a       573     1     7     2     3
  9.6209006656504670E-02 a       574     1     7     2     4
  3.3435388649195996E-01 a       575     1     7     2     5
 -1.5843028949102683E-01 a       576     1     7     2     6
 -6.0867833707427288E-01 a       577     1     7     2     7
  1.2730370867059576E-01 a       578     1     7     2     8
  5.4116464378103624E-01 a       579     1     7     2     9
  3.4309373991060665E-01 a       580     1     7     2    10
 -1.1820364110385018E-01 a       581     1     7     2    11
 -8.0157943202573897E-02 a       582     1     7     2    12
 -3.3798186460350210E-02 a       583     1     7     2    13
 -9.6984705631182735E-02 a       584     1     7     2    14
 -2.0900158554988577E-01 a       585     1     7     2    15
  4.1114552053564561E-02 a       586     1     8     2     1
  7.8809706927664980E-01 a       587     1     8     2     2
 -1.6428625508168990E-01 a       588     1     8     2     3
 -2.8267938887653044E-01 a       589     1     8     2     4
  1.3944281883379120E-01 a       590     1     8     2     5
 -5.8419353519615536E-01 a       591     1     8     2     6
 -2.3605290703704038E-01 a       592     1     8     2     7
  2.1942351075024810E-01 a       593     1     8     2     8
  1.6274992073340491E-01 a       594     1     8     2     9
  1.5973116247038022E-01 a       595     1     8     2    10
 -2.5882141611893011E-01 a       596     1     8     2    11
 -8.9505189889198178E-01 a       597     1     8     2    12
  5.5812350390336055E-04 a       598     1     8     2    13
 -5.4700364782074316E-02 a       599     1     8     2    14
 -3.0317958106251053E-01 a       600     1     8     2    15
 -8.2908813349983124E-02 a       601     1     9     2     1
 -2.0484531673510106E-01 a       602     1     9     2     2
 -8.5471179158721114E-02 a       603     1     9     2     3
  2.3572569737087046E-01 a       604     1     9     2     4
  1.0750896077706976E-01 a       605     1     9     2     5
 -3.6995166249777062E-01 a       606     1     9     2     6
 -1.5404845337412328E-02 a       607     1     9     2     7
 -2.5029115069068303E-01 a       608     1     9     2     8
  2.7351272987898767E-01 a       609     1     9     2     9
 -2.5343154994174411E-01 a       610     1     9     2    10
  3.5343293127441783E-01 a       611     1     9     2    11
 -5.0979043325982569E-02 a       612     1     9     2    12
  2.0539972131456663E-01 a       613     1     9     2    13
  2.1992360065395936E-01 a       614     1     9     2    14
  6.9699612190529037E-01 a       615     1     9     2    15
  1.9520082647063255E-01 a       616     1    10     2     1
  4.1402734708011292E-02 a       617     1    10     2     2
 -5.1254692306225236E-01 a       618     1    10     2     3
  4.4066639731969692E-01 a       619     1    10     2     4
  1.0140147011801343E-01 a       620     1    10     2     5
 -6.8065113591960558E-01 a       621     1    10     2     6
 -4.4820680878918484E-01 a       622     1    10     2     7
  4.8734874269840373E-01 a       623     1    10     2     8
  2.3399695169467945E-02 a       624     1    10     2     9
 -1.6226284205402991E-01 a       625     1    10     2    10
 -4.2031097362356501E-01 a       626     1    10     2    11
  4.9222121744472858E-01 a       627     1    10     2    12
  1.0936077928190649E-01 a       628     1    10     2    13
 -1.9457926906876033E-01 a       629     1    10     2    14
 -3.6969547658066128E-02 a       630     1    10     2    15
  3.4405261677414767E-01 a       631     1    11     2     1
 -3.9833121935039123E-01 a       632     1    11     2     2
 -5.1780507038211643E-01 a       633     1    11     2     3
  1.2464802656126424E-01 a       634     1    11     2     4
  2.8647407673297537E-01 a       635     1    11     2     5
 -4.6427301799635701E-01 a       636     1    11     2     6
 -1.0625188348336465E-01 a       637     1    11     2     7
 -2.7231651998666651E-01 a       638     1    11     2     8
  3.8265942290598126E-01 a       639     1    11     2     9
  1.5706684465615958E-01 a       640     1    11     2    10
  2.1480973938617842E-01 a       641     1    11     2    11
  2.0787687879920311E-01 a       642     1    11     2    12
  3.9332668365210807E-02 a       643     1    11     2    13
 -2.2835386636024965E-02 a       644     1    11     2    14
 -2.0932283666018325E-01 a       645     1    11     2    15
 -1.9097017189307147E-01 a       646     1    12     2     1
  3.0522280157737898E-02 a       647     1    12     2     2
  2.4507149401729220E-01 a       648     1    12     2     3
  7.1335805359370258E-02 a       649     1    12     2     4
 -2.9299358967703520E-01 a       650     1    12     2     5
 -1.6840184552213283E-01 a       651     1    12     2     6
 -3.3459147512933396E-01 a       652     1    12     2     7
  2.7962230484684059E-01 a       653     1    12     2     8
  2.5805054181466486E-01 a       654     1    12     2     9
 -1.7957913790061575E-01 a       655     1    12     2    10
 -5.0794960429651004E-01 a       656     1    12     2    11
  3.3204290806660525E-01 a       657     1    12     2    12
  5.8671862475231207E-01 a       658     1    12     2    13
 -2.4465157841264742E-01 a       659     1    12     2    14
  8.4323025737155821E-01 a       660     1    12     2    15
 -4.4076482940662465E-01 a       661     1    13     2     1
  4.7371642736475069E-03 a       662     1    13     2     2
 -6.3228994322793430E-01 a       663     1    13     2     3
  4.7486379190983713E-01 a       664     1    13     2     4
 -1.4558355955686417E-01 a       665     1    13     2     5
  5.7157789721412333E-01 a       666     1    13     2     6
  3.4399254495723391E-01 a       667     1    13     2     7
 -2.6108567274380090E-01 a       668     1    13     2     8
  5.1934738489456722E-01 a       669     1    13     2     9
 -4.9763609981013568E-01 a       670     1    13     2    10
 -4.5571213767005758E-01 a       671     1    13     2    11
 -1.0988543415343288E-01 a       672     1    13     2    12
 -4.5831737555908109E-01 a       673     1    13     2    13
 -4.8519180119816230E-01 a       674     1    13     2    14
 -3.3971233776907855E-01 a       675     1    13     2    15
  1.4498769238241152E-01 a       676     1    14     2     1
  2.2747033226226465E-01 a       677     1    14     2     2
 -3.2758942703587035E-01 a       678     1    14     2     3
  2.6743599080774616E-01 a       679     1    14     2     4
  5.3696993561523187E-01 a       680     1    14     2     5
 -6.2032249482383173E-02 a       681     1    14     2     6
 -2.5878735521485330E-01 a       682     1    14     2     7
  5.0072191266573607E-01 a       683     1    14     2     8
  1.1944984260782884E-01 a       684     1    14     2     9
 -2.8125638337864345E-01 a       685     1    14     2    10
 -2.1267619964677655E-02 a       686     1    14     2    11
 -6.2052623911662375E-01 a       687     1    14     2    12
  5.6274956810248256E-01 a       688     1    14     2    13
 -2.0657694388916323E-01 a       689     1    14     2    14
  1.4316607836430540E-02 a       690     1    14     2    15
 -3.4825703409875391E-01 a       691     1    15     2     1
  2.3849499374490251E-02 a       692     1    15     2     2
 -1.1517462362767175E-01 a       693     1    15     2     3
 -1.9447959042976859E-01 a       694     1    15     2     4
  1.3754858361505359E-01 a       695     1    15     2     5
  7.1023800322227648E-01 a       696     1    15     2     6
 -9.4773593305377213E-01 a       697     1    15     2     7
  9.9731004940511003E-01 a       698     1    15     2     8
 -7.0814868732231062E-01 a       699     1    15     2     9
 -9.5630324405518136E-02 a       700     1    15     2    10
  1.4059896792657989E-01 a       701     1    15     2    11
 -3.1738359239669008E-02 a       702     1    15     2    12
 -2.6191274826808136E-01 a       703     1    15     2    13
 -1.4457171183345935E-01 a       704     1    15     2    14
 -4.1841286100568154E-01 a       705     1    15     2    15
 -1.3706497982414727E+00 b       706     2     1
  1.1207764743629942E-01 b       707     2     2
 -1.0350595394144367E-01 b       708     2     3
  4.9057801084601410E-01 b       709     2     4
  3.4083598704352325E-01 b       710     2     5
  5.1142152158458221E-01 b       711     2     6
 -2.3087346366959388E-01 b       712     2     7
 -1.5761582131411420E-01 b       713     2     8
  2.7573602410462889E-01 b       714     2     9
  2.9438581700733324E-01 b       715     2    10
  5.7143368467370859E-01 b       716     2    11
 -2.2023582928215574E-01 b       717     2    12
 -1.5748622933230430E-01 b       718     2    13
  3.5255820200774080E-01 b       719     2    14
  2.0477439383474114E-01 b       720     2    15
  1.2377175135447589E+00 a       721     2     1     3     1
 -5.8676916326918113E-02 a       722     2     2     3     1
  7.7852450758829350E-01 a       723     2     3     3     1
 -1.0494090874459436E+00 a       724     2     4     3     1
 -4.4525248936333445E-01 a       725     2     5     3     1
 -5.2393605824649836E-01 a       726     2     6     3     1
 -2.7481228492149212E-01 a       727     2     7     3     1
 -3.3723566512601255E-01 a       728     2     8     3     1
  3.1377728428959534E-01 a       729     2     9     3     1
 -7.2118952227320310E-01 a       730     2    10     3     1
 -8.3679435234838329E-01 a       731     2    11     3     1
  5.5542378271032855E-01 a       732     2    12     3     1
  7.3354187253014669E-01 a       733     2    13     3     1
 -1.2362215436683501E+00 a       734     2    14     3     1
 -7.3287500140279138E-01 a       735     2    15     3     1
 -1.1784020531411847E+00 b       736     3     1
