################################################################################
# Neural network connection values (weights and biases).
################################################################################
# Col  Name       Description
################################################################################
# 1    connection Neural network connection value.
# 2    t          Connection type (a = weight, b = bias).
# 3    index      Index enumerating weights.
# 4    l_s        Starting point layer (end point layer for biases).
# 5    n_s        Starting point neuron in starting layer (end point neuron for biases).
# 6    l_e        End point layer.
# 7    n_e        End point neuron in end layer.
################################################################################
#                      1 2         3     4     5     6     7
#             connection t     index   l_s   n_s   l_e   n_e
############################################################
  5.3172017990536535E-01 a         1     0     1     1     1
  2.0306027835421217E-01 a         2     0     1     1     2
  1.1225204895806442E+00 a         3     0     1     1     3
 -1.0951050859220228E+00 a         4     0     1     1     4
 -1.0882194248965764E+00 a         5     0     1     1     5
 -6.0482439629495210E-01 a         6     0     1     1     6
 -1.6501503936720327E-01 a         7     0     1     1     7
  9.5887503389262818E-01 a         8     0     1     1     8
  6.8107775410629590E-01 a         9     0     1     1     9
 -1.9871891812195983E-01 a        10     0     1     1    10
 -5.5180684945093084E-01 a        11     0     1     1    11
 -8.8185178422505328E-01 a        12     0     1     1    12
  1.5016255945370349E+00 a        13     0     1     1    13
 -7.4692577077731426E-01 a        14     0     1     1    14
  4.6705491754296863E-01 a        15     0     1     1    15
  3.6058382043271670E-01 a        16     0     2     1     1
  5.2057269657966465E-01 a        17     0     2     1     2
  4.9427404726869889E-01 a        18     0     2     1     3
  6.0348704919050067E-01 a        19     0     2     1     4
 -1.0755083864209110E+00 a        20     0     2     1     5
  8.8745148519387351E-01 a        21     0     2     1     6
  4.9649209482021606E-01 a        22     0     2     1     7
 -8.8515764091134097E-01 a        23     0     2     1     8
 -6.7788600076605332E-01 a        24     0     2     1     9
  2.3791960024920934E-02 a        25     0     2     1    10
  5.5297924837809809E-01 a        26     0     2     1    11
 -6.2309432257375363E-01 a        27     0     2     1    12
  5.7891553040870392E-01 a        28     0     2     1    13
 -8.6690021144689922E-01 a        29     0     2     1    14
 -2.0611312725759796E+00 a        30     0     2     1    15
 -3.9785236414822184E-01 a        31     0     3     1     1
  2.7914362213223654E-01 a        32     0     3     1     2
 -1.4207711036764353E-01 a        33     0     3     1     3
 -3.9236591493574230E-01 a        34     0     3     1     4
  7.5306743808562088E-02 a        35     0     3     1     5
  2.6593805773087992E-01 a        36     0     3     1     6
 -1.4253601036296226E+00 a        37     0     3     1     7
 -4.8634786270047498E-01 a        38     0     3     1     8
  1.0333469711654064E+00 a        39     0     3     1     9
 -5.0613530649493137E-02 a        40     0     3     1    10
  1.3599443395610641E-01 a        41     0     3     1    11
 -4.0076283811444469E-01 a        42     0     3     1    12
 -8.6641559346920716E-01 a        43     0     3     1    13
  2.9190036049293583E-01 a        44     0     3     1    14
 -6.9670796724856576E-01 a        45     0     3     1    15
  1.3935468621722510E-01 a        46     0     4     1     1
  2.4336014166124917E-01 a        47     0     4     1     2
 -1.5181771539270084E-01 a        48     0     4     1     3
 -5.7844421013581537E-01 a        49     0     4     1     4
  1.2082784132679547E+00 a        50     0     4     1     5
 -8.7343959757470890E-01 a        51     0     4     1     6
  1.6368395784720130E-01 a        52     0     4     1     7
  7.6307385474977063E-01 a        53     0     4     1     8
 -7.5817907158222919E-01 a        54     0     4     1     9
  6.6203842736344476E-01 a        55     0     4     1    10
 -4.1247492450849910E-01 a        56     0     4     1    11
  4.4315426979219874E-01 a        57     0     4     1    12
  7.7481908878565819E-01 a        58     0     4     1    13
 -2.8483289751171259E-01 a        59     0     4     1    14
  3.0988769839450656E+00 a        60     0     4     1    15
 -5.9249046457491406E-01 a        61     0     5     1     1
 -7.9731173741417227E-01 a        62     0     5     1     2
 -1.2339416383339190E+00 a        63     0     5     1     3
  1.6461870953614794E+00 a        64     0     5     1     4
  6.2749526346748385E-01 a        65     0     5     1     5
  2.0805784779716556E+00 a        66     0     5     1     6
 -2.3420209455343022E-01 a        67     0     5     1     7
 -2.4283115674749753E+00 a        68     0     5     1     8
 -9.0840617457480610E-01 a        69     0     5     1     9
 -1.3084429774422870E+00 a        70     0     5     1    10
  7.5287601783704927E-01 a        71     0     5     1    11
 -1.1100468949593113E-01 a        72     0     5     1    12
 -2.7660108240888550E+00 a        73     0     5     1    13
  6.3048751624240762E-01 a        74     0     5     1    14
 -2.9607083598417181E+00 a        75     0     5     1    15
 -4.2399030996982850E-01 a        76     0     6     1     1
  1.0110417581170385E-01 a        77     0     6     1     2
 -2.4657498700449546E-01 a        78     0     6     1     3
 -1.2183158969848464E-01 a        79     0     6     1     4
  1.4899967371950342E+00 a        80     0     6     1     5
 -2.7759759739573403E-01 a        81     0     6     1     6
 -2.7818689678690145E-01 a        82     0     6     1     7
  1.5505002504533011E-01 a        83     0     6     1     8
 -6.5159270785730972E-01 a        84     0     6     1     9
  7.0304709401458187E-01 a        85     0     6     1    10
 -1.8698073861989484E-01 a        86     0     6     1    11
  5.3470605680326388E-01 a        87     0     6     1    12
 -2.1388590892976147E-02 a        88     0     6     1    13
 -4.0228896043159146E-01 a        89     0     6     1    14
  3.0498494345509757E+00 a        90     0     6     1    15
 -9.4508443860373792E-01 a        91     0     7     1     1
  2.0381686636436282E-02 a        92     0     7     1     2
 -6.5416165353688305E-01 a        93     0     7     1     3
 -2.6999165104510165E+00 a        94     0     7     1     4
  1.4225501199129922E+00 a        95     0     7     1     5
 -2.1833814195813064E+00 a        96     0     7     1     6
  2.8694812784244322E-01 a        97     0     7     1     7
  1.8293623715868317E+00 a        98     0     7     1     8
  2.8165606571278917E-01 a        99     0     7     1     9
 -1.0622598121192696E-01 a       100     0     7     1    10
 -1.9187380984744511E+00 a       101     0     7     1    11
  1.9334719579904389E+00 a       102     0     7     1    12
  1.9863312125705506E+00 a       103     0     7     1    13
  1.3470138315421347E+00 a       104     0     7     1    14
  4.8881682628881427E+00 a       105     0     7     1    15
  8.5319673782112984E-02 a       106     0     8     1     1
 -1.3379582407529872E-01 a       107     0     8     1     2
 -3.4887829672434056E-01 a       108     0     8     1     3
  7.0204364962193777E-01 a       109     0     8     1     4
 -6.5543114198838126E-02 a       110     0     8     1     5
  2.5734956797735259E-01 a       111     0     8     1     6
 -2.7958493007077989E-01 a       112     0     8     1     7
 -1.0345064545232292E+00 a       113     0     8     1     8
  2.9503500326482962E-01 a       114     0     8     1     9
  2.1919460500489829E-01 a       115     0     8     1    10
  6.6883488046248019E-01 a       116     0     8     1    11
  3.1421302663972861E-03 a       117     0     8     1    12
 -9.4218166484782750E-01 a       118     0     8     1    13
 -3.4438170056914574E-01 a       119     0     8     1    14
 -6.8507889316207132E-02 a       120     0     8     1    15
  1.7479035740679201E+00 a       121     0     9     1     1
 -6.3681675589343234E-01 a       122     0     9     1     2
 -8.5629395597517186E-02 a       123     0     9     1     3
  2.8259462671413726E-01 a       124     0     9     1     4
 -2.2997536316394092E+00 a       125     0     9     1     5
  1.9667559824764044E-01 a       126     0     9     1     6
  1.4718595758911492E+00 a       127     0     9     1     7
  3.7481666002310238E-01 a       128     0     9     1     8
 -1.3384387978746085E-01 a       129     0     9     1     9
  1.5708561597759656E+00 a       130     0     9     1    10
  2.6338845608930489E-01 a       131     0     9     1    11
  6.3080940320204082E-01 a       132     0     9     1    12
 -1.0777270966246035E+00 a       133     0     9     1    13
  3.9757305962378359E-01 a       134     0     9     1    14
 -7.8656983020130111E-01 a       135     0     9     1    15
 -9.9244091135362283E-02 a       136     0    10     1     1
 -6.7730512898448933E-02 a       137     0    10     1     2
 -3.7001447520241060E-01 a       138     0    10     1     3
  2.2999184864786506E+00 a       139     0    10     1     4
 -4.5214792359727707E-01 a       140     0    10     1     5
  9.1235204648693680E-01 a       141     0    10     1     6
 -5.9348860438574891E-01 a       142     0    10     1     7
 -1.2451544232793998E+00 a       143     0    10     1     8
 -2.0897317196970785E-01 a       144     0    10     1     9
  1.2347614013888769E-01 a       145     0    10     1    10
  3.3799858960524859E-01 a       146     0    10     1    11
  1.9883369842382745E-01 a       147     0    10     1    12
 -8.8035526815205989E-01 a       148     0    10     1    13
 -1.4366314652090095E-01 a       149     0    10     1    14
 -1.7213420783402427E+00 a       150     0    10     1    15
 -1.7737347054233072E+00 a       151     0    11     1     1
  1.0671797907889184E+00 a       152     0    11     1     2
 -3.5403622684031533E-01 a       153     0    11     1     3
 -2.3455869049060118E-01 a       154     0    11     1     4
  1.0764154914249062E+00 a       155     0    11     1     5
 -1.9595901129345494E+00 a       156     0    11     1     6
 -1.0664881623877127E+00 a       157     0    11     1     7
  9.4454824678873028E-01 a       158     0    11     1     8
  2.1283077493077034E+00 a       159     0    11     1     9
 -1.3726616138543817E+00 a       160     0    11     1    10
 -3.7791750839167881E-01 a       161     0    11     1    11
 -3.6615404294589232E-01 a       162     0    11     1    12
  2.6006782194963785E-01 a       163     0    11     1    13
 -8.2199007159584536E-01 a       164     0    11     1    14
  2.1549068747432418E+00 a       165     0    11     1    15
 -4.5597587857175929E-02 a       166     0    12     1     1
  1.4582235333918476E+00 a       167     0    12     1     2
 -4.1351115377765529E-01 a       168     0    12     1     3
 -1.3300639946012476E+00 a       169     0    12     1     4
 -1.0527031944708150E+00 a       170     0    12     1     5
 -7.6083870189796110E-01 a       171     0    12     1     6
 -1.1617101144068012E+00 a       172     0    12     1     7
  4.0296537739454741E-01 a       173     0    12     1     8
  3.2170553794852212E+00 a       174     0    12     1     9
  2.8707056820143018E-02 a       175     0    12     1    10
  2.0277495685931321E-01 a       176     0    12     1    11
  4.7001302670768585E-01 a       177     0    12     1    12
  5.5258084641301419E-01 a       178     0    12     1    13
 -1.2938422021790880E-01 a       179     0    12     1    14
  2.8050306261436214E-01 a       180     0    12     1    15
  9.8475797843559498E-01 a       181     0    13     1     1
 -2.4622964011983042E-01 a       182     0    13     1     2
  1.1185087465689998E+00 a       183     0    13     1     3
 -4.5572857664039845E-01 a       184     0    13     1     4
 -1.2957539559278322E+00 a       185     0    13     1     5
  1.0617675979878205E+00 a       186     0    13     1     6
  1.0059999893133285E-01 a       187     0    13     1     7
  1.8711741555284009E+00 a       188     0    13     1     8
 -3.2110538370930652E+00 a       189     0    13     1     9
  2.5022239483532771E+00 a       190     0    13     1    10
 -8.9852537494443974E-01 a       191     0    13     1    11
 -1.4615878937389590E+00 a       192     0    13     1    12
 -1.1185804566099837E+00 a       193     0    13     1    13
 -1.4539155662904799E+00 a       194     0    13     1    14
 -2.5953860552190150E-01 a       195     0    13     1    15
  8.0841622033549854E-01 a       196     0    14     1     1
 -6.7201335039298093E-01 a       197     0    14     1     2
 -2.3523473132246289E-01 a       198     0    14     1     3
 -1.3886767810221439E+00 a       199     0    14     1     4
  4.3752924990441172E-01 a       200     0    14     1     5
  9.8305168363086237E-01 a       201     0    14     1     6
 -2.1011978343247739E-01 a       202     0    14     1     7
 -1.6762481307989768E-01 a       203     0    14     1     8
 -1.2489934002337908E+00 a       204     0    14     1     9
  1.4325940984533944E-01 a       205     0    14     1    10
  1.8210562647487732E-01 a       206     0    14     1    11
 -2.6290435153010117E-01 a       207     0    14     1    12
 -3.6524435284628959E-01 a       208     0    14     1    13
  9.4682813747359373E-02 a       209     0    14     1    14
  3.8170676034943285E-01 a       210     0    14     1    15
 -2.0412479066737905E+00 a       211     0    15     1     1
  1.9032879426978608E-02 a       212     0    15     1     2
 -8.4568318295162870E-01 a       213     0    15     1     3
  1.3159941290905923E+00 a       214     0    15     1     4
 -1.3752566611443220E-02 a       215     0    15     1     5
  1.6143874285019238E-01 a       216     0    15     1     6
  7.4698448380502747E-01 a       217     0    15     1     7
 -1.3012255265637434E+00 a       218     0    15     1     8
  1.5104853941050913E+00 a       219     0    15     1     9
 -1.5302461677815065E+00 a       220     0    15     1    10
  1.3235174691865135E+00 a       221     0    15     1    11
  2.6310367163070592E-01 a       222     0    15     1    12
  3.3292310253430074E-02 a       223     0    15     1    13
  1.1836790188319122E+00 a       224     0    15     1    14
 -9.2122417089843300E-01 a       225     0    15     1    15
 -4.9813310908557973E-01 a       226     0    16     1     1
  6.9962154337234655E-02 a       227     0    16     1     2
  2.3667346162829103E-02 a       228     0    16     1     3
  4.2047820566693095E-01 a       229     0    16     1     4
 -9.1531837109318448E-01 a       230     0    16     1     5
 -1.4500802449298685E-02 a       231     0    16     1     6
 -9.0958648108950313E-01 a       232     0    16     1     7
 -5.2819205283389448E-01 a       233     0    16     1     8
  1.0582003516872818E-01 a       234     0    16     1     9
 -3.6664380212198250E-01 a       235     0    16     1    10
  5.7159016304654653E-01 a       236     0    16     1    11
 -6.0210246357912822E-01 a       237     0    16     1    12
 -1.5117820034682476E-02 a       238     0    16     1    13
  3.2490084674448069E-02 a       239     0    16     1    14
  7.0865094718856547E-01 a       240     0    16     1    15
 -1.0449761044669010E+00 a       241     0    17     1     1
  2.6537943009419990E-01 a       242     0    17     1     2
  3.8987287325048120E-01 a       243     0    17     1     3
  8.9710039559441623E-01 a       244     0    17     1     4
  4.0930823881823869E-01 a       245     0    17     1     5
  4.3414673881374000E-01 a       246     0    17     1     6
  5.2468244846526424E-01 a       247     0    17     1     7
  7.0123684412602205E-01 a       248     0    17     1     8
  1.3739570152366132E+00 a       249     0    17     1     9
  1.2487536882822143E+00 a       250     0    17     1    10
  6.9391844902728497E-02 a       251     0    17     1    11
  6.7310870897794306E-01 a       252     0    17     1    12
 -6.2186866418953574E-03 a       253     0    17     1    13
  5.7136775555936226E-01 a       254     0    17     1    14
  4.1762313086292902E-01 a       255     0    17     1    15
 -1.3382559777111708E-01 a       256     0    18     1     1
  7.9820816447953205E-02 a       257     0    18     1     2
  7.5289097147788475E-01 a       258     0    18     1     3
 -8.2328059826580002E-01 a       259     0    18     1     4
  1.0445135547367299E+00 a       260     0    18     1     5
  3.1040746348491099E-01 a       261     0    18     1     6
 -1.7750744249396505E-01 a       262     0    18     1     7
 -6.9880964870758278E-01 a       263     0    18     1     8
 -8.2699698220818274E-01 a       264     0    18     1     9
  9.0962087704055339E-02 a       265     0    18     1    10
 -1.0021008630836339E+00 a       266     0    18     1    11
 -8.4969992855809848E-02 a       267     0    18     1    12
 -1.5736190489000830E-02 a       268     0    18     1    13
  1.5021843116541941E-01 a       269     0    18     1    14
 -5.4532333277429812E-01 a       270     0    18     1    15
 -1.1707101355111433E+00 a       271     0    19     1     1
 -1.0520306370242272E+00 a       272     0    19     1     2
  2.3791620962006026E+00 a       273     0    19     1     3
  6.2353268426394715E-01 a       274     0    19     1     4
 -7.8537028741393844E-01 a       275     0    19     1     5
 -1.3447568736153446E+00 a       276     0    19     1     6
  1.8945607148590746E+00 a       277     0    19     1     7
  1.8908583722793106E+00 a       278     0    19     1     8
 -2.0542776759563264E+00 a       279     0    19     1     9
 -5.5306808386633455E-01 a       280     0    19     1    10
 -1.6456329996240209E+00 a       281     0    19     1    11
 -8.1794003161654971E-01 a       282     0    19     1    12
 -3.2706270217622585E-01 a       283     0    19     1    13
 -1.1882541588707599E-01 a       284     0    19     1    14
 -6.7956391639150482E-01 a       285     0    19     1    15
  8.9499833898774950E-01 a       286     0    20     1     1
 -4.7741502092137872E-01 a       287     0    20     1     2
 -1.6350176521327571E+00 a       288     0    20     1     3
 -1.1943561996644769E+00 a       289     0    20     1     4
  6.7287248849718106E-01 a       290     0    20     1     5
 -2.1278576750099062E-01 a       291     0    20     1     6
 -5.5143876818335436E-01 a       292     0    20     1     7
 -6.1958646877009460E-01 a       293     0    20     1     8
  6.3981537467844429E-01 a       294     0    20     1     9
 -1.0082323681110434E+00 a       295     0    20     1    10
  1.6942128344615661E+00 a       296     0    20     1    11
  1.2527500468190300E+00 a       297     0    20     1    12
 -4.1345860208319674E-01 a       298     0    20     1    13
  1.0428631048378167E+00 a       299     0    20     1    14
 -6.6811542366023791E-01 a       300     0    20     1    15
  9.8389424544867454E-01 a       301     0    21     1     1
 -1.0627362328130981E-01 a       302     0    21     1     2
 -9.5128062945575365E-01 a       303     0    21     1     3
  1.1321202568617135E+00 a       304     0    21     1     4
  2.0139878156724109E-01 a       305     0    21     1     5
  6.1708738397666751E-01 a       306     0    21     1     6
  6.7196771672576694E-01 a       307     0    21     1     7
  4.7277519541280111E-01 a       308     0    21     1     8
 -7.8037240126725485E-02 a       309     0    21     1     9
 -8.0039386183308880E-01 a       310     0    21     1    10
 -5.0672589050201000E-01 a       311     0    21     1    11
 -1.0632126062553329E+00 a       312     0    21     1    12
  6.0674869016851174E-01 a       313     0    21     1    13
 -1.8189700601382002E+00 a       314     0    21     1    14
 -1.2319784043521078E+00 a       315     0    21     1    15
  3.8410438694541876E-01 a       316     0    22     1     1
 -2.2200594812771041E-01 a       317     0    22     1     2
 -4.4184757994118162E-01 a       318     0    22     1     3
 -3.1256530203421884E-01 a       319     0    22     1     4
 -4.8146014559184359E-02 a       320     0    22     1     5
 -9.5043973906915810E-02 a       321     0    22     1     6
 -8.4450763906160331E-01 a       322     0    22     1     7
 -8.9899894291621196E-01 a       323     0    22     1     8
  8.0486961783848121E-01 a       324     0    22     1     9
  6.2385686793539330E-01 a       325     0    22     1    10
 -3.5036135117792216E-01 a       326     0    22     1    11
  8.8549413670986787E-02 a       327     0    22     1    12
 -3.1666096238622998E-01 a       328     0    22     1    13
 -1.8923605001773558E-01 a       329     0    22     1    14
  1.7139061702418255E+00 a       330     0    22     1    15
  8.0841537165587862E-01 a       331     0    23     1     1
  1.2335891965567998E+00 a       332     0    23     1     2
 -3.0306066398640708E-01 a       333     0    23     1     3
 -6.3315605950732246E-01 a       334     0    23     1     4
  2.2586488831409346E-01 a       335     0    23     1     5
 -1.5454098284709239E-01 a       336     0    23     1     6
 -1.2583714889679454E+00 a       337     0    23     1     7
 -5.1947512464288748E-01 a       338     0    23     1     8
  9.9220869651285559E-01 a       339     0    23     1     9
  1.3857068215950663E+00 a       340     0    23     1    10
  8.6260574658806233E-01 a       341     0    23     1    11
 -5.9823144966868058E-01 a       342     0    23     1    12
 -1.9888712809546900E+00 a       343     0    23     1    13
  1.0295404352782894E-01 a       344     0    23     1    14
 -1.5513483942015643E-01 a       345     0    23     1    15
 -5.3649866153145798E-01 a       346     0    24     1     1
 -1.2337227944455751E+00 a       347     0    24     1     2
  1.2190385413308229E+00 a       348     0    24     1     3
  5.6139321876348025E-01 a       349     0    24     1     4
 -9.5040055256020273E-01 a       350     0    24     1     5
  4.2647232921693534E-01 a       351     0    24     1     6
  1.8789737853256330E+00 a       352     0    24     1     7
  8.7100359400469440E-01 a       353     0    24     1     8
 -1.6073496612377405E+00 a       354     0    24     1     9
 -3.0566680751431863E-02 a       355     0    24     1    10
 -1.0094695099383857E+00 a       356     0    24     1    11
  4.6313965912883481E-01 a       357     0    24     1    12
  2.8523041727950753E+00 a       358     0    24     1    13
  5.0007844008333679E-01 a       359     0    24     1    14
  8.4958931485517242E-01 a       360     0    24     1    15
 -6.9958721143310154E-01 a       361     0    25     1     1
  1.3332970999557769E-01 a       362     0    25     1     2
 -1.2844646173792744E+00 a       363     0    25     1     3
  1.9913531797976458E+00 a       364     0    25     1     4
 -9.5487393916787351E-03 a       365     0    25     1     5
 -1.3001700309699873E+00 a       366     0    25     1     6
 -3.3493701362980666E-01 a       367     0    25     1     7
 -2.1147340158042433E-01 a       368     0    25     1     8
  2.4464132815816256E-01 a       369     0    25     1     9
  1.7575044153347011E-01 a       370     0    25     1    10
  4.7384804692111822E-02 a       371     0    25     1    11
  9.6152507777214657E-01 a       372     0    25     1    12
 -1.0291131109969129E+00 a       373     0    25     1    13
 -9.2971575343404689E-01 a       374     0    25     1    14
 -5.3553841760103771E-01 a       375     0    25     1    15
  1.5347073153682784E+00 a       376     0    26     1     1
  1.0547527648284034E+00 a       377     0    26     1     2
  3.6911212274054384E-01 a       378     0    26     1     3
 -7.6036594014565334E-02 a       379     0    26     1     4
 -3.4484630252182880E-01 a       380     0    26     1     5
  1.6838644414472165E-01 a       381     0    26     1     6
 -3.5327894904756157E-01 a       382     0    26     1     7
 -1.4189877841695139E-01 a       383     0    26     1     8
  1.2837945292297826E-02 a       384     0    26     1     9
  5.4402801047689797E-01 a       385     0    26     1    10
  8.3740392340141079E-01 a       386     0    26     1    11
 -1.4659459870326777E-02 a       387     0    26     1    12
  1.7096110193138718E+00 a       388     0    26     1    13
 -7.0601100406143291E-01 a       389     0    26     1    14
 -9.2782902867463457E-01 a       390     0    26     1    15
  6.2915027546663160E-01 a       391     0    27     1     1
  4.7069136785929155E-01 a       392     0    27     1     2
  7.6105144860599647E-02 a       393     0    27     1     3
  1.6639872849121933E+00 a       394     0    27     1     4
 -4.5521910818452727E-01 a       395     0    27     1     5
  2.0734657255674530E-01 a       396     0    27     1     6
  7.9646066403292848E-01 a       397     0    27     1     7
  1.4650879193749957E+00 a       398     0    27     1     8
 -5.3106385890401897E-01 a       399     0    27     1     9
 -1.8425135406396234E+00 a       400     0    27     1    10
 -1.3862240613290846E+00 a       401     0    27     1    11
 -1.9236463200694067E+00 a       402     0    27     1    12
 -3.1480011013193510E-01 a       403     0    27     1    13
  4.3861196446364237E-01 a       404     0    27     1    14
 -3.3543741297045320E+00 a       405     0    27     1    15
  7.9621002777388206E-01 a       406     0    28     1     1
  1.8665672663230634E-01 a       407     0    28     1     2
  6.6006429468736860E-01 a       408     0    28     1     3
 -1.8937003965204402E+00 a       409     0    28     1     4
  3.8576774831682044E-02 a       410     0    28     1     5
  3.9927087282493678E-01 a       411     0    28     1     6
  9.0296672611484785E-01 a       412     0    28     1     7
  3.1410672957451025E-01 a       413     0    28     1     8
 -9.4200085520430590E-02 a       414     0    28     1     9
  6.7738219411527179E-01 a       415     0    28     1    10
  1.0635403307312179E+00 a       416     0    28     1    11
 -6.5056652027587469E-01 a       417     0    28     1    12
  7.3117819458125310E-01 a       418     0    28     1    13
 -8.0320151928608266E-02 a       419     0    28     1    14
  9.6355261339050968E-01 a       420     0    28     1    15
  7.6064335798836979E-01 a       421     0    29     1     1
 -4.7262161262314079E-01 a       422     0    29     1     2
  1.3307403479012572E+00 a       423     0    29     1     3
  5.6023614508065933E-01 a       424     0    29     1     4
  9.6578527509873502E-01 a       425     0    29     1     5
  1.0823585811576208E+00 a       426     0    29     1     6
 -5.1763316089158395E-01 a       427     0    29     1     7
 -8.0777988213861651E-01 a       428     0    29     1     8
 -1.4258423515120144E+00 a       429     0    29     1     9
 -4.5638156048232992E-01 a       430     0    29     1    10
 -4.8713001587498772E-01 a       431     0    29     1    11
 -1.0489299725831012E+00 a       432     0    29     1    12
  7.7722275332700974E-01 a       433     0    29     1    13
  1.1409132119992117E-01 a       434     0    29     1    14
 -1.0388032358681440E+00 a       435     0    29     1    15
 -2.8854020028217473E+00 a       436     0    30     1     1
  2.1006614212446265E-01 a       437     0    30     1     2
 -2.0507892636955918E-02 a       438     0    30     1     3
 -1.2206213517136559E+00 a       439     0    30     1     4
  3.5431863256252327E-01 a       440     0    30     1     5
 -2.0425397045583588E-01 a       441     0    30     1     6
 -1.0939148870130967E-01 a       442     0    30     1     7
 -4.7855966313789111E-01 a       443     0    30     1     8
 -6.3087967694790881E-01 a       444     0    30     1     9
 -1.4987680128086645E-01 a       445     0    30     1    10
 -6.8018441750377767E-01 a       446     0    30     1    11
 -1.4940732473484844E-01 a       447     0    30     1    12
 -7.3377476830136845E-01 a       448     0    30     1    13
  2.9671237309988913E-01 a       449     0    30     1    14
 -5.9668998196952783E-01 a       450     0    30     1    15
 -9.3265236521821615E-01 b       451     1     1
 -1.4589855815178099E-01 b       452     1     2
  3.2489682760180438E-01 b       453     1     3
 -2.7424517408628196E-01 b       454     1     4
 -6.7227572248145318E-01 b       455     1     5
  5.9686293349122087E-02 b       456     1     6
  7.4474596212374788E-02 b       457     1     7
 -6.0827922747469698E-01 b       458     1     8
 -4.4077327789508519E-01 b       459     1     9
  1.3318971381775258E-01 b       460     1    10
 -3.2156112886669552E-01 b       461     1    11
 -1.1718069736718808E+00 b       462     1    12
 -7.1666825550180457E-01 b       463     1    13
 -7.9015234212258079E-01 b       464     1    14
 -1.6574798208814356E-01 b       465     1    15
  2.2455706786177272E+00 a       466     1     1     2     1
 -5.5540961808674705E-01 a       467     1     1     2     2
  1.7832427002634474E+00 a       468     1     1     2     3
  9.8345081015991972E-02 a       469     1     1     2     4
  5.1111214927926019E-01 a       470     1     1     2     5
  7.2285961726102918E-03 a       471     1     1     2     6
  1.5279980545332396E-02 a       472     1     1     2     7
 -3.8590947661088132E-01 a       473     1     1     2     8
 -6.7985069852508062E-01 a       474     1     1     2     9
 -1.7844045383221907E+00 a       475     1     1     2    10
 -7.4059220603405340E-01 a       476     1     1     2    11
 -8.2427953512602536E-01 a       477     1     1     2    12
  1.0048104633610346E+00 a       478     1     1     2    13
  2.9722178873164101E-01 a       479     1     1     2    14
 -1.6776281536146107E-01 a       480     1     1     2    15
  7.2752367466175061E-01 a       481     1     2     2     1
  2.9702348880648821E-01 a       482     1     2     2     2
  9.1611385607982054E-01 a       483     1     2     2     3
  2.0643921511891003E-01 a       484     1     2     2     4
  5.1589832063514429E-01 a       485     1     2     2     5
  2.8793021811125741E-01 a       486     1     2     2     6
 -7.7187244004306210E-01 a       487     1     2     2     7
 -9.6622598950238248E-01 a       488     1     2     2     8
  1.7907056740219998E+00 a       489     1     2     2     9
  8.3783059424171491E-01 a       490     1     2     2    10
 -3.1301237848844188E-01 a       491     1     2     2    11
  2.9511123385275662E-01 a       492     1     2     2    12
  5.2262062619637584E-01 a       493     1     2     2    13
 -1.4498677185846862E+00 a       494     1     2     2    14
 -4.8366790523392794E-01 a       495     1     2     2    15
  5.5721090859193878E-01 a       496     1     3     2     1
 -1.0129326871296895E+00 a       497     1     3     2     2
  3.5240011300171864E-01 a       498     1     3     2     3
  3.3262135118984298E-01 a       499     1     3     2     4
  1.2737492478070367E+00 a       500     1     3     2     5
 -1.9476495025764173E+00 a       501     1     3     2     6
  1.9898573366130573E-02 a       502     1     3     2     7
  4.8567605401565100E-01 a       503     1     3     2     8
 -7.6764914278913121E-01 a       504     1     3     2     9
 -4.5420737549313545E-01 a       505     1     3     2    10
 -5.0964022289938071E-01 a       506     1     3     2    11
 -9.8471384948841861E-02 a       507     1     3     2    12
 -4.4572949270980988E-01 a       508     1     3     2    13
 -2.8768133841109905E-01 a       509     1     3     2    14
  1.2313835584817232E+00 a       510     1     3     2    15
 -1.3025222820820999E+00 a       511     1     4     2     1
  7.7304116104876119E-01 a       512     1     4     2     2
  7.2620433608879720E-01 a       513     1     4     2     3
 -8.6956785874830439E-02 a       514     1     4     2     4
  4.0962141823291782E-02 a       515     1     4     2     5
  9.9223068138786019E-01 a       516     1     4     2     6
 -5.1681712960454362E-01 a       517     1     4     2     7
 -8.4556095961401456E-01 a       518     1     4     2     8
  4.7119669681439116E-02 a       519     1     4     2     9
 -1.7034215602571874E+00 a       520     1     4     2    10
  6.0284566476999108E-03 a       521     1     4     2    11
 -1.2954263421914491E+00 a       522     1     4     2    12
  3.4204869923727371E-01 a       523     1     4     2    13
  6.8857704534092193E-02 a       524     1     4     2    14
 -1.3663750677035231E+00 a       525     1     4     2    15
  6.6822269060582073E-01 a       526     1     5     2     1
  1.5327459397878876E-01 a       527     1     5     2     2
 -6.6061958962410705E-01 a       528     1     5     2     3
 -2.1621273387468403E+00 a       529     1     5     2     4
  2.0808784409408445E+00 a       530     1     5     2     5
  4.9075649931613208E-01 a       531     1     5     2     6
 -8.2997807154785919E-01 a       532     1     5     2     7
 -3.7237886448138613E-01 a       533     1     5     2     8
  1.8357639629605245E+00 a       534     1     5     2     9
 -2.3687797489554402E-01 a       535     1     5     2    10
 -5.7683805024122042E-02 a       536     1     5     2    11
 -7.6961853212643108E-02 a       537     1     5     2    12
 -1.7644151598601696E-01 a       538     1     5     2    13
  9.0928366393286086E-01 a       539     1     5     2    14
 -1.0472380095327756E+00 a       540     1     5     2    15
 -5.4494958556897510E-01 a       541     1     6     2     1
  6.5533528887217571E-02 a       542     1     6     2     2
  7.0744563708893082E-01 a       543     1     6     2     3
 -1.7327458093773200E+00 a       544     1     6     2     4
 -1.0830256352586112E+00 a       545     1     6     2     5
 -5.0804772355951378E-01 a       546     1     6     2     6
 -9.5828451435373319E-01 a       547     1     6     2     7
 -7.8205141497536580E-03 a       548     1     6     2     8
 -3.6745394190183628E-01 a       549     1     6     2     9
 -1.9201838878949035E-01 a       550     1     6     2    10
  3.6331567792003266E-01 a       551     1     6     2    11
  5.6477640511704874E-01 a       552     1     6     2    12
 -4.7542571841502501E-01 a       553     1     6     2    13
  1.6295486874492138E-01 a       554     1     6     2    14
 -1.0335046187599419E-03 a       555     1     6     2    15
  2.1398021344800342E+00 a       556     1     7     2     1
 -3.4782508063567974E-02 a       557     1     7     2     2
  1.2943433134397437E-02 a       558     1     7     2     3
  7.0968808658347649E-02 a       559     1     7     2     4
  2.3811863191933724E-01 a       560     1     7     2     5
  4.9945826319965131E-01 a       561     1     7     2     6
  1.1360290424717623E+00 a       562     1     7     2     7
  2.8356018334627775E-01 a       563     1     7     2     8
 -1.8783813280372896E+00 a       564     1     7     2     9
 -4.2858234186259897E-01 a       565     1     7     2    10
  5.6123451233414938E-02 a       566     1     7     2    11
  1.1978154604929703E+00 a       567     1     7     2    12
  5.3228998284399165E-01 a       568     1     7     2    13
 -3.1049784073214709E-01 a       569     1     7     2    14
 -1.8439580804986061E-01 a       570     1     7     2    15
  8.9599968934661056E-01 a       571     1     8     2     1
  1.4972929608132818E-01 a       572     1     8     2     2
 -2.8971849466207522E-01 a       573     1     8     2     3
  1.4696871753775209E+00 a       574     1     8     2     4
  4.8485926361833920E-01 a       575     1     8     2     5
  5.6163745909679696E-01 a       576     1     8     2     6
  2.9474378167487675E-01 a       577     1     8     2     7
  3.7795484284436731E-01 a       578     1     8     2     8
 -3.3377052079192315E-01 a       579     1     8     2     9
  9.8904115409630433E-01 a       580     1     8     2    10
 -9.8325995385852727E-01 a       581     1     8     2    11
  6.8029612961026664E-01 a       582     1     8     2    12
 -1.1204744139916774E+00 a       583     1     8     2    13
  1.1432091646561766E+00 a       584     1     8     2    14
 -1.8923737151635389E-01 a       585     1     8     2    15
 -1.9529540987416119E+00 a       586     1     9     2     1
 -5.5394686077546873E-01 a       587     1     9     2     2
 -8.2787762605094894E-01 a       588     1     9     2     3
  3.0288216004253404E-01 a       589     1     9     2     4
 -3.1227428705268523E-01 a       590     1     9     2     5
 -1.3070035051407616E+00 a       591     1     9     2     6
  6.2197348091435067E-02 a       592     1     9     2     7
  5.2084712569874836E-01 a       593     1     9     2     8
  1.0515231718649170E+00 a       594     1     9     2     9
  3.6833634868910853E-01 a       595     1     9     2    10
  8.7683199086891081E-02 a       596     1     9     2    11
  8.4447487061223359E-01 a       597     1     9     2    12
  1.9857136383477691E-02 a       598     1     9     2    13
 -1.1802988561676386E+00 a       599     1     9     2    14
  1.8809044996708268E+00 a       600     1     9     2    15
  2.2161644403778076E+00 a       601     1    10     2     1
 -7.1106157563390893E-01 a       602     1    10     2     2
 -7.0435727794041592E-01 a       603     1    10     2     3
  1.3854939437604213E-01 a       604     1    10     2     4
 -3.6010100449256816E-01 a       605     1    10     2     5
  5.1064961685500165E-01 a       606     1    10     2     6
 -6.8391741556148178E-01 a       607     1    10     2     7
  1.8428881961466570E+00 a       608     1    10     2     8
 -3.2313839541480743E-01 a       609     1    10     2     9
 -8.7345632890952229E-01 a       610     1    10     2    10
 -2.1529267977521488E-01 a       611     1    10     2    11
  1.4675990314968811E-02 a       612     1    10     2    12
 -7.9677608108448983E-01 a       613     1    10     2    13
  1.4858050512758222E-01 a       614     1    10     2    14
  1.1179177968188978E+00 a       615     1    10     2    15
  1.5545482421121701E+00 a       616     1    11     2     1
  3.9233574827631784E-01 a       617     1    11     2     2
  9.7848745050506014E-01 a       618     1    11     2     3
 -3.8239063116091110E-01 a       619     1    11     2     4
 -3.9957249278208201E-01 a       620     1    11     2     5
 -4.1738287203321844E-01 a       621     1    11     2     6
 -9.7607445496528289E-01 a       622     1    11     2     7
 -2.7461855533438342E-03 a       623     1    11     2     8
  1.1595101201252918E+00 a       624     1    11     2     9
 -4.6264163272791270E-01 a       625     1    11     2    10
 -3.5470257771481251E-01 a       626     1    11     2    11
 -2.7821066942821121E-01 a       627     1    11     2    12
  6.4318495920140006E-01 a       628     1    11     2    13
 -6.5743992697053133E-01 a       629     1    11     2    14
 -8.1011114703655684E-02 a       630     1    11     2    15
  1.3306941970511379E+00 a       631     1    12     2     1
 -2.0430503113480156E-01 a       632     1    12     2     2
 -4.9029096103174225E-01 a       633     1    12     2     3
  1.5567305652496602E-01 a       634     1    12     2     4
 -1.1841659409116203E+00 a       635     1    12     2     5
  1.1810732994226494E+00 a       636     1    12     2     6
  3.8851619468983839E-01 a       637     1    12     2     7
  2.1885649158454910E+00 a       638     1    12     2     8
 -2.8197361555271971E-01 a       639     1    12     2     9
  1.7027066956964412E+00 a       640     1    12     2    10
 -1.3071390895328796E-02 a       641     1    12     2    11
  7.7893141047305747E-01 a       642     1    12     2    12
 -7.1087151734728504E-01 a       643     1    12     2    13
  5.0910978320518951E-01 a       644     1    12     2    14
  5.5996230632648070E-01 a       645     1    12     2    15
 -4.2116026151061353E-01 a       646     1    13     2     1
 -7.1298909535259880E-01 a       647     1    13     2     2
  1.3465373218024840E-01 a       648     1    13     2     3
  6.5211208623676875E-01 a       649     1    13     2     4
  1.6625922306491006E+00 a       650     1    13     2     5
 -7.5392884172155050E-01 a       651     1    13     2     6
  1.2147462568899536E+00 a       652     1    13     2     7
 -3.3045997325611470E-01 a       653     1    13     2     8
 -5.4236965933973236E-01 a       654     1    13     2     9
  3.0645136971477707E-02 a       655     1    13     2    10
 -1.2087571859169506E+00 a       656     1    13     2    11
  1.1951033892981895E+00 a       657     1    13     2    12
 -1.8281068608341400E+00 a       658     1    13     2    13
 -1.2211266506812211E+00 a       659     1    13     2    14
  1.4531731673864665E+00 a       660     1    13     2    15
 -1.6127431263628911E-01 a       661     1    14     2     1
 -1.5011936659279475E+00 a       662     1    14     2     2
 -6.9741767621933548E-01 a       663     1    14     2     3
  5.3939265475454390E-01 a       664     1    14     2     4
  6.3833895921137862E-01 a       665     1    14     2     5
  1.9542323813057467E+00 a       666     1    14     2     6
  2.5418425782027184E-02 a       667     1    14     2     7
 -1.8711416510118970E+00 a       668     1    14     2     8
  1.3773295849522557E-01 a       669     1    14     2     9
 -1.3431273912792014E+00 a       670     1    14     2    10
 -5.2734342880080864E-01 a       671     1    14     2    11
 -1.9727881911711193E-01 a       672     1    14     2    12
 -2.6266082378044320E-01 a       673     1    14     2    13
  1.3340016240491914E+00 a       674     1    14     2    14
 -5.0056127338284784E-01 a       675     1    14     2    15
  2.6062486644268645E-01 a       676     1    15     2     1
  2.9019972806191946E-01 a       677     1    15     2     2
  6.5701163474957483E-02 a       678     1    15     2     3
 -2.4956856030069369E-01 a       679     1    15     2     4
  6.6940436910331058E-01 a       680     1    15     2     5
  2.0338143708242504E+00 a       681     1    15     2     6
  1.4506818854974266E+00 a       682     1    15     2     7
  1.7241870491079740E+00 a       683     1    15     2     8
  1.1131005653846045E-01 a       684     1    15     2     9
 -3.1594084016230893E-02 a       685     1    15     2    10
  1.1015299676002637E+00 a       686     1    15     2    11
  2.4192188925521085E+00 a       687     1    15     2    12
  3.8885192251429765E-02 a       688     1    15     2    13
 -1.8929417871364357E-01 a       689     1    15     2    14
 -1.1918811864032726E+00 a       690     1    15     2    15
  3.4024377755150617E-02 b       691     2     1
  6.5234049707572503E-02 b       692     2     2
 -6.6671051655022306E-01 b       693     2     3
 -6.1258998086714322E-01 b       694     2     4
  2.8505369716904977E-01 b       695     2     5
  8.9969209239770143E-01 b       696     2     6
 -9.8738697980854562E-01 b       697     2     7
  7.1154742960942263E-01 b       698     2     8
  1.7996644538002318E-01 b       699     2     9
  7.2878793439230849E-01 b       700     2    10
  1.5565119884021048E-01 b       701     2    11
  9.1245342438495081E-01 b       702     2    12
  2.4089919147882877E-01 b       703     2    13
 -4.4891386608422973E-01 b       704     2    14
 -8.6906233116625320E-01 b       705     2    15
  4.1590716543120237E-01 a       706     2     1     3     1
  4.5716590666909251E-01 a       707     2     2     3     1
  1.9660007026461068E-01 a       708     2     3     3     1
 -7.4840506273708873E-01 a       709     2     4     3     1
 -2.3346046596287371E+00 a       710     2     5     3     1
 -1.2412977375489416E+00 a       711     2     6     3     1
 -2.0560664924728571E+00 a       712     2     7     3     1
 -9.1305796701426967E-01 a       713     2     8     3     1
 -2.3077805549816621E+00 a       714     2     9     3     1
 -5.2732063222101655E-01 a       715     2    10     3     1
  1.3824469660665977E+00 a       716     2    11     3     1
 -5.5968229236230171E-01 a       717     2    12     3     1
  1.0263712905717719E+00 a       718     2    13     3     1
 -2.1986369165563580E+00 a       719     2    14     3     1
 -2.7566366745481286E-01 a       720     2    15     3     1
  1.7834427038603859E+00 b       721     3     1
