################################################################################
# Neural network connection values (weights and biases).
################################################################################
# Col  Name       Description
################################################################################
# 1    connection Neural network connection value.
# 2    t          Connection type (a = weight, b = bias).
# 3    index      Index enumerating weights.
# 4    l_s        Starting point layer (end point layer for biases).
# 5    n_s        Starting point neuron in starting layer (end point neuron for biases).
# 6    l_e        End point layer.
# 7    n_e        End point neuron in end layer.
################################################################################
#                      1 2         3     4     5     6     7
#             connection t     index   l_s   n_s   l_e   n_e
############################################################
 -6.7598270256420540E-02 a         1     0     1     1     1
  4.0407842843663816E-01 a         2     0     1     1     2
  7.7990952706010003E-02 a         3     0     1     1     3
 -1.2252969548482472E-01 a         4     0     1     1     4
  5.6007580084598318E-01 a         5     0     1     1     5
 -1.6544720139103022E-01 a         6     0     1     1     6
 -8.6930689450465226E-02 a         7     0     1     1     7
 -6.2336825873316548E-01 a         8     0     1     1     8
 -1.2228299986201660E-01 a         9     0     1     1     9
  4.5684168797461994E-01 a        10     0     1     1    10
 -1.9663874284328459E-01 a        11     0     1     1    11
 -1.0656656347611447E-01 a        12     0     1     1    12
  6.8247538772764760E-01 a        13     0     1     1    13
  2.9241667463643750E-01 a        14     0     1     1    14
 -8.6972861752982555E-01 a        15     0     1     1    15
 -4.5434171970654968E-01 a        16     0     2     1     1
 -4.7848574741122357E-01 a        17     0     2     1     2
 -9.6423296201223863E-01 a        18     0     2     1     3
  9.6286337337283068E-01 a        19     0     2     1     4
 -7.1602084943739108E-01 a        20     0     2     1     5
  9.9652145415047400E-01 a        21     0     2     1     6
 -3.3949058301198315E-01 a        22     0     2     1     7
  4.8250045213592441E-01 a        23     0     2     1     8
 -3.4865059977650575E-01 a        24     0     2     1     9
 -6.1043884479493227E-01 a        25     0     2     1    10
 -1.3707318766651852E-01 a        26     0     2     1    11
 -1.5654642473595828E-01 a        27     0     2     1    12
 -2.9031764939063714E-01 a        28     0     2     1    13
  2.4088198856096837E-01 a        29     0     2     1    14
  7.2505858477306073E-01 a        30     0     2     1    15
 -3.4482105986794909E-02 a        31     0     3     1     1
  5.6503719357904124E-02 a        32     0     3     1     2
  3.3636699933121961E-03 a        33     0     3     1     3
 -4.6361166346107496E-01 a        34     0     3     1     4
 -3.1864411706348816E-01 a        35     0     3     1     5
  1.8388160271829151E-01 a        36     0     3     1     6
  1.4145657691147573E+00 a        37     0     3     1     7
  1.3858967961602358E+00 a        38     0     3     1     8
  2.7805726244339173E-02 a        39     0     3     1     9
 -1.0111336351984694E-01 a        40     0     3     1    10
  7.6634718888365361E-01 a        41     0     3     1    11
 -1.8126756223741888E-01 a        42     0     3     1    12
 -5.6030046286674096E-01 a        43     0     3     1    13
 -2.3580050259254923E-01 a        44     0     3     1    14
  1.1534889661026007E+00 a        45     0     3     1    15
  1.1569025765078544E+00 a        46     0     4     1     1
 -4.0975560399210781E-01 a        47     0     4     1     2
  2.0582384428027369E+00 a        48     0     4     1     3
 -1.1433878664188988E+00 a        49     0     4     1     4
  1.5360369161776777E-01 a        50     0     4     1     5
 -1.8494081224215868E+00 a        51     0     4     1     6
 -6.7213251184964906E-01 a        52     0     4     1     7
 -1.1552884921114237E+00 a        53     0     4     1     8
  7.1563303659701039E-02 a        54     0     4     1     9
  8.9651545934672050E-01 a        55     0     4     1    10
 -2.8556169105998907E-02 a        56     0     4     1    11
  6.4468468159977743E-01 a        57     0     4     1    12
 -8.1873447180071646E-01 a        58     0     4     1    13
 -6.5368353836569271E-01 a        59     0     4     1    14
 -8.2185564271861189E-02 a        60     0     4     1    15
  3.6590571774916791E-01 a        61     0     5     1     1
  4.4324613646563343E-01 a        62     0     5     1     2
 -3.0794480643633143E-01 a        63     0     5     1     3
  7.0349277564992241E-01 a        64     0     5     1     4
  1.7242200669221791E-01 a        65     0     5     1     5
  3.7587870762911157E-01 a        66     0     5     1     6
 -1.0583594424321741E+00 a        67     0     5     1     7
 -1.9301335942798292E+00 a        68     0     5     1     8
  5.7222724879865960E-01 a        69     0     5     1     9
  2.3584884024170993E-01 a        70     0     5     1    10
 -1.4835048326134570E+00 a        71     0     5     1    11
  2.4164704953224794E-01 a        72     0     5     1    12
  3.7303502601404842E-01 a        73     0     5     1    13
  7.3030053837049802E-01 a        74     0     5     1    14
 -7.2081226240115692E-01 a        75     0     5     1    15
 -1.3899056824501232E+00 a        76     0     6     1     1
  8.4522816195383021E-01 a        77     0     6     1     2
 -2.2872452055200889E+00 a        78     0     6     1     3
  5.3159988356923593E-01 a        79     0     6     1     4
  6.2444278602766712E-01 a        80     0     6     1     5
  1.1349923310910044E+00 a        81     0     6     1     6
  5.8422393471830258E-01 a        82     0     6     1     7
  1.9035474974390594E+00 a        83     0     6     1     8
  1.4131313602679498E+00 a        84     0     6     1     9
 -1.8744635917896906E+00 a        85     0     6     1    10
  4.4419994206397090E-01 a        86     0     6     1    11
 -2.7630279272924790E-01 a        87     0     6     1    12
  2.0109816572147956E+00 a        88     0     6     1    13
 -4.1017713188354704E-01 a        89     0     6     1    14
 -1.7737375459083977E+00 a        90     0     6     1    15
 -5.7352669596778250E-01 a        91     0     7     1     1
 -5.7817523823681327E-01 a        92     0     7     1     2
  2.5751510997950544E-01 a        93     0     7     1     3
 -7.5887697983580563E-03 a        94     0     7     1     4
  5.1894342761454637E-01 a        95     0     7     1     5
 -4.2177166184634834E-01 a        96     0     7     1     6
  1.9552282459223200E-01 a        97     0     7     1     7
  1.7399577685141874E+00 a        98     0     7     1     8
 -1.1742176159271944E+00 a        99     0     7     1     9
  1.8902315997468506E-02 a       100     0     7     1    10
  2.1193949306146962E+00 a       101     0     7     1    11
 -2.8746318834174134E-01 a       102     0     7     1    12
 -4.7581205596831128E-01 a       103     0     7     1    13
 -8.0164238718868697E-01 a       104     0     7     1    14
  6.2537893302134129E-01 a       105     0     7     1    15
  1.0130489286469169E+00 a       106     0     8     1     1
 -7.1788913820213451E-01 a       107     0     8     1     2
  1.5692683328902857E+00 a       108     0     8     1     3
  2.0719651808216435E-01 a       109     0     8     1     4
 -2.2272752956094866E-01 a       110     0     8     1     5
 -1.0379072336183972E+00 a       111     0     8     1     6
 -1.6926009515632490E-01 a       112     0     8     1     7
 -1.9322212610945111E+00 a       113     0     8     1     8
 -2.2302261583907455E+00 a       114     0     8     1     9
  1.6069318283634872E+00 a       115     0     8     1    10
 -5.6719742351457669E-01 a       116     0     8     1    11
 -3.0273636727410591E-01 a       117     0     8     1    12
 -2.4157640780916538E+00 a       118     0     8     1    13
  8.6878419966231424E-01 a       119     0     8     1    14
  2.4468431636640040E+00 a       120     0     8     1    15
 -6.1386319559784286E-01 a       121     0     9     1     1
  7.4996279986891956E-02 a       122     0     9     1     2
 -9.5024484299340672E-01 a       123     0     9     1     3
 -9.2472447361129329E-01 a       124     0     9     1     4
  6.1170909948901087E-01 a       125     0     9     1     5
  3.3378055685593738E-01 a       126     0     9     1     6
  1.3842577863593583E-01 a       127     0     9     1     7
  9.3658480136881883E-01 a       128     0     9     1     8
  2.0454986473091563E+00 a       129     0     9     1     9
 -1.6044612567203669E+00 a       130     0     9     1    10
  4.1355194574878695E-01 a       131     0     9     1    11
 -2.7784265201126696E-01 a       132     0     9     1    12
  1.7557104568157837E+00 a       133     0     9     1    13
 -1.1584619021206188E+00 a       134     0     9     1    14
 -2.1424022881122906E+00 a       135     0     9     1    15
  2.9285484786506538E-01 a       136     0    10     1     1
  9.6767271437810332E-02 a       137     0    10     1     2
  4.3589800062534928E-01 a       138     0    10     1     3
 -3.5296731024632177E-01 a       139     0    10     1     4
 -6.9061427750314242E-01 a       140     0    10     1     5
  7.5596097151828667E-01 a       141     0    10     1     6
  3.3873331078231755E-01 a       142     0    10     1     7
 -5.9751848044687916E-01 a       143     0    10     1     8
  9.8384593016908206E-01 a       144     0    10     1     9
 -2.1577308266909781E-01 a       145     0    10     1    10
 -1.3138386648329425E+00 a       146     0    10     1    11
  2.5153042914442414E-01 a       147     0    10     1    12
  5.0718304277094983E-01 a       148     0    10     1    13
  3.2611748758690712E-01 a       149     0    10     1    14
 -5.4629303467227934E-02 a       150     0    10     1    15
  7.9968362373499002E-01 a       151     0    11     1     1
  1.3637879472228109E+00 a       152     0    11     1     2
 -1.4569234929947619E+00 a       153     0    11     1     3
  8.1976308021397648E-01 a       154     0    11     1     4
  7.2926052592189861E-01 a       155     0    11     1     5
 -4.4823480658309487E+00 a       156     0    11     1     6
  2.2841775016487886E-01 a       157     0    11     1     7
 -9.6075815023441558E-01 a       158     0    11     1     8
 -1.3971888505987065E+00 a       159     0    11     1     9
  1.0239848807043208E+00 a       160     0    11     1    10
 -3.7359343797349243E-01 a       161     0    11     1    11
  8.5323421953775103E-01 a       162     0    11     1    12
 -2.1571317044551370E+00 a       163     0    11     1    13
  6.2681858335504159E-01 a       164     0    11     1    14
  9.0545508321715651E-01 a       165     0    11     1    15
 -5.7137358111595260E-02 a       166     0    12     1     1
  3.8054087402185632E-01 a       167     0    12     1     2
 -6.6800644399880649E-01 a       168     0    12     1     3
  9.6412338175854664E-02 a       169     0    12     1     4
 -3.9784027809136160E-02 a       170     0    12     1     5
 -2.9198322050253489E-01 a       171     0    12     1     6
 -3.0944576456222095E-01 a       172     0    12     1     7
  1.6532928820707773E-01 a       173     0    12     1     8
 -3.9460927492363429E-01 a       174     0    12     1     9
  9.2847190209422659E-01 a       175     0    12     1    10
  4.1450890648914063E-01 a       176     0    12     1    11
  5.0739204662621190E-02 a       177     0    12     1    12
  5.9438625692217972E-02 a       178     0    12     1    13
  3.2150936988329648E-01 a       179     0    12     1    14
 -1.8667228628055085E-01 a       180     0    12     1    15
 -8.5038557466039921E-01 a       181     0    13     1     1
 -1.9551295482138500E+00 a       182     0    13     1     2
  1.4698238741399474E+00 a       183     0    13     1     3
 -1.7479504576580834E-01 a       184     0    13     1     4
 -1.1677512344153145E+00 a       185     0    13     1     5
  4.8428811657187900E+00 a       186     0    13     1     6
 -7.3595184161324056E-01 a       187     0    13     1     7
  4.9169874194776209E-01 a       188     0    13     1     8
  1.1745089344970363E+00 a       189     0    13     1     9
 -1.1584471408913064E+00 a       190     0    13     1    10
  1.1281913324921786E+00 a       191     0    13     1    11
  2.8616267825255892E-01 a       192     0    13     1    12
  1.4920808087885962E+00 a       193     0    13     1    13
 -2.7460229940832470E-01 a       194     0    13     1    14
 -5.3209699185043569E-01 a       195     0    13     1    15
  6.9015640892799629E-02 a       196     0    14     1     1
  5.3360115764866635E-02 a       197     0    14     1     2
  1.2321840856033361E-01 a       198     0    14     1     3
  3.3992438363574090E-01 a       199     0    14     1     4
  3.6086060135569997E-01 a       200     0    14     1     5
  5.4442581302727708E-02 a       201     0    14     1     6
  6.9357757184304425E-01 a       202     0    14     1     7
 -2.2818601653646930E-01 a       203     0    14     1     8
  2.9730005882187194E-01 a       204     0    14     1     9
 -3.3221364621752714E-01 a       205     0    14     1    10
 -4.1981007440532753E-01 a       206     0    14     1    11
  3.4649096380984362E-01 a       207     0    14     1    12
 -1.2455499244847996E-01 a       208     0    14     1    13
 -3.3606759483698800E-01 a       209     0    14     1    14
  1.1490497309972766E-01 a       210     0    14     1    15
  9.4281593452269752E-01 a       211     0    15     1     1
  5.6522835354553347E-01 a       212     0    15     1     2
 -5.3056051996485309E-01 a       213     0    15     1     3
  2.4035622939421269E-01 a       214     0    15     1     4
 -2.0732507565085556E-01 a       215     0    15     1     5
 -9.2850661330544926E-01 a       216     0    15     1     6
  1.1886449861774979E-01 a       217     0    15     1     7
 -1.1190504393013002E-01 a       218     0    15     1     8
 -4.0986320638583540E-01 a       219     0    15     1     9
  8.9757804888226572E-02 a       220     0    15     1    10
 -1.1996193307576185E-01 a       221     0    15     1    11
  2.5520052940144722E-01 a       222     0    15     1    12
  5.9450313406650163E-02 a       223     0    15     1    13
  1.4170024229477246E-01 a       224     0    15     1    14
  2.7320371319932324E-01 a       225     0    15     1    15
  6.2842901081800731E-03 a       226     0    16     1     1
 -3.1988945825642490E-02 a       227     0    16     1     2
 -1.3672093042942227E-01 a       228     0    16     1     3
  4.9670125444130755E-02 a       229     0    16     1     4
 -5.3425086754958773E-01 a       230     0    16     1     5
  1.3416577582892475E-01 a       231     0    16     1     6
 -1.6347715982515754E-01 a       232     0    16     1     7
  7.2770146459714094E-02 a       233     0    16     1     8
 -5.1409830352192397E-02 a       234     0    16     1     9
  5.4854424345957487E-01 a       235     0    16     1    10
 -1.9122708792153589E-01 a       236     0    16     1    11
 -5.9606551925382611E-02 a       237     0    16     1    12
  4.9703100541103933E-02 a       238     0    16     1    13
  3.2445850591879200E-01 a       239     0    16     1    14
  1.5618136546412170E-01 a       240     0    16     1    15
  4.6930827434143403E-02 a       241     0    17     1     1
  1.1267824250201215E-01 a       242     0    17     1     2
 -3.9259535022652670E-02 a       243     0    17     1     3
  2.3942007573166008E-01 a       244     0    17     1     4
  3.3606909630720591E-02 a       245     0    17     1     5
  9.0970419878868683E-02 a       246     0    17     1     6
 -5.5887551624125474E-02 a       247     0    17     1     7
  4.7664004894218931E-02 a       248     0    17     1     8
  1.1653970404605458E-01 a       249     0    17     1     9
  6.1291218670272957E-02 a       250     0    17     1    10
 -9.2054712618171337E-03 a       251     0    17     1    11
  6.0551635868741911E-02 a       252     0    17     1    12
 -8.3587400356054775E-02 a       253     0    17     1    13
 -1.1442207773435881E-02 a       254     0    17     1    14
  1.0187738466655492E-01 a       255     0    17     1    15
  3.5818970671176956E-03 a       256     0    18     1     1
 -4.7770467705420490E-02 a       257     0    18     1     2
 -1.5283761951681568E-02 a       258     0    18     1     3
  1.5727343244045996E-01 a       259     0    18     1     4
  2.7049886897234737E-01 a       260     0    18     1     5
 -1.5865841221252740E-02 a       261     0    18     1     6
 -1.6252292091918680E-01 a       262     0    18     1     7
 -5.2546839996379306E-04 a       263     0    18     1     8
  1.2049298340595534E-01 a       264     0    18     1     9
 -1.7276525607545212E-01 a       265     0    18     1    10
  1.4744377335609385E-02 a       266     0    18     1    11
 -6.0304589754656510E-02 a       267     0    18     1    12
 -1.1733729051930097E-01 a       268     0    18     1    13
 -1.1994589793393659E-01 a       269     0    18     1    14
  1.7053745039056303E-01 a       270     0    18     1    15
 -1.9749215319911990E-02 a       271     0    19     1     1
 -3.1194779174519273E-02 a       272     0    19     1     2
 -1.1193698019344387E-02 a       273     0    19     1     3
  7.5924081889198400E-02 a       274     0    19     1     4
  1.4056110202850067E-01 a       275     0    19     1     5
 -1.1188473543592678E-01 a       276     0    19     1     6
  1.3817161433458050E-02 a       277     0    19     1     7
  5.5544110148349153E-02 a       278     0    19     1     8
 -8.6616794657085994E-02 a       279     0    19     1     9
  2.8445612656895655E-02 a       280     0    19     1    10
  5.1015121460031058E-02 a       281     0    19     1    11
 -2.9474980065904873E-02 a       282     0    19     1    12
 -7.4617733823375432E-03 a       283     0    19     1    13
 -8.1623988464847391E-02 a       284     0    19     1    14
 -2.4267979544542698E-02 a       285     0    19     1    15
  6.1700361174622442E-03 a       286     0    20     1     1
 -7.7596677618592347E-02 a       287     0    20     1     2
  1.1218294289106034E-01 a       288     0    20     1     3
 -8.0956938704906667E-01 a       289     0    20     1     4
 -8.6567472168409687E-01 a       290     0    20     1     5
  6.1405347967458238E-02 a       291     0    20     1     6
  3.6131722949918854E-01 a       292     0    20     1     7
 -2.6005591906728194E-02 a       293     0    20     1     8
 -3.0705796930364060E-01 a       294     0    20     1     9
  2.8306817595309142E-01 a       295     0    20     1    10
 -1.0598682475138115E-01 a       296     0    20     1    11
  1.7873970462610830E-01 a       297     0    20     1    12
  3.9130986103353560E-01 a       298     0    20     1    13
  3.6419540336496348E-01 a       299     0    20     1    14
 -4.2267498234099948E-01 a       300     0    20     1    15
  1.7655813422820094E-01 a       301     0    21     1     1
 -4.4730233475473735E-01 a       302     0    21     1     2
 -8.8567498704528669E-01 a       303     0    21     1     3
 -5.7314709160762678E-01 a       304     0    21     1     4
  8.4973853611053796E-03 a       305     0    21     1     5
 -1.7316996566907081E-01 a       306     0    21     1     6
  8.2900099613983980E-02 a       307     0    21     1     7
 -4.7244911966427555E-01 a       308     0    21     1     8
  1.4125749613824384E-01 a       309     0    21     1     9
 -1.2828220052255951E-01 a       310     0    21     1    10
 -2.8837611876310992E-01 a       311     0    21     1    11
 -1.2812475846307134E-01 a       312     0    21     1    12
 -3.2421609551841113E-01 a       313     0    21     1    13
  9.3208305341844544E-02 a       314     0    21     1    14
  6.9091660719504144E-01 a       315     0    21     1    15
 -3.7739235537392203E-02 a       316     0    22     1     1
 -4.3420870545571415E-03 a       317     0    22     1     2
  3.6486160732289463E-01 a       318     0    22     1     3
 -4.1789009302478754E-03 a       319     0    22     1     4
 -5.2207592562070781E-01 a       320     0    22     1     5
  3.6048125722686780E-01 a       321     0    22     1     6
 -3.9355601386944661E-01 a       322     0    22     1     7
  3.8561544180215690E-01 a       323     0    22     1     8
  2.7724359406623011E-01 a       324     0    22     1     9
  6.3146670557552187E-02 a       325     0    22     1    10
 -2.8181398834418521E-03 a       326     0    22     1    11
  5.0429898960216601E-01 a       327     0    22     1    12
  1.9957936087680589E-01 a       328     0    22     1    13
  2.2505660386184435E-02 a       329     0    22     1    14
 -5.3270562342531476E-02 a       330     0    22     1    15
 -1.4044229092650606E-01 a       331     0    23     1     1
  5.3502558219222496E-01 a       332     0    23     1     2
  3.4490640397804689E-01 a       333     0    23     1     3
  5.4713272339564167E-01 a       334     0    23     1     4
  5.6039631114365185E-01 a       335     0    23     1     5
 -4.8244465947154680E-01 a       336     0    23     1     6
 -1.8662273739748536E-01 a       337     0    23     1     7
  2.9641591040252208E-01 a       338     0    23     1     8
  5.8594969938165070E-02 a       339     0    23     1     9
 -6.3013913386010076E-02 a       340     0    23     1    10
  3.2897904185169197E-01 a       341     0    23     1    11
 -1.5157600772554317E-01 a       342     0    23     1    12
  5.0015388936587787E-02 a       343     0    23     1    13
 -3.5814080510972995E-01 a       344     0    23     1    14
 -7.3425997142474597E-01 a       345     0    23     1    15
  2.4780561520167246E-02 a       346     0    24     1     1
 -2.0945961385400079E-02 a       347     0    24     1     2
 -4.4632872156817119E-02 a       348     0    24     1     3
  1.2213085579787133E-01 a       349     0    24     1     4
 -6.5079891145158109E-02 a       350     0    24     1     5
  1.9007062914019834E-01 a       351     0    24     1     6
  8.2523979617307647E-02 a       352     0    24     1     7
 -1.0070048624644715E-01 a       353     0    24     1     8
 -8.7056233236780661E-02 a       354     0    24     1     9
  1.0363935831902192E-01 a       355     0    24     1    10
 -4.6138102155767149E-02 a       356     0    24     1    11
 -5.8979062881261528E-02 a       357     0    24     1    12
 -8.8497467063640020E-02 a       358     0    24     1    13
  1.1623950816884795E-01 a       359     0    24     1    14
  2.0413795409097921E-01 a       360     0    24     1    15
 -8.2798234765972631E-02 a       361     0    25     1     1
  1.8130395632026816E-01 a       362     0    25     1     2
  9.7174734199581836E-01 a       363     0    25     1     3
  2.8384436198217183E-01 a       364     0    25     1     4
  2.4029159898842398E-01 a       365     0    25     1     5
  1.0738953352701075E-01 a       366     0    25     1     6
  6.9104269153617684E-02 a       367     0    25     1     7
  2.3693597209732936E-01 a       368     0    25     1     8
 -1.9419451070315485E-01 a       369     0    25     1     9
 -3.4976454035663379E-01 a       370     0    25     1    10
  2.9419246821280648E-01 a       371     0    25     1    11
 -2.8385168192464055E-01 a       372     0    25     1    12
  1.7745186763455348E-01 a       373     0    25     1    13
 -2.2643723299394353E-01 a       374     0    25     1    14
 -5.5785071466169156E-01 a       375     0    25     1    15
  1.0964141960205050E-01 a       376     0    26     1     1
 -4.3267220919310018E-01 a       377     0    26     1     2
 -2.6417789460579899E-01 a       378     0    26     1     3
  1.4873990274460647E-01 a       379     0    26     1     4
 -9.5430613221359054E-02 a       380     0    26     1     5
  1.7122835255570171E-01 a       381     0    26     1     6
 -3.2554166279100916E-01 a       382     0    26     1     7
 -6.1557666000979352E-02 a       383     0    26     1     8
  9.3118967476985781E-02 a       384     0    26     1     9
 -1.2024103022618689E-01 a       385     0    26     1    10
 -1.3247129548491987E-01 a       386     0    26     1    11
  1.7935080855619881E-01 a       387     0    26     1    12
 -1.6105798309287125E-01 a       388     0    26     1    13
 -4.2590004242442801E-03 a       389     0    26     1    14
  6.2083550575103252E-01 a       390     0    26     1    15
  1.0700404477879807E-02 a       391     0    27     1     1
  1.8559333703155065E-01 a       392     0    27     1     2
 -1.3803284988314826E-01 a       393     0    27     1     3
 -8.9469976770683757E-01 a       394     0    27     1     4
 -5.3283413156342871E-02 a       395     0    27     1     5
 -2.3481109355399132E-01 a       396     0    27     1     6
  2.6275058735427936E-01 a       397     0    27     1     7
  2.8190197972810083E-01 a       398     0    27     1     8
  9.6408209594423228E-02 a       399     0    27     1     9
 -1.0422164372181847E-01 a       400     0    27     1    10
  1.0837639766282704E-01 a       401     0    27     1    11
 -1.2474816021438202E-01 a       402     0    27     1    12
  6.2499585218585958E-02 a       403     0    27     1    13
 -1.9553764890335745E-01 a       404     0    27     1    14
 -3.2252230904419549E-01 a       405     0    27     1    15
 -1.0443015081866650E-01 a       406     0    28     1     1
  5.2713495927077314E-01 a       407     0    28     1     2
 -2.0542734205427088E-01 a       408     0    28     1     3
  3.6042429225331840E-01 a       409     0    28     1     4
 -8.8591460067723837E-01 a       410     0    28     1     5
  4.2402336016591269E-02 a       411     0    28     1     6
 -9.7668217932018436E-02 a       412     0    28     1     7
  3.3663972810034602E-02 a       413     0    28     1     8
 -9.3496583790152932E-01 a       414     0    28     1     9
  1.9357863915998527E-01 a       415     0    28     1    10
  6.2963474442390821E-01 a       416     0    28     1    11
 -4.2691733765516188E-01 a       417     0    28     1    12
  1.2822205328890762E-01 a       418     0    28     1    13
  8.0675197801153198E-01 a       419     0    28     1    14
 -4.5113337656426100E-01 a       420     0    28     1    15
 -6.6937581428243331E-01 b       421     1     1
  2.6042625923596519E-01 b       422     1     2
  1.3520948255544471E-01 b       423     1     3
 -2.5159549178149054E-01 b       424     1     4
  7.6196269266316030E-01 b       425     1     5
 -3.4862874270396621E-01 b       426     1     6
 -1.9119649430726465E-01 b       427     1     7
  1.0437681047293147E-01 b       428     1     8
  5.1636192446687257E-01 b       429     1     9
  1.5061233193451845E-01 b       430     1    10
 -4.6610346234091210E-01 b       431     1    11
  3.1744744649460566E-01 b       432     1    12
 -1.0212836791995859E-01 b       433     1    13
 -9.7786736214472048E-01 b       434     1    14
 -5.6696749511301062E-02 b       435     1    15
  5.9893927647000300E-01 a       436     1     1     2     1
 -5.2453586494433724E-01 a       437     1     1     2     2
  8.3236429431193537E-01 a       438     1     1     2     3
 -1.5208514351399145E+00 a       439     1     1     2     4
 -3.1513361040159388E-01 a       440     1     1     2     5
  7.9238730625930787E-01 a       441     1     1     2     6
 -7.9449864061311479E-02 a       442     1     1     2     7
 -3.2103096114439778E-01 a       443     1     1     2     8
 -5.4411019288541984E-01 a       444     1     1     2     9
 -1.9433715277663586E+00 a       445     1     1     2    10
 -1.7698033699832562E-02 a       446     1     1     2    11
  2.4357167846862016E-01 a       447     1     1     2    12
  5.6988951085493678E-01 a       448     1     1     2    13
  2.0998317525241586E-01 a       449     1     1     2    14
  5.6868032397301349E-01 a       450     1     1     2    15
 -5.0576833035473578E-01 a       451     1     2     2     1
 -4.9143186123328332E-02 a       452     1     2     2     2
  2.4098537634431955E-01 a       453     1     2     2     3
  2.3343957997082743E-01 a       454     1     2     2     4
  1.1841518877248527E+00 a       455     1     2     2     5
 -1.0110977770597847E-01 a       456     1     2     2     6
 -2.2295347219136430E-01 a       457     1     2     2     7
 -3.6330347288531334E-01 a       458     1     2     2     8
  1.1188796292479937E+00 a       459     1     2     2     9
  2.3062854180620354E-01 a       460     1     2     2    10
 -1.4279264171620462E-01 a       461     1     2     2    11
  3.8122613089512403E-01 a       462     1     2     2    12
 -3.2075191058665325E-01 a       463     1     2     2    13
  2.9794618713798260E-01 a       464     1     2     2    14
 -2.6958304287043988E-01 a       465     1     2     2    15
 -5.7020625528284730E-01 a       466     1     3     2     1
  5.6678022853744348E-01 a       467     1     3     2     2
  5.6963517435545652E-01 a       468     1     3     2     3
  9.5077606048868002E-02 a       469     1     3     2     4
  2.1002579278274192E-01 a       470     1     3     2     5
  2.0283125595701959E-01 a       471     1     3     2     6
 -1.7740891382328336E-01 a       472     1     3     2     7
 -3.6325978750653520E-01 a       473     1     3     2     8
  7.3600497011729649E-01 a       474     1     3     2     9
  1.6640481800399543E-01 a       475     1     3     2    10
 -1.3658333199326789E-01 a       476     1     3     2    11
  9.9436778018282199E-02 a       477     1     3     2    12
 -3.3827321244082253E-01 a       478     1     3     2    13
  6.7961957300132458E-01 a       479     1     3     2    14
 -8.5119274363599423E-02 a       480     1     3     2    15
  2.3771562845256664E-01 a       481     1     4     2     1
 -2.5691308823506548E-01 a       482     1     4     2     2
 -2.6645663304115691E-01 a       483     1     4     2     3
  9.1696565865922425E-02 a       484     1     4     2     4
 -5.9580301684602717E-02 a       485     1     4     2     5
  3.1548738371007568E-01 a       486     1     4     2     6
  2.5556193880071509E-01 a       487     1     4     2     7
  1.0284172524281801E-02 a       488     1     4     2     8
 -1.9470123128462352E-01 a       489     1     4     2     9
 -1.1479486706280750E-01 a       490     1     4     2    10
  3.1326616004744823E-01 a       491     1     4     2    11
 -8.5481518359130426E-02 a       492     1     4     2    12
 -2.8554559656930578E-01 a       493     1     4     2    13
  3.0781395933892558E-01 a       494     1     4     2    14
  2.0447257560027153E-02 a       495     1     4     2    15
  1.1568241815699307E-01 a       496     1     5     2     1
  2.3411507562938227E-01 a       497     1     5     2     2
  1.3485642941618128E-01 a       498     1     5     2     3
  1.3162189197680885E-01 a       499     1     5     2     4
  4.7625086440293252E-01 a       500     1     5     2     5
 -2.9880375810362327E-02 a       501     1     5     2     6
  1.4704679181979172E-01 a       502     1     5     2     7
  3.5737630283143529E-01 a       503     1     5     2     8
  2.9700486497382450E-01 a       504     1     5     2     9
  2.0057190967542898E-01 a       505     1     5     2    10
 -1.3424950086593571E-02 a       506     1     5     2    11
 -3.9342950734433196E-01 a       507     1     5     2    12
  2.8615924166786511E-01 a       508     1     5     2    13
 -6.4000207619783933E-01 a       509     1     5     2    14
 -2.2671375060165848E-03 a       510     1     5     2    15
  1.2822315951128005E+00 a       511     1     6     2     1
 -1.8489636442905463E-01 a       512     1     6     2     2
 -1.0753171316989450E-01 a       513     1     6     2     3
 -1.7191663947157837E-01 a       514     1     6     2     4
 -9.4492201883305948E-01 a       515     1     6     2     5
 -4.2553915812927035E-01 a       516     1     6     2     6
 -2.5303740790002721E-01 a       517     1     6     2     7
  6.4009831298565606E-02 a       518     1     6     2     8
 -1.3834116289711678E+00 a       519     1     6     2     9
 -4.1340351771429784E-01 a       520     1     6     2    10
 -5.2557880064352511E-02 a       521     1     6     2    11
 -8.5291337086236194E-02 a       522     1     6     2    12
 -2.3673123703877355E-01 a       523     1     6     2    13
 -3.7082117260400314E-03 a       524     1     6     2    14
  1.9045860712958737E-01 a       525     1     6     2    15
 -2.0882990482269926E-02 a       526     1     7     2     1
  7.5404275793632750E-02 a       527     1     7     2     2
 -2.7899302512671353E-01 a       528     1     7     2     3
  5.1553623501874890E-01 a       529     1     7     2     4
 -4.7339186038730247E-01 a       530     1     7     2     5
  3.6953833982675471E-01 a       531     1     7     2     6
 -8.4421888496686315E-01 a       532     1     7     2     7
 -3.1411397003492952E-01 a       533     1     7     2     8
 -2.7343624715400056E-01 a       534     1     7     2     9
  1.2720531478436570E-01 a       535     1     7     2    10
 -3.1264980809610365E-01 a       536     1     7     2    11
  7.2108735426920778E-01 a       537     1     7     2    12
  1.0278379460246613E-01 a       538     1     7     2    13
  1.0207774460236905E+00 a       539     1     7     2    14
  7.1983832388329949E-01 a       540     1     7     2    15
  1.7444110020259213E-01 a       541     1     8     2     1
 -3.6444224544838660E-01 a       542     1     8     2     2
 -4.8013244147195144E-01 a       543     1     8     2     3
  5.1966656218301410E-01 a       544     1     8     2     4
  5.2998288748831446E-01 a       545     1     8     2     5
  1.0953962430210531E+00 a       546     1     8     2     6
 -3.9389565590665293E-01 a       547     1     8     2     7
  4.3965607279707003E-01 a       548     1     8     2     8
  3.9805437575335306E-01 a       549     1     8     2     9
 -3.1558652921836838E-01 a       550     1     8     2    10
 -5.2625275654584525E-01 a       551     1     8     2    11
  8.1371540790528119E-01 a       552     1     8     2    12
 -3.0242210810189823E-01 a       553     1     8     2    13
 -1.0732434435856157E-01 a       554     1     8     2    14
  1.9285044480576902E-01 a       555     1     8     2    15
 -4.2244934177219434E-01 a       556     1     9     2     1
  1.5751689742616445E-01 a       557     1     9     2     2
 -2.7727867298877409E-02 a       558     1     9     2     3
  2.3976014575033303E-01 a       559     1     9     2     4
 -2.7642730541590177E-01 a       560     1     9     2     5
 -2.0974437477094854E-01 a       561     1     9     2     6
  1.1398650448901015E-01 a       562     1     9     2     7
 -6.5797271560526460E-01 a       563     1     9     2     8
 -8.7543850599057921E-02 a       564     1     9     2     9
  1.1046825682306578E-01 a       565     1     9     2    10
 -2.8635629904929401E-02 a       566     1     9     2    11
  7.1192045378870217E-01 a       567     1     9     2    12
  7.3435055002147576E-01 a       568     1     9     2    13
  9.2660863428071583E-01 a       569     1     9     2    14
  3.5454060875008475E-01 a       570     1     9     2    15
  3.1797054010272907E-01 a       571     1    10     2     1
  3.2797528805967296E-01 a       572     1    10     2     2
  4.2715401054911162E-01 a       573     1    10     2     3
 -5.1446232598536279E-01 a       574     1    10     2     4
 -4.0300390079294962E-01 a       575     1    10     2     5
 -9.7406708993256264E-01 a       576     1    10     2     6
  2.9574803132136418E-01 a       577     1    10     2     7
 -1.1078474645733846E-01 a       578     1    10     2     8
 -1.8256336461878445E-01 a       579     1    10     2     9
  5.3563703944834917E-01 a       580     1    10     2    10
 -5.8795186198969250E-02 a       581     1    10     2    11
 -7.0038878768947554E-01 a       582     1    10     2    12
 -8.1065263444214830E-02 a       583     1    10     2    13
 -4.6504040184393736E-01 a       584     1    10     2    14
 -2.4696072547313389E-01 a       585     1    10     2    15
 -3.7995594405066618E-01 a       586     1    11     2     1
  1.1659167389947317E-01 a       587     1    11     2     2
  1.5196344625638133E-01 a       588     1    11     2     3
  6.3832801532336481E-01 a       589     1    11     2     4
 -5.6955199858693972E-01 a       590     1    11     2     5
 -1.1831403366302107E-01 a       591     1    11     2     6
 -2.2806024002471562E-01 a       592     1    11     2     7
 -6.3649908234847719E-01 a       593     1    11     2     8
  3.4031314173173059E-02 a       594     1    11     2     9
  4.6074703793109895E-01 a       595     1    11     2    10
 -2.4477155582316626E-01 a       596     1    11     2    11
 -9.4844705395893636E-01 a       597     1    11     2    12
 -3.5528374483721298E-01 a       598     1    11     2    13
 -9.4274561379148980E-01 a       599     1    11     2    14
  5.9469269929391222E-01 a       600     1    11     2    15
 -6.4418784594058731E-01 a       601     1    12     2     1
  4.4444987034529726E-01 a       602     1    12     2     2
  4.7816834635530597E-01 a       603     1    12     2     3
  3.7927665113197134E-01 a       604     1    12     2     4
  6.2740879613369793E-01 a       605     1    12     2     5
 -5.2573617897883373E-01 a       606     1    12     2     6
 -3.7807714368963391E-01 a       607     1    12     2     7
 -1.3271619208176691E-02 a       608     1    12     2     8
  7.1312249661285632E-01 a       609     1    12     2     9
  6.8519312251513609E-01 a       610     1    12     2    10
 -7.6103565494412342E-02 a       611     1    12     2    11
  9.1514240065661001E-01 a       612     1    12     2    12
  5.5594687810514534E-02 a       613     1    12     2    13
  7.8113695033118802E-01 a       614     1    12     2    14
  2.0215407293272117E-01 a       615     1    12     2    15
  6.0057245475695645E-02 a       616     1    13     2     1
  1.3257910942276371E-01 a       617     1    13     2     2
  1.0845260661863863E-01 a       618     1    13     2     3
  7.3682458088738967E-02 a       619     1    13     2     4
  7.5050866828642226E-01 a       620     1    13     2     5
  7.4021085523419550E-01 a       621     1    13     2     6
  6.4348423088454498E-01 a       622     1    13     2     7
  4.0307594451857154E-01 a       623     1    13     2     8
  4.6691239427523162E-01 a       624     1    13     2     9
  4.1654052242803530E-01 a       625     1    13     2    10
  6.1039305263777877E-01 a       626     1    13     2    11
  1.2518606730080029E-01 a       627     1    13     2    12
  5.2518820150924239E-01 a       628     1    13     2    13
 -4.5373322190118437E-01 a       629     1    13     2    14
 -3.0744921193842201E-01 a       630     1    13     2    15
 -5.3799932492351399E-01 a       631     1    14     2     1
  2.2500808822270213E-01 a       632     1    14     2     2
 -5.3141656358618317E-01 a       633     1    14     2     3
  7.5765385755671169E-02 a       634     1    14     2     4
  1.2247156034388245E+00 a       635     1    14     2     5
 -9.2831481229268847E-02 a       636     1    14     2     6
  5.0176112746753065E-01 a       637     1    14     2     7
  4.7149995698213365E-01 a       638     1    14     2     8
  1.2708406652644675E+00 a       639     1    14     2     9
 -1.9589013064741399E-02 a       640     1    14     2    10
  1.2979613055949438E-01 a       641     1    14     2    11
  1.4149041999320928E+00 a       642     1    14     2    12
 -4.6917264338090303E-01 a       643     1    14     2    13
  4.7201793173115381E-01 a       644     1    14     2    14
  4.3265620831507329E-01 a       645     1    14     2    15
 -9.3437026870595885E-01 a       646     1    15     2     1
  4.7131398170113259E-01 a       647     1    15     2     2
  1.9965280632393459E-02 a       648     1    15     2     3
  7.3186954375798863E-01 a       649     1    15     2     4
  1.1879142849393283E+00 a       650     1    15     2     5
  4.5497774929948714E-01 a       651     1    15     2     6
  3.6468486930727045E-02 a       652     1    15     2     7
 -6.3609632308226249E-01 a       653     1    15     2     8
  1.5746587150266558E+00 a       654     1    15     2     9
  1.1644680822450144E+00 a       655     1    15     2    10
 -4.1771256381783209E-02 a       656     1    15     2    11
  1.6299080934777488E-01 a       657     1    15     2    12
  1.3434393412323871E-02 a       658     1    15     2    13
  1.8972317130469776E-01 a       659     1    15     2    14
  1.7714963069510429E-02 a       660     1    15     2    15
 -1.7250875301281202E-01 b       661     2     1
 -1.4785937072788822E+00 b       662     2     2
  7.1240703738705458E-01 b       663     2     3
  2.9785558736433493E-01 b       664     2     4
 -3.9875820717050137E-01 b       665     2     5
  1.6912991794940030E-01 b       666     2     6
  2.1660597807477885E-01 b       667     2     7
  2.0355019819131578E-01 b       668     2     8
 -4.0074171571639883E-01 b       669     2     9
 -8.6901019226826393E-01 b       670     2    10
 -3.9301052157444161E-01 b       671     2    11
  4.3462828702872680E-01 b       672     2    12
  3.7828277328298082E-01 b       673     2    13
  1.2923659013340152E-01 b       674     2    14
  8.1333061199849577E-01 b       675     2    15
 -1.4891912437519475E-01 a       676     2     1     3     1
  1.0213133927250344E+00 a       677     2     2     3     1
 -8.6855663223669077E-01 a       678     2     3     3     1
 -9.5780889161708449E-01 a       679     2     4     3     1
  7.5405717088136281E-01 a       680     2     5     3     1
  3.2733027758762390E-01 a       681     2     6     3     1
 -1.0449412139461267E+00 a       682     2     7     3     1
 -9.1920124050776009E-01 a       683     2     8     3     1
 -7.8884015902865456E-01 a       684     2     9     3     1
  3.8622093504741922E-01 a       685     2    10     3     1
  1.2603173701542916E+00 a       686     2    11     3     1
  1.8387446111422251E-01 a       687     2    12     3     1
 -8.8377220635124251E-02 a       688     2    13     3     1
 -4.3553784749247476E-01 a       689     2    14     3     1
 -9.5349970574476217E-01 a       690     2    15     3     1
 -3.3075429690818177E+00 b       691     3     1
