################################################################################
# Neural network connection values (weights and biases).
################################################################################
# Col  Name       Description
################################################################################
# 1    connection Neural network connection value.
# 2    t          Connection type (a = weight, b = bias).
# 3    index      Index enumerating weights.
# 4    l_s        Starting point layer (end point layer for biases).
# 5    n_s        Starting point neuron in starting layer (end point neuron for biases).
# 6    l_e        End point layer.
# 7    n_e        End point neuron in end layer.
################################################################################
#                      1 2         3     4     5     6     7
#             connection t     index   l_s   n_s   l_e   n_e
############################################################
 -6.1111048167718986E-02 a         1     0     1     1     1
  1.4776010032516720E+00 a         2     0     1     1     2
 -1.3673278332678174E+00 a         3     0     1     1     3
 -8.2593978529728451E-01 a         4     0     1     1     4
 -2.1652731259431604E-01 a         5     0     1     1     5
 -1.4541579541540999E+00 a         6     0     1     1     6
 -1.4854642864415640E-01 a         7     0     1     1     7
  9.9293256944200325E-01 a         8     0     1     1     8
 -6.8515554845714388E-01 a         9     0     1     1     9
 -9.2006164609119112E-01 a        10     0     1     1    10
  4.9388459982021676E-01 a        11     0     1     1    11
  9.4010506670943336E-02 a        12     0     1     1    12
 -7.7192944926382645E-01 a        13     0     1     1    13
  8.4223683055837562E-01 a        14     0     1     1    14
 -3.6654695874675847E-01 a        15     0     1     1    15
 -1.3071889877019256E+00 a        16     0     2     1     1
 -7.8621841431675432E-01 a        17     0     2     1     2
  9.5502132702328790E-01 a        18     0     2     1     3
  1.1194888000414727E+00 a        19     0     2     1     4
  1.4315307672339226E+00 a        20     0     2     1     5
  6.0711419891465879E-01 a        21     0     2     1     6
 -5.4506499374643802E-01 a        22     0     2     1     7
  9.4983817841974494E-01 a        23     0     2     1     8
 -1.0797048611053812E+00 a        24     0     2     1     9
  1.8681320625973666E-01 a        25     0     2     1    10
  8.1456430338966268E-01 a        26     0     2     1    11
  1.7992426207290357E-01 a        27     0     2     1    12
  2.4846175509281287E-01 a        28     0     2     1    13
 -2.2747843113210148E-01 a        29     0     2     1    14
 -1.4381105987176994E+00 a        30     0     2     1    15
 -6.3546454750208148E-01 a        31     0     3     1     1
 -6.4772068046911857E-01 a        32     0     3     1     2
 -3.0751407296019195E-01 a        33     0     3     1     3
  5.3880329072213051E-01 a        34     0     3     1     4
 -2.0162607125505505E-01 a        35     0     3     1     5
  6.6649329753276454E-01 a        36     0     3     1     6
  3.0515979023046108E-01 a        37     0     3     1     7
 -3.0068092783436179E-01 a        38     0     3     1     8
  2.8084284825645282E-03 a        39     0     3     1     9
 -1.1641621967997851E-01 a        40     0     3     1    10
 -1.4183269729826381E-01 a        41     0     3     1    11
  1.9547435382074677E-01 a        42     0     3     1    12
 -1.6637808117103270E-01 a        43     0     3     1    13
 -5.5275061793847036E-01 a        44     0     3     1    14
 -4.7600015670827672E-01 a        45     0     3     1    15
  7.4824837604591399E-01 a        46     0     4     1     1
  3.6274530154362850E-01 a        47     0     4     1     2
 -7.1339814830969539E-01 a        48     0     4     1     3
 -1.7985681929320038E-01 a        49     0     4     1     4
 -1.2338416767647895E+00 a        50     0     4     1     5
 -1.3782215620620308E+00 a        51     0     4     1     6
 -5.6984086146699664E-01 a        52     0     4     1     7
  1.1632528161669466E+00 a        53     0     4     1     8
  1.5624647199253707E+00 a        54     0     4     1     9
 -1.2259685304189776E+00 a        55     0     4     1    10
  2.2341304520300942E-01 a        56     0     4     1    11
  1.4112139669591066E-02 a        57     0     4     1    12
  8.6723821818612767E-01 a        58     0     4     1    13
  2.3825278634249125E+00 a        59     0     4     1    14
  2.3175636517405160E-01 a        60     0     4     1    15
 -5.5625257373947412E-01 a        61     0     5     1     1
 -3.0816491234452821E+00 a        62     0     5     1     2
  2.2058307797588572E+00 a        63     0     5     1     3
  9.6796160688057176E-01 a        64     0     5     1     4
  1.0624288192599054E+00 a        65     0     5     1     5
  2.6743778130574909E+00 a        66     0     5     1     6
  2.6656631426530991E-01 a        67     0     5     1     7
 -1.8350948017485282E+00 a        68     0     5     1     8
 -1.0871790448303065E+00 a        69     0     5     1     9
  1.0114535289128144E+00 a        70     0     5     1    10
 -7.7714742640448253E-01 a        71     0     5     1    11
 -1.5606027447205309E-01 a        72     0     5     1    12
 -9.3698241724014045E-02 a        73     0     5     1    13
 -2.1921224395882093E+00 a        74     0     5     1    14
 -7.8414623874669309E-01 a        75     0     5     1    15
  7.3529679137796511E-01 a        76     0     6     1     1
  4.4440116188732964E-01 a        77     0     6     1     2
 -6.2983820697354043E-01 a        78     0     6     1     3
  2.2717479095855422E-01 a        79     0     6     1     4
 -8.9161171945747608E-01 a        80     0     6     1     5
 -7.1982368444278444E-01 a        81     0     6     1     6
  2.0247706036669502E-01 a        82     0     6     1     7
  1.1039931583366805E-01 a        83     0     6     1     8
  2.2663516966814825E+00 a        84     0     6     1     9
 -8.6277709716580087E-01 a        85     0     6     1    10
  1.5491695296382793E-01 a        86     0     6     1    11
  1.0448462954737181E-01 a        87     0     6     1    12
  2.2844907191458988E-01 a        88     0     6     1    13
  1.8386626233020178E+00 a        89     0     6     1    14
  8.8975604583075718E-01 a        90     0     6     1    15
  3.5251959409405029E+00 a        91     0     7     1     1
  1.6038913635789203E+00 a        92     0     7     1     2
 -1.7604607418494447E+00 a        93     0     7     1     3
 -2.6727828815103001E+00 a        94     0     7     1     4
 -1.9727277647076114E+00 a        95     0     7     1     5
 -2.8984981923532707E+00 a        96     0     7     1     6
 -1.3430246044253144E-01 a        97     0     7     1     7
  2.0935254050277469E-01 a        98     0     7     1     8
  1.5664709587199330E+00 a        99     0     7     1     9
 -7.9246470377733413E-01 a       100     0     7     1    10
 -2.5297188119198171E+00 a       101     0     7     1    11
 -2.6093969012963325E-01 a       102     0     7     1    12
  1.4589072128228011E+00 a       103     0     7     1    13
  1.6479179158380233E+00 a       104     0     7     1    14
  2.2156617169339086E+00 a       105     0     7     1    15
 -8.6264161756605995E-01 a       106     0     8     1     1
 -7.0371819243196565E-01 a       107     0     8     1     2
 -3.1434479851821978E-01 a       108     0     8     1     3
  7.3519743525798176E-01 a       109     0     8     1     4
 -2.6689948847738731E-01 a       110     0     8     1     5
  3.1328939771140052E-01 a       111     0     8     1     6
  4.0071885215544600E-01 a       112     0     8     1     7
 -6.3727163772312106E-02 a       113     0     8     1     8
 -4.7661789365184892E-01 a       114     0     8     1     9
  2.9627036753018826E-01 a       115     0     8     1    10
  3.8579631792978147E-01 a       116     0     8     1    11
  7.1323648002859263E-01 a       117     0     8     1    12
 -4.4225257804251877E-01 a       118     0     8     1    13
  8.3904390007800006E-02 a       119     0     8     1    14
  1.0277504790332337E+00 a       120     0     8     1    15
  6.1756678781420715E-01 a       121     0     9     1     1
  1.3656795515060816E+00 a       122     0     9     1     2
  4.9441744941733240E-01 a       123     0     9     1     3
  1.9127858150832870E+00 a       124     0     9     1     4
  1.5233480548387242E+00 a       125     0     9     1     5
 -1.4269973094413804E+00 a       126     0     9     1     6
  1.8516600874859224E+00 a       127     0     9     1     7
  6.6699489695653225E-01 a       128     0     9     1     8
  8.7521813182114083E-01 a       129     0     9     1     9
  8.5329760825873691E-01 a       130     0     9     1    10
  1.3394902797792796E+00 a       131     0     9     1    11
 -1.2016286534169793E+00 a       132     0     9     1    12
 -1.0922275088287342E-01 a       133     0     9     1    13
 -1.5680876163794768E+00 a       134     0     9     1    14
 -4.5541273972515117E-02 a       135     0     9     1    15
 -2.1866157273246745E+00 a       136     0    10     1     1
 -1.0075130147359701E+00 a       137     0    10     1     2
  1.2139408680389576E+00 a       138     0    10     1     3
  1.7173475094471731E+00 a       139     0    10     1     4
  1.3784595660387838E-01 a       140     0    10     1     5
  1.8497482540135624E+00 a       141     0    10     1     6
  6.1931592885035414E-01 a       142     0    10     1     7
 -4.3895341422834450E-01 a       143     0    10     1     8
 -3.9067761687437513E-01 a       144     0    10     1     9
  8.7337127226490885E-01 a       145     0    10     1    10
  5.4456007854051991E-01 a       146     0    10     1    11
  1.1915741307236261E-01 a       147     0    10     1    12
 -8.2572896406993768E-01 a       148     0    10     1    13
 -8.6455030295021662E-01 a       149     0    10     1    14
  4.1753610298496162E-02 a       150     0    10     1    15
  4.6712644800922609E-01 a       151     0    11     1     1
 -1.2007168977382114E+00 a       152     0    11     1     2
 -6.3128651767946831E-01 a       153     0    11     1     3
 -2.0515967872662411E+00 a       154     0    11     1     4
 -2.6472333590820791E+00 a       155     0    11     1     5
 -1.6506522575707159E+00 a       156     0    11     1     6
 -9.1458280461468311E-01 a       157     0    11     1     7
  1.1049214664680840E+00 a       158     0    11     1     8
 -3.8858205559514414E-01 a       159     0    11     1     9
 -5.5113414368021107E-01 a       160     0    11     1    10
 -1.5365460013692842E+00 a       161     0    11     1    11
  1.6679012891905809E+00 a       162     0    11     1    12
 -4.0361134925805547E-01 a       163     0    11     1    13
  1.1021567088138868E+00 a       164     0    11     1    14
  9.5834325584095004E-01 a       165     0    11     1    15
  7.9509672702186673E-01 a       166     0    12     1     1
 -1.5499624265019510E-01 a       167     0    12     1     2
 -2.8323624012698954E+00 a       168     0    12     1     3
 -1.0506559860149036E+00 a       169     0    12     1     4
 -1.3887886450958344E+00 a       170     0    12     1     5
 -3.5076527190914292E-01 a       171     0    12     1     6
  6.0772742794987988E-01 a       172     0    12     1     7
  7.5296695600917485E-01 a       173     0    12     1     8
 -2.0709406458740136E+00 a       174     0    12     1     9
 -5.2794312303085689E-01 a       175     0    12     1    10
 -3.0290059889533072E-01 a       176     0    12     1    11
  1.2000127967682179E+00 a       177     0    12     1    12
 -6.5235400283055789E-01 a       178     0    12     1    13
 -4.1052084768736286E-01 a       179     0    12     1    14
  1.5828333930857768E+00 a       180     0    12     1    15
 -1.2404564671012286E-01 a       181     0    13     1     1
  2.8638781975998220E+00 a       182     0    13     1     2
  1.7936691721994611E+00 a       183     0    13     1     3
  4.8440756566444315E-01 a       184     0    13     1     4
  2.5473667798976929E+00 a       185     0    13     1     5
 -1.1674192110855870E+00 a       186     0    13     1     6
  2.0343775784145368E+00 a       187     0    13     1     7
 -2.3105260274549293E+00 a       188     0    13     1     8
  6.9180883187544551E-01 a       189     0    13     1     9
 -1.5759677035330679E+00 a       190     0    13     1    10
  8.1446313792241432E-01 a       191     0    13     1    11
  2.5919155207880978E-01 a       192     0    13     1    12
 -4.9489190406617284E-01 a       193     0    13     1    13
 -5.3881157070107988E-01 a       194     0    13     1    14
 -6.8254023608583414E-01 a       195     0    13     1    15
  1.1602970031089557E+00 a       196     0    14     1     1
  4.9794918296898610E-01 a       197     0    14     1     2
  4.2423808888223902E-01 a       198     0    14     1     3
  4.1145494361731136E-02 a       199     0    14     1     4
  1.3623650602881767E+00 a       200     0    14     1     5
  3.3591997477990332E-01 a       201     0    14     1     6
  2.6979814586682227E-01 a       202     0    14     1     7
 -4.8841147760805798E-01 a       203     0    14     1     8
 -1.5233755410135099E+00 a       204     0    14     1     9
 -2.3516142586456805E+00 a       205     0    14     1    10
 -2.9966371590379864E-01 a       206     0    14     1    11
  2.2348899988277537E-01 a       207     0    14     1    12
  2.0230806877405325E-01 a       208     0    14     1    13
  6.6663476490523413E-02 a       209     0    14     1    14
 -9.9347054598527373E-01 a       210     0    14     1    15
  3.9229590493239253E-01 a       211     0    15     1     1
 -1.9496777206350768E+00 a       212     0    15     1     2
 -3.6565402669962943E-01 a       213     0    15     1     3
  6.9640447749429246E-01 a       214     0    15     1     4
  8.1351502689175667E-02 a       215     0    15     1     5
  1.7125067788844759E+00 a       216     0    15     1     6
 -1.1156931822148595E+00 a       217     0    15     1     7
 -5.2414832668766476E-01 a       218     0    15     1     8
 -6.2777005342519909E-01 a       219     0    15     1     9
  1.5645242004928488E+00 a       220     0    15     1    10
 -2.3014133944912527E+00 a       221     0    15     1    11
 -1.0372200815391495E+00 a       222     0    15     1    12
 -3.2431213263813818E-01 a       223     0    15     1    13
 -2.4517572701998552E-01 a       224     0    15     1    14
  3.3739185506964697E-01 a       225     0    15     1    15
 -1.1955190770114994E+00 a       226     0    16     1     1
 -1.1214864782307430E+00 a       227     0    16     1     2
 -1.6842246069138707E-02 a       228     0    16     1     3
 -6.0830504963341310E-02 a       229     0    16     1     4
 -4.2775782176180049E-01 a       230     0    16     1     5
 -4.3951974571699914E-01 a       231     0    16     1     6
 -3.2110611203384509E-01 a       232     0    16     1     7
  2.5953875306268664E-01 a       233     0    16     1     8
  8.1836330522932299E-01 a       234     0    16     1     9
 -6.0974651614120520E-03 a       235     0    16     1    10
  7.2798994893446911E-01 a       236     0    16     1    11
 -3.8586269827567787E-01 a       237     0    16     1    12
 -5.5656986550891929E-01 a       238     0    16     1    13
  1.0978683792901731E-01 a       239     0    16     1    14
  8.6730973967449121E-01 a       240     0    16     1    15
  1.4945250806689889E-03 a       241     0    17     1     1
  5.4491631498624538E-01 a       242     0    17     1     2
 -9.3438455562330203E-01 a       243     0    17     1     3
 -4.0389856855397227E-01 a       244     0    17     1     4
 -1.3518708915265729E+00 a       245     0    17     1     5
 -4.1590686979527103E-01 a       246     0    17     1     6
 -6.9961304074201341E-02 a       247     0    17     1     7
  9.8435065600231786E-01 a       248     0    17     1     8
  4.7436889199530474E-01 a       249     0    17     1     9
 -4.3268719405651118E-01 a       250     0    17     1    10
 -1.9176116970222590E-01 a       251     0    17     1    11
  2.5170531032358695E-01 a       252     0    17     1    12
 -1.0530754064898149E+00 a       253     0    17     1    13
 -1.1931996626491836E+00 a       254     0    17     1    14
 -5.9083964162415936E-01 a       255     0    17     1    15
  1.4673768099445900E-01 a       256     0    18     1     1
  8.6576112633411959E-02 a       257     0    18     1     2
 -2.8199383116397808E-01 a       258     0    18     1     3
  6.6409901232740465E-01 a       259     0    18     1     4
 -2.9583423988565175E-02 a       260     0    18     1     5
  5.0431347889391576E-01 a       261     0    18     1     6
  4.4860224193757309E-01 a       262     0    18     1     7
 -7.1797281439053362E-01 a       263     0    18     1     8
  6.4236189444474678E-01 a       264     0    18     1     9
  4.1505319281258418E-01 a       265     0    18     1    10
 -6.0165477556348279E-01 a       266     0    18     1    11
  4.6911493420636263E-01 a       267     0    18     1    12
  1.8697660345167406E+00 a       268     0    18     1    13
  4.2013018189495188E-01 a       269     0    18     1    14
 -1.0180238959779973E+00 a       270     0    18     1    15
 -5.1698719589684294E-01 a       271     0    19     1     1
  1.9017748116583379E+00 a       272     0    19     1     2
  2.1689742616432093E+00 a       273     0    19     1     3
 -1.4344672048855196E+00 a       274     0    19     1     4
  6.5570231527286238E-01 a       275     0    19     1     5
 -1.7269813949759893E+00 a       276     0    19     1     6
 -1.7897234020443614E-01 a       277     0    19     1     7
 -2.0826915438913800E+00 a       278     0    19     1     8
  2.2820303081007532E-03 a       279     0    19     1     9
  1.9949872553097454E+00 a       280     0    19     1    10
 -1.0429763551754363E+00 a       281     0    19     1    11
 -1.1493699442907566E+00 a       282     0    19     1    12
 -1.2157438111437477E+00 a       283     0    19     1    13
  5.3287501363264256E-01 a       284     0    19     1    14
 -4.8999649176421001E-01 a       285     0    19     1    15
  1.2563107840470027E+00 a       286     0    20     1     1
 -8.9386044467597764E-02 a       287     0    20     1     2
 -8.7969312651560369E-02 a       288     0    20     1     3
  5.2606214597357259E-01 a       289     0    20     1     4
 -2.5050373016158567E-01 a       290     0    20     1     5
  1.4427938217743697E+00 a       291     0    20     1     6
  5.5909751236986105E-01 a       292     0    20     1     7
 -7.4976182495882171E-01 a       293     0    20     1     8
 -1.1702570751983037E+00 a       294     0    20     1     9
  3.9114797840498394E-01 a       295     0    20     1    10
 -5.9502214282565291E-01 a       296     0    20     1    11
  6.3629771645648647E-01 a       297     0    20     1    12
  1.7017204470254494E+00 a       298     0    20     1    13
 -9.2334645376603974E-01 a       299     0    20     1    14
  1.2761458259289915E+00 a       300     0    20     1    15
 -1.0713480614904745E+00 a       301     0    21     1     1
 -5.0665184582666417E-02 a       302     0    21     1     2
  1.5402114388965014E+00 a       303     0    21     1     3
  1.3542229088422761E-01 a       304     0    21     1     4
  1.6329903752855363E-01 a       305     0    21     1     5
  8.8650830451094165E-01 a       306     0    21     1     6
 -7.6409743917891360E-01 a       307     0    21     1     7
 -5.9174533668036411E-01 a       308     0    21     1     8
 -3.5425806641876784E-01 a       309     0    21     1     9
 -3.6153318885421060E-01 a       310     0    21     1    10
  1.2465763392893248E+00 a       311     0    21     1    11
 -1.0335323941901473E+00 a       312     0    21     1    12
  7.9627149131693165E-01 a       313     0    21     1    13
 -4.2267686929822051E-01 a       314     0    21     1    14
 -4.9133440240923926E-01 a       315     0    21     1    15
  5.2063797177780091E-01 a       316     0    22     1     1
 -4.1068109080025511E-01 a       317     0    22     1     2
 -8.6811257145392984E-01 a       318     0    22     1     3
  3.2649899100815477E-01 a       319     0    22     1     4
 -5.2257192426534704E-01 a       320     0    22     1     5
 -4.3501420106462474E-01 a       321     0    22     1     6
 -1.9496941453777433E-01 a       322     0    22     1     7
  1.2943595636064313E+00 a       323     0    22     1     8
 -2.3517170515303800E-02 a       324     0    22     1     9
 -9.3810678970473094E-01 a       325     0    22     1    10
  1.3882481514373626E-01 a       326     0    22     1    11
  5.9473153096799369E-01 a       327     0    22     1    12
 -5.5138786659708772E-01 a       328     0    22     1    13
  6.0306720147095383E-01 a       329     0    22     1    14
  7.8439469717497035E-01 a       330     0    22     1    15
  3.2368494154459981E-01 a       331     0    23     1     1
 -1.5600293241619816E+00 a       332     0    23     1     2
 -5.7802171622814791E-01 a       333     0    23     1     3
  8.3706019909788390E-03 a       334     0    23     1     4
  4.4234694387908391E-01 a       335     0    23     1     5
 -2.9259697328597883E-01 a       336     0    23     1     6
 -2.0309058725428972E-01 a       337     0    23     1     7
 -9.8813405648165920E-01 a       338     0    23     1     8
  5.3960099075514156E-01 a       339     0    23     1     9
  3.1349946848270466E-01 a       340     0    23     1    10
  8.9959943062780723E-01 a       341     0    23     1    11
  2.2444914951741888E+00 a       342     0    23     1    12
  1.1544909842154261E-01 a       343     0    23     1    13
 -1.2350086989469253E+00 a       344     0    23     1    14
  7.7945763444341265E-01 a       345     0    23     1    15
 -4.8898776369951752E-01 a       346     0    24     1     1
  2.5806091631594570E+00 a       347     0    24     1     2
  1.7489659540053695E-01 a       348     0    24     1     3
 -8.6182701387882010E-01 a       349     0    24     1     4
  1.4207113251344865E+00 a       350     0    24     1     5
  5.9238837249464282E-01 a       351     0    24     1     6
 -9.4916976707134004E-01 a       352     0    24     1     7
  9.8466635528041313E-01 a       353     0    24     1     8
  6.8475399603861997E-01 a       354     0    24     1     9
  2.6612700640658410E-01 a       355     0    24     1    10
 -1.1405100114465068E+00 a       356     0    24     1    11
 -2.5071046946511664E+00 a       357     0    24     1    12
  2.3212264492705598E-02 a       358     0    24     1    13
  1.5463366122033511E+00 a       359     0    24     1    14
  8.7258454115093975E-02 a       360     0    24     1    15
  5.6563085988505313E-01 a       361     0    25     1     1
 -1.3852488982862516E+00 a       362     0    25     1     2
  5.5224930942185024E-01 a       363     0    25     1     3
  8.3601283765429646E-01 a       364     0    25     1     4
 -4.2260965155003438E-01 a       365     0    25     1     5
 -7.3168482350604927E-03 a       366     0    25     1     6
 -1.5119580323651641E-01 a       367     0    25     1     7
  6.4966190372738958E-02 a       368     0    25     1     8
  1.7081973051274166E-01 a       369     0    25     1     9
  4.8317470688952330E-01 a       370     0    25     1    10
  6.9820475862103312E-02 a       371     0    25     1    11
 -3.6644346505576303E-01 a       372     0    25     1    12
 -1.2092556072270436E-01 a       373     0    25     1    13
 -1.1240716563247677E+00 a       374     0    25     1    14
  1.4893770799081818E+00 a       375     0    25     1    15
 -5.0249105080005951E-01 a       376     0    26     1     1
  6.0496325864741063E-01 a       377     0    26     1     2
 -1.0842886189546568E+00 a       378     0    26     1     3
  1.2122097752457834E+00 a       379     0    26     1     4
  6.7721884673898314E-01 a       380     0    26     1     5
  1.2967753124725196E+00 a       381     0    26     1     6
  3.0087184043529325E-01 a       382     0    26     1     7
  1.5770095049520019E+00 a       383     0    26     1     8
 -1.1194220630127860E+00 a       384     0    26     1     9
 -1.1386463793825699E+00 a       385     0    26     1    10
  2.0759635826310929E+00 a       386     0    26     1    11
  1.1446139976521157E+00 a       387     0    26     1    12
  5.8536212654251885E-01 a       388     0    26     1    13
  9.0733566449060155E-01 a       389     0    26     1    14
  5.4799832625966133E-02 a       390     0    26     1    15
 -1.6708513512615881E+00 a       391     0    27     1     1
 -2.3503505937683228E-01 a       392     0    27     1     2
  3.0601708236731722E+00 a       393     0    27     1     3
 -1.1756079230518210E+00 a       394     0    27     1     4
  1.0904568665756178E+00 a       395     0    27     1     5
 -1.2055201720411177E-01 a       396     0    27     1     6
 -1.0509732798817393E+00 a       397     0    27     1     7
 -1.4527266652113884E+00 a       398     0    27     1     8
 -7.5715484891739271E-01 a       399     0    27     1     9
  2.2032877505684745E+00 a       400     0    27     1    10
  1.6002626938703153E+00 a       401     0    27     1    11
 -1.8397537272945970E+00 a       402     0    27     1    12
 -2.4022581253693477E-02 a       403     0    27     1    13
 -4.3430760572692140E-01 a       404     0    27     1    14
 -2.2340117417635348E+00 a       405     0    27     1    15
  2.3694195766408543E+00 a       406     0    28     1     1
  5.9567101091888275E-01 a       407     0    28     1     2
 -7.3549904178176939E-01 a       408     0    28     1     3
 -7.6977802792570416E-01 a       409     0    28     1     4
  7.1399485821243713E-01 a       410     0    28     1     5
 -6.3992608869321121E-01 a       411     0    28     1     6
  3.8292702191389152E-02 a       412     0    28     1     7
  3.7229156053969753E-01 a       413     0    28     1     8
 -3.3248769972231529E-01 a       414     0    28     1     9
 -9.8858465718474131E-01 a       415     0    28     1    10
 -1.2420961921458658E-01 a       416     0    28     1    11
  6.7300113567765507E-01 a       417     0    28     1    12
 -5.5263050837679062E-01 a       418     0    28     1    13
 -1.2383889347862408E-01 a       419     0    28     1    14
 -1.7584263690195612E+00 a       420     0    28     1    15
 -1.9897360669641635E+00 a       421     0    29     1     1
 -3.8990391352959802E-01 a       422     0    29     1     2
  4.6469753482310872E-01 a       423     0    29     1     3
  4.2399650489799795E-01 a       424     0    29     1     4
  1.2763161999053296E-01 a       425     0    29     1     5
  1.0526229260926763E+00 a       426     0    29     1     6
 -7.9573977205014146E-01 a       427     0    29     1     7
 -1.2379721119940776E+00 a       428     0    29     1     8
 -3.3950764885774776E-01 a       429     0    29     1     9
  9.7439231807770990E-02 a       430     0    29     1    10
  1.4948372348207664E+00 a       431     0    29     1    11
  6.9469184912161946E-02 a       432     0    29     1    12
 -2.7556849022844560E-01 a       433     0    29     1    13
  1.7146977415090945E+00 a       434     0    29     1    14
 -1.2952929408849876E+00 a       435     0    29     1    15
 -8.9664936090083547E-01 a       436     0    30     1     1
 -2.1331295689730267E-01 a       437     0    30     1     2
  4.5847204775411204E-01 a       438     0    30     1     3
 -7.8863677432688684E-01 a       439     0    30     1     4
 -7.4460553349459224E-01 a       440     0    30     1     5
 -2.1775364508659148E-02 a       441     0    30     1     6
  2.2858923040737864E-01 a       442     0    30     1     7
 -9.6228268546588136E-01 a       443     0    30     1     8
  4.1209977283114246E-01 a       444     0    30     1     9
  5.6150824080811801E-01 a       445     0    30     1    10
 -3.2644502757200740E+00 a       446     0    30     1    11
 -1.6628480910465809E-01 a       447     0    30     1    12
  9.7966867103539068E-01 a       448     0    30     1    13
 -4.6630176109347510E-01 a       449     0    30     1    14
 -3.7606803587260368E-01 a       450     0    30     1    15
  7.2132894288888332E-04 b       451     1     1
 -9.2994007412952273E-02 b       452     1     2
  6.7220437488860640E-01 b       453     1     3
  1.6924820062448684E-01 b       454     1     4
  2.5011183503388634E-01 b       455     1     5
  7.0279872193394474E-02 b       456     1     6
  6.9690312680126021E-01 b       457     1     7
 -1.1045522061072872E+00 b       458     1     8
  6.8408955982633302E-01 b       459     1     9
  5.8335912535234036E-01 b       460     1    10
 -1.0251237261958992E+00 b       461     1    11
  6.0330176656036447E-02 b       462     1    12
 -4.7840998909162602E-02 b       463     1    13
 -4.8872761547193438E-01 b       464     1    14
 -9.0833651076563948E-01 b       465     1    15
 -1.1545701529075741E-01 a       466     1     1     2     1
  7.2866650504643515E-01 a       467     1     1     2     2
 -7.5470818210931778E-01 a       468     1     1     2     3
 -1.4854958814307233E+00 a       469     1     1     2     4
 -1.6367694298759905E+00 a       470     1     1     2     5
 -4.0094856948844326E-01 a       471     1     1     2     6
  6.4308256699891542E-01 a       472     1     1     2     7
 -6.7612521386161528E-01 a       473     1     1     2     8
  5.1473372265282102E-01 a       474     1     1     2     9
 -2.0764651735789003E-01 a       475     1     1     2    10
  2.3158014157053117E-01 a       476     1     1     2    11
  5.8323474725535163E-01 a       477     1     1     2    12
 -1.8682733914718477E-01 a       478     1     1     2    13
 -2.1178984281902086E-01 a       479     1     1     2    14
 -8.2565573656445979E-01 a       480     1     1     2    15
 -5.9743476817914720E-01 a       481     1     2     2     1
  7.7410263692698000E-01 a       482     1     2     2     2
  2.6851780552757260E-01 a       483     1     2     2     3
 -4.6444981867104296E-01 a       484     1     2     2     4
 -2.8101316287414111E-02 a       485     1     2     2     5
 -2.2453962651486267E-01 a       486     1     2     2     6
 -6.5814210854178035E-01 a       487     1     2     2     7
  1.1773596043461456E+00 a       488     1     2     2     8
  4.6235620239860279E-03 a       489     1     2     2     9
  2.5939059081321575E-01 a       490     1     2     2    10
 -6.7809291613759937E-01 a       491     1     2     2    11
  1.8060635331032582E+00 a       492     1     2     2    12
 -1.1112189646170052E+00 a       493     1     2     2    13
  2.0450566838175215E+00 a       494     1     2     2    14
 -9.1957817460062863E-01 a       495     1     2     2    15
 -2.9155963008210339E-01 a       496     1     3     2     1
  3.8672092272760711E-01 a       497     1     3     2     2
  6.7904853097560580E-01 a       498     1     3     2     3
  3.9535644941192144E-01 a       499     1     3     2     4
  1.4300547625722082E+00 a       500     1     3     2     5
  9.0693892263027709E-01 a       501     1     3     2     6
 -1.1573292543722860E-01 a       502     1     3     2     7
 -5.4540797972182009E-01 a       503     1     3     2     8
 -8.8312221350059728E-01 a       504     1     3     2     9
 -1.5113294451776474E-01 a       505     1     3     2    10
  6.6587623065288593E-01 a       506     1     3     2    11
  6.7179927413228502E-01 a       507     1     3     2    12
  6.9049251958163615E-01 a       508     1     3     2    13
  5.9258000512740494E-01 a       509     1     3     2    14
  6.1690455706375191E-01 a       510     1     3     2    15
 -7.0653492743444790E-01 a       511     1     4     2     1
  7.8688971829076293E-01 a       512     1     4     2     2
 -4.6313442558299356E-01 a       513     1     4     2     3
 -7.5933432495557029E-01 a       514     1     4     2     4
  2.2241186367765229E+00 a       515     1     4     2     5
 -2.2246061433420147E-01 a       516     1     4     2     6
 -5.2258189013599066E-01 a       517     1     4     2     7
 -6.2577916174580128E-01 a       518     1     4     2     8
 -2.0555168994261924E-01 a       519     1     4     2     9
  5.4158583481561451E-01 a       520     1     4     2    10
  4.6720142134517845E-01 a       521     1     4     2    11
 -9.5776772997225368E-01 a       522     1     4     2    12
 -1.3766819016550642E+00 a       523     1     4     2    13
  3.8143667284482802E-01 a       524     1     4     2    14
  1.2614214059757594E+00 a       525     1     4     2    15
 -8.8193779976385855E-01 a       526     1     5     2     1
  2.2408767537793954E+00 a       527     1     5     2     2
  3.9774372129783675E-01 a       528     1     5     2     3
  1.9256924189092944E-01 a       529     1     5     2     4
 -2.7556305110609586E-01 a       530     1     5     2     5
  2.6784218617759170E-01 a       531     1     5     2     6
 -6.4599418681744802E-01 a       532     1     5     2     7
  6.8567638032493605E-01 a       533     1     5     2     8
 -2.2739803441195236E-01 a       534     1     5     2     9
 -5.0188664744179441E-02 a       535     1     5     2    10
  1.3258498331368471E-01 a       536     1     5     2    11
 -3.5350314449339981E-01 a       537     1     5     2    12
 -8.0901752753038611E-02 a       538     1     5     2    13
  1.4821948700359382E+00 a       539     1     5     2    14
  1.4139804982319881E+00 a       540     1     5     2    15
 -1.0921234750580016E+00 a       541     1     6     2     1
  5.5921760499927720E-01 a       542     1     6     2     2
 -5.4673333792193901E-01 a       543     1     6     2     3
 -3.9570908027312578E-02 a       544     1     6     2     4
  1.1116078962857252E+00 a       545     1     6     2     5
  3.5517103794049365E-01 a       546     1     6     2     6
 -7.8143300673779359E-01 a       547     1     6     2     7
 -1.0355821074055687E+00 a       548     1     6     2     8
  3.7588127102949555E-03 a       549     1     6     2     9
 -7.7563604474403147E-01 a       550     1     6     2    10
 -2.1242020124697872E-01 a       551     1     6     2    11
 -5.8429041662334524E-01 a       552     1     6     2    12
  1.1932244387834718E+00 a       553     1     6     2    13
 -6.2237340991925816E-01 a       554     1     6     2    14
 -6.7778130168911588E-01 a       555     1     6     2    15
 -1.1229564846606363E-01 a       556     1     7     2     1
  5.0242909248640466E-01 a       557     1     7     2     2
 -1.3400382686087791E-02 a       558     1     7     2     3
 -1.3428708391817204E-01 a       559     1     7     2     4
  1.1874304450085460E+00 a       560     1     7     2     5
  4.4827174315619014E-02 a       561     1     7     2     6
 -1.2719928419524520E-01 a       562     1     7     2     7
 -3.7747136434536610E-01 a       563     1     7     2     8
 -6.6503490899414919E-01 a       564     1     7     2     9
  1.6309484623316646E+00 a       565     1     7     2    10
  1.3674281776137731E+00 a       566     1     7     2    11
 -4.7989938413377842E-02 a       567     1     7     2    12
 -1.8173077673173090E+00 a       568     1     7     2    13
  1.2750280827511220E+00 a       569     1     7     2    14
 -1.6159448004921600E-01 a       570     1     7     2    15
 -1.4915189446070959E-01 a       571     1     8     2     1
  9.1653879418362533E-02 a       572     1     8     2     2
  8.2293648029261618E-02 a       573     1     8     2     3
 -6.8748729297428068E-01 a       574     1     8     2     4
 -5.5395720262053383E-01 a       575     1     8     2     5
 -3.7188906442128705E-01 a       576     1     8     2     6
  5.7117334704594069E-01 a       577     1     8     2     7
  1.4742801732436881E+00 a       578     1     8     2     8
 -2.9467044174142226E-01 a       579     1     8     2     9
  1.7080201251391350E-01 a       580     1     8     2    10
  7.4125877631716675E-01 a       581     1     8     2    11
  1.3562060136817793E+00 a       582     1     8     2    12
 -1.3278034927606432E+00 a       583     1     8     2    13
  6.8316894855242771E-01 a       584     1     8     2    14
  5.9575365917211319E-02 a       585     1     8     2    15
 -4.4330707873243186E-01 a       586     1     9     2     1
  1.8144829199239343E+00 a       587     1     9     2     2
  5.6472843245842595E-03 a       588     1     9     2     3
 -6.5364980521411542E-01 a       589     1     9     2     4
 -1.0805566196797065E+00 a       590     1     9     2     5
  2.5099213958738287E-01 a       591     1     9     2     6
  2.0630487997814222E+00 a       592     1     9     2     7
  1.9049186993968883E-01 a       593     1     9     2     8
  8.7878445386986984E-02 a       594     1     9     2     9
  6.4008541189585089E-01 a       595     1     9     2    10
  3.7024675254810117E-02 a       596     1     9     2    11
  4.9282007969230386E-03 a       597     1     9     2    12
 -2.2111522407281695E-01 a       598     1     9     2    13
 -1.1041121585385910E-01 a       599     1     9     2    14
 -1.0452051518664505E+00 a       600     1     9     2    15
  4.0530837272076736E-01 a       601     1    10     2     1
 -9.0683854511218909E-01 a       602     1    10     2     2
  1.0590297558959623E+00 a       603     1    10     2     3
  1.0919011340272500E+00 a       604     1    10     2     4
  6.4898007415018555E-01 a       605     1    10     2     5
 -2.8468684310602416E-01 a       606     1    10     2     6
  1.0820281450022722E+00 a       607     1    10     2     7
  7.0403351570267669E-01 a       608     1    10     2     8
  7.3438772886537815E-02 a       609     1    10     2     9
 -6.8383705065287681E-02 a       610     1    10     2    10
  1.6187853564806140E-01 a       611     1    10     2    11
  1.9648846108642365E-01 a       612     1    10     2    12
  1.4120832110885817E+00 a       613     1    10     2    13
  3.1865354725746109E-01 a       614     1    10     2    14
  6.7755274836968415E-01 a       615     1    10     2    15
 -1.1725910962787918E+00 a       616     1    11     2     1
  5.2203335731870970E-01 a       617     1    11     2     2
  1.2863580517189379E+00 a       618     1    11     2     3
  1.0646686404656502E+00 a       619     1    11     2     4
  7.6551512088144258E-01 a       620     1    11     2     5
  1.0002315889330806E+00 a       621     1    11     2     6
  8.4457029007059828E-02 a       622     1    11     2     7
  1.7543827169712661E-01 a       623     1    11     2     8
  1.0328350854674546E-01 a       624     1    11     2     9
 -1.8514640823959041E+00 a       625     1    11     2    10
  2.6973971281498582E-01 a       626     1    11     2    11
  4.5993063439645754E-01 a       627     1    11     2    12
  1.8595706040785143E-01 a       628     1    11     2    13
  1.9268047481467449E-01 a       629     1    11     2    14
  7.6564069401090729E-01 a       630     1    11     2    15
 -9.9732407294302416E-01 a       631     1    12     2     1
  2.5904269470257935E-01 a       632     1    12     2     2
  1.0203328622433381E+00 a       633     1    12     2     3
  1.3293478989337433E+00 a       634     1    12     2     4
  1.6575789161789261E+00 a       635     1    12     2     5
 -1.0861119129418367E-02 a       636     1    12     2     6
 -5.4280146955424735E-01 a       637     1    12     2     7
  9.3517415391635539E-01 a       638     1    12     2     8
  3.2997472584782840E-02 a       639     1    12     2     9
 -6.8170104574263746E-01 a       640     1    12     2    10
 -7.1356972559592380E-01 a       641     1    12     2    11
 -8.7858120990034294E-01 a       642     1    12     2    12
 -5.9806003734130531E-01 a       643     1    12     2    13
 -1.4644326805272707E+00 a       644     1    12     2    14
  4.4932946494277502E-02 a       645     1    12     2    15
  7.0133795934611509E-01 a       646     1    13     2     1
  2.7559712453578644E+00 a       647     1    13     2     2
 -8.0992810387843828E-01 a       648     1    13     2     3
 -3.6417811981343640E-01 a       649     1    13     2     4
  1.3491136913380954E+00 a       650     1    13     2     5
 -4.2413487124071542E-01 a       651     1    13     2     6
 -1.4983615046758598E+00 a       652     1    13     2     7
 -6.3070266525057739E-01 a       653     1    13     2     8
  4.5380482153608862E-02 a       654     1    13     2     9
  1.9462484206902345E-01 a       655     1    13     2    10
 -6.5550865007769721E-01 a       656     1    13     2    11
 -3.0163713258084618E-01 a       657     1    13     2    12
  6.7120721770748093E-01 a       658     1    13     2    13
 -3.3574927405711086E-01 a       659     1    13     2    14
 -2.2559043078794336E-01 a       660     1    13     2    15
  2.7994861102921920E-01 a       661     1    14     2     1
 -1.3520057802252137E-02 a       662     1    14     2     2
  4.4279525162136002E-01 a       663     1    14     2     3
 -9.2767443699815211E-03 a       664     1    14     2     4
 -1.1055671090299679E+00 a       665     1    14     2     5
 -7.7492438130229579E-01 a       666     1    14     2     6
  2.2013822313821269E-01 a       667     1    14     2     7
 -7.3432900996615369E-01 a       668     1    14     2     8
  1.2101750641660634E+00 a       669     1    14     2     9
  3.6020575272480604E-01 a       670     1    14     2    10
 -3.1946263901733984E-01 a       671     1    14     2    11
  1.1906905720813172E+00 a       672     1    14     2    12
  4.4373565851271529E-01 a       673     1    14     2    13
  1.2008801713897194E-01 a       674     1    14     2    14
 -9.0126937980947786E-01 a       675     1    14     2    15
 -1.4427362642709385E+00 a       676     1    15     2     1
  4.8824625298696572E-01 a       677     1    15     2     2
 -2.6403652230997805E+00 a       678     1    15     2     3
  1.2529765082501407E+00 a       679     1    15     2     4
 -4.3661654879888462E-02 a       680     1    15     2     5
 -8.1416831811588919E-01 a       681     1    15     2     6
  3.1556305515402522E-01 a       682     1    15     2     7
 -2.3794782967893058E-01 a       683     1    15     2     8
  7.1164122371914129E-01 a       684     1    15     2     9
  2.1186297245256844E-01 a       685     1    15     2    10
  3.5147866085405161E-01 a       686     1    15     2    11
  1.2733053475070888E+00 a       687     1    15     2    12
 -1.1701336637482656E+00 a       688     1    15     2    13
 -1.1409444341702704E+00 a       689     1    15     2    14
 -5.1012382215740737E-01 a       690     1    15     2    15
 -5.4835438692741556E-01 b       691     2     1
 -4.1486503214876763E-01 b       692     2     2
  2.6907464114731550E-01 b       693     2     3
  1.9697951026599184E-01 b       694     2     4
 -2.0841553088764284E+00 b       695     2     5
 -4.1740099964796551E-01 b       696     2     6
  7.6443712327959235E-01 b       697     2     7
 -7.8330383566668083E-01 b       698     2     8
 -3.3974062027607932E-01 b       699     2     9
  3.5076551594935990E-01 b       700     2    10
  5.3854313088905115E-01 b       701     2    11
  1.2350600334985913E+00 b       702     2    12
 -2.1198709452162019E+00 b       703     2    13
 -4.6469637772835115E-01 b       704     2    14
 -8.8501262896021105E-01 b       705     2    15
 -7.4173854002720196E-01 a       706     2     1     3     1
 -2.9885558094177200E-01 a       707     2     2     3     1
  7.7149044526092647E-01 a       708     2     3     3     1
 -1.4473184990749730E-01 a       709     2     4     3     1
  3.5744148929783215E-01 a       710     2     5     3     1
  3.4739646383982981E-01 a       711     2     6     3     1
 -1.8585951231566911E-01 a       712     2     7     3     1
 -1.8904488612792500E+00 a       713     2     8     3     1
 -2.7163125592014858E+00 a       714     2     9     3     1
 -5.3099057654027648E-01 a       715     2    10     3     1
  8.8445697807039925E-01 a       716     2    11     3     1
 -1.6310931848451085E+00 a       717     2    12     3     1
  1.0102316395277868E+00 a       718     2    13     3     1
  1.1079602944239055E+00 a       719     2    14     3     1
  4.5616683323799939E-01 a       720     2    15     3     1
  1.0125480938837363E+00 b       721     3     1
